weight 0:
        -0.0397435        0.00495066        -0.0136492        0.00827977        0.00524966        -0.0161731        -0.0562483         0.0352571        -0.0453453
        -0.0572678        -0.0151625         0.0215726         0.0298751       -0.00852787        -0.0200149         0.0126763        -0.0275647         0.0352434
        -0.0839053         0.0232702         0.0120998         0.0312633        0.00606903        -0.0181697       -0.00768744        -0.0355844       -0.00339671
        -0.0907893         0.0108794          0.105979          0.107616        -0.0377883         -0.019151        0.00171221        -0.0041046        0.00807318
         -0.097068         0.0422443          0.114336         0.0723658       -0.00228235        -0.0333511         0.0249977        -0.0600654        0.00959569
       -0.00242637       -0.00462456           0.12366         0.0199225        -0.0112373        -0.0151772       -0.00502621         0.0322124        -0.0235032
         0.0338865         0.0373703        -0.0252786       -0.00838385        -0.0270117        -0.0318378          0.078716          0.013434         0.0245956
        -0.0150228        0.00134705        -0.0313577       -0.00898882        -0.0179463        -0.0172064        -0.0378676        0.00634226          0.048811
        -0.0233308         0.0115043        -0.0596888         -0.036305        0.00705909          0.014688         0.0130744        0.00774496        0.00194613

bias 0:
        0.00256841

weight 1:
        -0.0331278        0.00282028         -0.061345         0.0462406         0.0217362       -0.00125673        -0.0326427        -0.0114406         0.0276388
         0.0561509       -0.00384705        -0.0459629         0.0121674         0.0303077       -0.00767805        -0.0321996       0.000700437        -0.0023809
         0.0525803      -1.14302e-05        0.00200895        -0.0380353        -0.0031118        -0.0139827         0.0337076         -0.032184       -0.00706743
         0.0735902       -0.00497352        0.00709681         -0.020224        -0.0544363        -0.0404688        -0.0160824        -0.0728301         0.0282931
         0.0980349         0.0532511       -0.00439904        -0.0136073        -0.0488023        -0.0344525        -0.0221704        0.00181769        -0.0194375
          0.098698         0.0581816        -0.0233984       0.000885062        0.00483981       -0.00861505        -0.0163013        -0.0426113         0.0159139
         0.0802388         0.0482835        -0.0461909         0.0488223        -0.0182829        -0.0104532          0.017405        -0.0136313       -0.00879328
         0.0193367        0.00345978        0.00603181         0.0481119        -0.0159826        -0.0362676        -0.0563681        0.00249267         0.0137087
         0.0334451        -0.0432966         -0.046226         0.0553772        -0.0104482        -0.0429506        -0.0371564         0.0116508       0.000212747

bias 1:
          -1.16191

weight 2:
        -0.0230051        0.00970152         -0.017088        -0.0658154        -0.0128532         0.0446269        -0.0358305          0.042509        -0.0235498
        -0.0111004        0.00885853        -0.0205776        -0.0901647         0.0185576         0.0233699        0.00733172        -0.0156353        -0.0416718
        0.00251391        -0.0442447        -0.0486053        -0.0359782        -0.0174201        -0.0480693       -0.00996066        -0.0380551        -0.0432285
        0.00647507        -0.0175439         0.0221444       -0.00361019      -0.000376735        -0.0204315        -0.0199838       -0.00687495         0.0584535
         0.0382535         0.0821144         0.0138221       -0.00233672         -0.020209        -0.0390599        0.00508217         0.0575618        -0.0107599
          0.056258         0.0926159         0.0345333        -0.0131281        0.00324104        -0.0478128         0.0321795       -0.00823796       -0.00905808
         0.0523456         0.0875634         0.0248536          0.013124        -0.0051405        -0.0099458       -0.00944111         0.0449638         0.0425331
        -0.0141657         0.0239712       -0.00325602         0.0266458       0.000774922        -0.0339224         0.0155173       -0.00954632        -0.0219299
         0.0168022        0.00813037      -0.000534754        -0.0246292        -0.0451303         0.0371632           -0.0547        -0.0529327        0.00351942

bias 2:
        0.00463996

