weight 0:
         -0.194993        -0.0712873          0.176554          0.170958         0.0532869          0.367322          0.230338          0.311639           0.37481           0.12389         0.0455275          0.278753         -0.075154          0.203687          0.382165          0.151718           0.24602          0.464375          0.415636          0.265761        0.00636957           0.11528          0.530633          0.238515          0.162996          0.342945         -0.641237          0.122592       0.000598319         -0.193772          0.174252          0.124404        -0.0107324         0.0567719         -0.196182         -0.105355         0.0765452          0.264978         -0.145742         0.0305592        -0.0901734           0.26335          0.229357          0.103696          0.138824          0.108189        -0.0625487          0.026398          0.185105         0.0885416          0.921746           0.26621          0.486079          0.213591          0.324035          0.418255          0.418046        -0.0491181          0.510032           0.46951          0.210977          0.574172          0.430828          0.194148          0.421797          0.178153          0.214081          0.273762          0.236761          0.529071          0.126014          0.183362          0.257827          0.183222          0.338067
           1.10029          0.836195          0.353541          0.614863           0.28255          0.411592          0.291101          0.547368          0.366224          0.407503          0.464631         0.0749197          0.371808          0.126649          0.237782          0.507495          0.506344           0.56254          0.255369          0.569639          0.320569          0.324315          0.305337          0.415673          0.659373         -0.411801          0.978222          -0.25902        -0.0249651         -0.390319         -0.369364         -0.374533         -0.391162          -0.46082         -0.455843         -0.377691         -0.558881         -0.450745         0.0377394         -0.196992        -0.0270682         -0.481265         -0.433383         -0.259311         -0.387062         -0.208329        -0.0321999         -0.430181         -0.303717         -0.339509         -0.136854             0.352         0.0269652          0.485662          0.465124        -0.0137156          0.343331           0.50635          0.364331          0.230451            0.1954          0.136992          0.294366          0.256001          0.268558          0.268775          0.168085          0.364655          0.118445         0.0806492          0.360933         0.0979716          0.663967           0.20249          0.248492
         -0.383755         -0.364704          0.378953        -0.0374815          0.150684          0.107276       -0.00797333           0.44521        0.00727012          0.281259          0.192343        -0.0148643        -0.0672267          0.283906          0.111681          0.283687          0.305875           0.11891          0.197895          0.141832          0.185346            0.1097          0.298474          0.186359           0.13958          0.607199         -0.896882          0.467919          0.453654          0.282124          0.423622           0.24343          0.282759          0.121999          0.212902          0.506416          0.173331          0.271938            0.5095          0.200055         0.0620432         0.0502075          0.469965          0.301441          0.362173          0.293951          0.239266           0.23431          0.279799          0.355012          0.886103          -0.21147          0.526546          0.384483          0.553768          0.298047          0.218201          0.102059          0.369258          0.235435        -0.0151634          0.220459          0.416628          0.319959          0.353591          0.502815          0.299517          0.408678          0.285205           0.15194          0.503104          0.332923         -0.124251          0.491433          0.174685
         -0.278805         -0.207381        -0.0303011         -0.121956           0.16211          0.286713          0.336601         -0.181673          0.281906          0.549532           0.24992          0.223651          0.170998          0.187862        -0.0190759          0.376704          0.054814          0.224545        -0.0197314        -0.0294251         0.0183228          0.018645          0.198713        -0.0643531          0.129448          0.337721         -0.737761          -0.12373          -0.37079         -0.245527         -0.429814         -0.280556         0.0915144         -0.395452         -0.194247         -0.201727         -0.147326         -0.137337           -0.7088         -0.389156         -0.536101         0.0380597         -0.444068         -0.256456         -0.335385         -0.425927         -0.362158         -0.157336         -0.566089         -0.549542          0.897157          0.250622         -0.227202         -0.140172         -0.481006         -0.372198         -0.380462         -0.208949         -0.433576         -0.319472        -0.0600577         -0.459736         -0.295991        -0.0693166         -0.118655         -0.181839        -0.0435285         -0.157411         -0.189504         -0.460138          -0.26039          -0.51781         -0.433278         -0.404685        -0.0629267
         -0.333458         -0.208512          0.378793        -0.0197108         -0.148634          0.253875         0.0129106          0.106873          0.165686         0.0606669          0.250848          0.162818         -0.319582          0.267948         0.0872977        -0.0727808        -0.0274679         -0.138379         -0.258745          0.471677        -0.0079509          0.030104         0.0647234          0.486265         -0.124397          0.750337          -1.05589           0.40362          0.310598          0.393904          0.434943          0.417981          0.221145          0.323528          0.185002          0.364722        -0.0644444          0.320718          0.148144           0.29229          0.419612          0.685616          0.383652          0.409304          0.415346          0.341199          0.153324          0.512014          0.326351          0.228415          0.777491          0.054963          0.127079          0.624531          0.355058          0.771175          0.281845         0.0798607          0.248831          0.305594          0.356601         0.0981916          0.271613          0.274505          0.175122          0.373874         0.0607132          0.307155          0.350321          0.189381           0.16969          0.289342           0.37306          0.634919         0.0331247
         -0.302111         -0.487253         -0.242914         -0.115357        -0.0552482         -0.140611          0.119841          0.178773        -0.0581587         0.0374606          0.215967          0.253129        0.00280523         0.0422977          0.070592         -0.186678         -0.189243         0.0792252        -0.0335371        -0.0742684         -0.250577         -0.195517          0.073346       -0.00484652         -0.232268         0.0337864         -0.154518          0.228246        -0.0510053         -0.120645         0.0569825        -0.0752673          0.143128          0.101229        -0.0567222        -0.0562167         0.0267673       -0.00196811        -0.0141547        -0.0740843          0.116674         0.0524767          0.153326         -0.107769         -0.399984        -0.0695967         -0.102481         -0.353506         0.0360761          0.367657        -0.0693337        -0.0360642          0.169846        -0.0494153         -0.106067          0.611955          0.225022           0.10686         -0.218806         -0.150222        -0.0921039          0.077497         0.0155349         0.0311427         -0.205252          0.381096         -0.419088         -0.263056          0.106843         0.0199194          0.131485          0.181821         0.0278865         0.0129841          0.013351
          -0.34947         -0.371277          0.158649            0.1009          0.183728          0.208163        -0.0730738          0.221998          0.393022           0.33034         0.0839809          -0.11963        -0.0225292          0.152215          0.277024          0.257246          0.102233        -0.0588843          0.213345        -0.0844648          0.211736         -0.288928         0.0365967           0.23381          0.175815          0.732408         -0.756769          0.422052          0.373913          0.059657          0.393549           0.53264          0.540388          0.471033           0.44075         0.0669571           0.39981          0.331194          0.209103          0.143884          0.420344          0.386996          0.255811           0.55189          0.717578          0.597902          0.590461          0.468838          0.232674          0.186957          0.853092         -0.387958          0.543333          0.248644          0.410698          0.475055          0.453244          0.268586          0.254637          0.307871          0.423775          0.250447          0.183225          0.299406          0.296983          0.461931          0.458493           0.25459          0.366634          0.374562         0.0217512          0.360874          0.425646          0.388685          0.416622

bias 0:
        0.00265811
         0.0388898
       -0.00248495
       -0.00186751
       -0.00468974
                 0
       -0.00553244

