weight 0:
         0.0108134         0.0332194        -0.0106364        -0.0188375        -0.0270905          -0.03003         0.0600847         0.0471742         -0.046929         0.0275706         0.0259487       -0.00760737        -0.0477496       0.000422962         0.0152464         0.0738126        -0.0280069         0.0122769       -0.00121561         -0.048512        0.00331429        -0.0290331         0.0124111        -0.0633607        -0.0158182        -0.0381291         0.0493859         0.0468503         0.0555931        -0.0202757         0.0257267        -0.0140065       -0.00728756         0.0319441        0.00236221      -0.000812736         0.0837932        0.00421868         0.0294318         0.0212773        -0.0223046       -0.00303672        -0.0134057        -0.0273301        -0.0285528          0.026564        -0.0289105         0.0458638         0.0112715         0.0189877        -0.0395261        -0.0813644        -0.0416542        -0.0165374        -0.0250398         0.0137564        -0.0341391        0.00891356         0.0513143       -0.00618232       -0.00937794        -0.0183308        -0.0198048        -0.0195723          0.047809        0.00415217        -0.0285561         0.0519178         0.0133506         0.0144936        -0.0410846        -0.0384104        -0.0474613        -0.0105512         0.0412518         0.0713265        -0.0154377         0.0251026        -0.0311087        -0.0634625          0.010324        0.00864997        -0.0186886       -0.00423362         0.0256896         0.0632864        -0.0355011        -0.0372773         0.0314789        0.00162774        -0.0490166         0.0312523        -0.0208847       -0.00102836        -0.0199371         0.0291796        -0.0361542       -0.00898749         0.0683222         0.0289259        -0.0351989         0.0242165         0.0329201        -0.0503142        0.00817937        -0.0218945          0.047153         0.0330369         0.0128766         0.0278443        -0.0294076       -0.00530314         0.0160327        -0.0404088        -0.0409889         0.0276701         0.0442253         0.0450161         0.0056174        0.00864592        0.00238253         0.0309082         0.0236613         0.0124604        0.00206923         0.0353474        -0.0251845        -0.0109135         0.0145414         0.0131762       0.000285667         0.0298202        0.00283756        -0.0130794         0.0286633       -0.00990895         0.0185613        0.00223128        -0.0551924        -0.0233392       0.000894502        -0.0427521         0.0617362         0.0123728         0.0115715         -0.015098        -0.0342603         0.0214946           0.04832       -0.00206541        -0.0277667        -0.0420921        -0.0116404         0.0391134        0.00539022        -0.0106286         0.0318486         -0.037988         0.0246797        -0.0216893         0.0108273       0.000257116
         0.0367429         0.0163255        0.00448289        -0.0605395       -0.00499762       -0.00201331        -0.0544666         0.0199729        0.00752645        -0.0705771        0.00320916       -0.00719366         0.0360687        -0.0149598         0.0432945        -0.0387906        -0.0146557         0.0273151        -0.0240537         -0.016659        -0.0287891        0.00755846         0.0734916        -0.0203756        0.00738181        -0.0421562        -0.0261947         0.0391567        -0.0156891        0.00664286         0.0486678         -0.029339        -0.0578853        -0.0197538        -0.0305513        -0.0192829         0.0141935          0.025439        -0.0196221        0.00762818        -0.0305386      -0.000432698         0.0544356          0.013342        0.00145475         0.0269781        -0.0275986         0.0355449        0.00483453        -0.0580301        0.00934824       -0.00232077         0.0102474         0.0236783         0.0412112         0.0263109         0.0295291         0.0730926         0.0115125         0.0137395        -0.0753171        -0.0174676         0.0193652        -0.0117778        -0.0144302        0.00241626         0.0401619         0.0313503         0.0155995        -0.0185741         0.0401235        0.00375795         0.0412264         0.0137923        -0.0030898        -0.0286627       0.000909092        -0.0398223        -0.0047862        -0.0437041        0.00988853         0.0581186        -0.0872293         0.0713789          0.061111         0.0400715         0.0565045          0.088884         0.0391003          0.076794         0.0552587         0.0579184         0.0722771         0.0820466         0.0855061         0.0940617         0.0361905         0.0527524         0.0665634         0.0474368         0.0485717         0.0990647         0.0141194       -0.00339268        -0.0257723         0.0383778         0.0450467         0.0808808         0.0247945         0.0784209         0.0657295         0.0050495        -0.0389736      -0.000351981         -0.026867         0.0158673          0.097948         0.0847372          0.126848          0.112384         0.0123564        -0.0218916        0.00409931        -0.0508496        -0.0510624          0.142669          0.101962         0.0848039         0.0592287        -0.0165571        -0.0085085         0.0469497         0.0156276        -0.0141533         0.0855645         0.0564593         0.0886059         0.0495229        0.00933731        -0.0494418         0.0333786       -0.00549777         0.0153364         0.0495248         0.0147151         0.0516055          0.101778         0.0310279        -0.0317488         0.0201875        -0.0131406       -0.00369221         0.0030221        0.00945426        0.00289186         0.0358857        -0.0226629          0.011339         0.0412621        -0.0111362         0.0041012        -0.0376453
         0.0349696         0.0150113       -0.00575615         0.0209116         0.0221949          0.019429        -0.0328446       -0.00962367         0.0459104        -0.0541235        0.00455356        -0.0055495         0.0325659       -0.00827657        0.00429617       -0.00825953         0.0255503       -0.00409178      -0.000928868         0.0169782         0.0412537        0.00435661         0.0162021        -0.0498942        -0.0419347         0.0293957        -0.0578667        -0.0332977        -0.0242999        0.00749356         0.0108602         0.0199651         0.0426898         0.0187545        -0.0221722         0.0685934         0.0164928       -0.00286835        -0.0318401         -0.018172         0.0147049        0.00752201        -0.0588728         0.0468494        -0.0299886        -0.0401328       -0.00364454         -0.016099        -0.0319167        0.00986835        -0.0289454        -0.0333468         0.0712554         0.0193589        -0.0246254        -0.0273889        -0.0510368       -0.00561906         0.0245965        -0.0252335       0.000764967        -0.0339579          0.012222         0.0463091         0.0422003       -0.00832755          0.022719        -0.0129802        -0.0119948         0.0138657         0.0581225        0.00891619         0.0491848       -0.00488661         0.0345179         0.0121781        0.00368109        -0.0126738         -0.012441        -0.0471878         0.0327571        0.00453735         -0.016464         0.0036719       -0.00333011         0.0713857        -0.0501196         0.0344338         0.0336237         0.0408242        -0.0568773        -0.0164728         0.0144517        -0.0509325          0.046994         0.0363152        0.00535816       -0.00781848         -0.038353         0.0338191       -0.00766117        -0.0267186         0.0553592         0.0254587         0.0188449        -0.0179252        -0.0137431         0.0424038        -0.0440034         0.0183789         -0.026261      -0.000452664         0.0563351        -0.0135294        -0.0610736        0.00622818         -0.054857         0.0366163         0.0201189        -0.0121957         0.0478534         0.0642264        0.00235401         0.0461598         -0.027325        -0.0314834        -0.0106907        -0.0229033         0.0130682         0.0136015         0.0273467       -0.00120499        -0.0341382          -0.06824         -0.034142        -0.0133123        -0.0179446         0.0235442         0.0456699         0.0769598         0.0586926        -0.0349584         0.0617377        -0.0434912         0.0127908        0.00281219        0.00631175         -0.011634         0.0504788         0.0267812         0.0284918          0.002919        -0.0378598         0.0414152        -0.0408135        0.00624678         -0.064731          0.024634         0.0266865        0.00636534         0.0127786        -0.0290777
          0.011126         0.0112321        -0.0816491        -0.0337728        0.00613874        -0.0247381        -0.0255608        -0.0174721         0.0181513         0.0192354        -0.0242156         0.0151247         0.0319554        -0.0944405        -0.0220928          0.013602        0.00754125        -0.0529903        0.00270447        -0.0159099          0.034364        -0.0414707         0.0244859        -0.0142632         -0.020181         0.0430766      -0.000979875          0.034755         0.0332981         0.0155712         0.0112504         0.0086677       -0.00553835        -0.0133593        -0.0274394        -0.0149084         0.0253087        -0.0444226         0.0101584        -0.0362306        -0.0451766        -0.0711766        -0.0194685        0.00521959         0.0339972        0.00797365         0.0118729       -0.00155537        -0.0386462       -0.00757483        0.00605908         0.0429229        -0.0354433         0.0222722       0.000496066         0.0127619       0.000937074         0.0153905       -0.00784384        -0.0137855         0.0186302        -0.0416219        -0.0393481      -0.000999812         0.0166666         0.0445969        -0.0392481         0.0253906         0.0236284       -0.00617431        -0.0208987         0.0516488         0.0604153        -0.0133906         0.0174473         -0.036507        -0.0227429         0.0373777        -0.0131373        0.00862901        -0.0296638        -0.0174384         0.0553364         0.0479872         0.0285998         0.0107761        -0.0290108         0.0248539         0.0132306         0.0236084         0.0493765         0.0398289          0.017667         0.0370532          0.027986        0.00337601       -0.00464752        -0.0155619         0.0181185         0.0333671         0.0470442         0.0392692         0.0025539        -0.0288362         0.0119809        0.00116619          0.031649         0.0465999       -0.00891266         0.0437812         0.0336642        -0.0238851        -0.0128534         0.0142024        -0.0371679        -0.0465729         0.0551945       -0.00947144         0.0021323         0.0292923         0.0408746          0.027231        -0.0140997         0.0256192         -0.015269         0.0499414        0.00960446        0.00786546          0.037355        -0.0228168         -0.015435        -0.0123901         0.0258835         0.0208409        0.00123725        -0.0909359         -0.021466        -0.0371833        0.00038321         0.0359056       -0.00292974       -0.00207697        -0.0136972         0.0703221         0.0277342        -0.0316582        -0.0198817        -0.0188373         0.0404714        -0.0473847        0.00364617         0.0532473         0.0116403         0.0165364        -0.0169794         0.0245791         0.0229409        -0.0327628         0.0127214        -0.0360839         0.0104533        -0.0553547
        -0.0138768         0.0515623        0.00771776        -0.0267541        -0.0603027        -0.0250156        -0.0052643        0.00986776          0.036767       -0.00461453          0.021294       -0.00517543       -0.00884959         0.0577094         0.0218986         0.0304657       -0.00680988        0.00125065         0.0220563         0.0364067       0.000579728         0.0300606         0.0547336        0.00537706         0.0383031          0.027281         0.0134593        -0.0480981        -0.0197012        -0.0131598        0.00927125         0.0181795        -0.0164745        0.00844823       -0.00722966         0.0431959        -0.0298164      -0.000222005        -0.0163035         0.0149689         0.0141632         0.0145315        0.00590207         0.0382712         0.0325854         0.0107752         0.0520601        -0.0416788        -0.0194445        -0.0331109       -0.00592285        -0.0513712        -0.0084563         0.0238538        -0.0557524       -0.00602374         0.0386455         0.0239627       -0.00680979        -0.0168873        -0.0130967        -0.0560941         0.0398983        0.00832967         0.0281776        -0.0615144         -0.064671       0.000653997         0.0254724         0.0626728         0.0450344        -0.0238662        0.00432841         0.0680476        -0.0256064         0.0230736        -0.0652647        0.00248995        -0.0048327        -0.0448797        -0.0531759         0.0542764        -0.0380339        -0.0291394       -0.00788744         0.0234877        -0.0331731        -0.0656373        -0.0375449        -0.0534155         0.0172646       -0.00315092        -0.0613912         -0.039191          0.043205         0.0155893        -0.0494961       -0.00548723         0.0271294        -0.0450692        -0.0484008        -0.0498318        0.00566885        0.00107942       0.000403284         0.0390353        -0.0243373        -0.0298241        -0.0266379         -0.026267        -0.0308112        -0.0137144         0.0646686         0.0570215       -0.00440574        -0.0160066       -0.00314017          -0.04053        -0.0134829        -0.0620721         0.0309727         0.0515385          0.102559        0.00923842        -0.0111052        0.00784576         0.0459397        -0.0297559         0.0111416         0.0103644         0.0547598          0.064596        0.00610138         0.0298425        -0.0107481         0.0151962        -0.0313999      -0.000458778        -0.0764103         0.0446541        0.00929962         0.0678418         0.0110139        0.00212157        -0.0407832        0.00671829        -0.0448192       -0.00283737        -0.0242265        -0.0249645        0.00205531         0.0110996         -0.016196        0.00677543        -0.0197287         -0.013468        -0.0375223       -0.00922435        -0.0225166         0.0152973        -0.0028128         0.0221245
        -0.0230652         -0.013191         -0.051742        0.00039212        -0.0176207       -0.00982795        -0.0144143         0.0129922        -0.0225255         0.0315515        -0.0769514        0.00173101         0.0447237        -0.0258337         0.0268079        -0.0210851        -0.0472275         0.0504117        0.00626091        -0.0133988         0.0324521         0.0372472        -0.0471784         -0.062004         0.0151603       -0.00479521         0.0847737        -0.0333056         -0.029869         0.0651863        0.00326992        -0.0259715         -0.030692         0.0150949           -0.0341         0.0163361        0.00158076        0.00150892        -0.0243386         0.0322608        -0.0325423        -0.0478716       -0.00138785        -0.0424525        -0.0259511        0.00669934        -0.0167015         0.0191918        -0.0254999       -0.00146896        -0.0751359        0.00280838        -0.0458166        -0.0312565         0.0516894       -0.00346517        0.00386144         0.0482796        0.00306076        0.00864007        0.00362387        0.00589061        -0.0215012         0.0345878       -0.00926017        -0.0183081       -0.00485889       -0.00729701         0.0160471        -0.0206313         0.0246125        -0.0212277         0.0458389        -0.0138595       -0.00282463        -0.0252338        -0.0526822        -0.0163392        -0.0249326         0.0134587        -0.0546032      -0.000525051          0.072996        -0.0137545        -0.0125247          0.047219        -0.0299132         -0.019059         0.0459809        -0.0210198        -0.0107794        -0.0514411         0.0267104         0.0356363        -0.0783445        -0.0184293         0.0415996         0.0242928        0.00629758        -0.0184754          0.082349       -0.00739604        0.00141501        0.00533357           0.04126         0.0301037         0.0293393       -0.00312344         0.0259356       0.000348472         0.0404665         0.0488012        -0.0342063         0.0362863         0.0127951         0.0140866         0.0222474         0.0266755       -0.00821423         0.0165357        -0.0242928         0.0797246        -0.0328165        -0.0382409       0.000228276         0.0595679        -0.0064022       -0.00539048         -0.030257        0.00825893      -0.000869064        -0.0184836          0.012435        0.00711385        -0.0470445         -0.014487          0.020318          0.038131        -0.0153668        -0.0440095         -0.056663        0.00497301       -0.00266307         0.0500484         0.0164515        -0.0163703        -0.0321931         0.0497469         0.0289518         0.0590231         0.0439157         -0.018927         0.0246141         -0.055324        0.00717172        -0.0605599         0.0263176        0.00387063        -0.0359975        -0.0138142      -0.000155652       -0.00840396
        0.00488919         0.0190925        0.00382508        0.00420133        -0.0419334        -0.0348186        0.00154853         0.0510156         0.0312548         0.0376114         0.0283677       -0.00757013        -0.0286008        -0.0390784        -0.0541055        -0.0136589         0.0236767       -0.00829708        -0.0288945         0.0174948        -0.0495388        -0.0464435        -0.0257379         0.0604046        -0.0310246         0.0585471        -0.0536846         0.0353815         0.0156184         0.0213506        -0.0387558       -0.00349683        -0.0605975        0.00478745        0.00311856        -0.0206257         0.0315629        -0.0192124       -0.00101997       -0.00394084         -0.028791        -0.0267111      -8.00542e-05         0.0665884         0.0884226        -0.0213583        -0.0209455         0.0115484        -0.0410032         0.0368425         0.0308519        -0.0124053        -0.0182316        0.00999065        0.00407879         0.0300006        -0.0367789        -0.0110472         0.0364492         0.0542618        -0.0233524         0.0342435        0.00594199        -0.0263002         0.0527665         0.0125415        0.00428674         0.0163157        -0.0148776        0.00912285          0.046244          0.011526       -0.00914451        -0.0266189        -0.0100429         0.0343666        -0.0256002         0.0408378         0.0606207        -0.0499806         0.0593774        -0.0443107       -0.00850716        -0.0350873       -0.00851258          0.007315        -0.0317392        0.00115112         0.0213394         -0.023615         0.0370883         0.0654168        0.00720924        -0.0171624         0.0316432        -0.0320262         -0.046393         0.0262832        -0.0244929         0.0405518       -0.00311748         0.0224581       -0.00940551        -0.0383704         0.0588779       2.23261e-05        -0.0429616        -0.0316355        0.00268743        -0.0185538         0.0466811         0.0105073        0.00356581       -0.00559958        -0.0187068        -0.0357709        -0.0184475          0.017508        -0.0600156        -0.0337005         0.0301716         0.0279612           0.02177       -0.00241881       -0.00851523        -0.0275773        -0.0386664         0.0192557        -0.0145769        -0.0310354         0.0963096         0.0604756        -0.0204664         0.0353475        -0.0516339         0.0347674        0.00444434        -0.0314216        0.00451037         0.0473931         0.0008908         0.0203127         0.0197277        0.00454814        -0.0363263        -0.0375945        0.00484627         0.0320191        -0.0205138         0.0461973         0.0474068       -0.00364168       -0.00755351        -0.0197475         0.0244822         0.0426545        -0.0549685         0.0253391        -0.0310624        -0.0188048         0.0947163           0.03585
        -0.0368497         -0.023872        0.00531203        0.00293698         0.0196973       -0.00628519         0.0514099        -0.0167044       1.17556e-05        -0.0101061         0.0211713        -0.0277453         0.0659933         0.0486637        0.00402209        -0.0204107       0.000830397         0.0207339        0.00342911         0.0173433        0.00670778        -0.0431674       -0.00766775         0.0451365         0.0340902         0.0421642         0.0180703       -0.00350584         0.0522368         0.0778305       -0.00257503         0.0726644        -0.0212609       -0.00838381        0.00330498        0.00269367        0.00262208         0.0571677         0.0174568         0.0544377        -0.0402785          0.036571        -0.0156656       -0.00826026        -0.0400063        -0.0239278       -0.00536188        -0.0227585         0.0238287         0.0244833         0.0303353         0.0240989         0.0339134        -0.0284567       -0.00741824        0.00858848        -0.0520107         0.0310484         0.0540615        -0.0278483        -0.0332278         0.0163141         -0.041181         0.0218305       -0.00420511        -0.0122266         0.0540987        -0.0291525         0.0293181       -0.00821349        0.00911194        -0.0477427         0.0130999         0.0019199         0.0187839        0.00756636       -0.00761669        0.00664299         0.0120014         0.0161464        -0.0471271         0.0203253        -0.0324932        0.00739373         0.0458454       -0.00149527         0.0170633        0.00695179        -0.0184645        3.9312e-05        -0.0109653         0.0387621         0.0210957         0.0722193         0.0200903         0.0769585        0.00379638         0.0122008         0.0446939        0.00765106         0.0397398        -0.0213897          0.038588        -0.0476267         -0.017676         0.0555493      -0.000874758         0.0329087         0.0136779         0.0181238         0.0631083         -0.088785         0.0758473         0.0079113        0.00918145         0.0301763         0.0418024         0.0540289         0.0116506        -0.0152228         0.0236136         0.0442963          -0.02928      -0.000857528       -0.00604799        -0.0305704         0.0565234         0.0494782          -0.05222         0.0227846        -0.0564403        0.00380951        -0.0205027        -0.0163424         0.0358146        0.00302102         0.0736348         0.0191467        -0.0213272         0.0082312       -0.00388853         0.0455623        0.00370129        0.00360029         0.0359244        -0.0198235        0.00257396         0.0454542        -0.0314458         0.0368802        -0.0512869          0.013629       -0.00912727       -0.00262792        -0.0440211       -0.00323258         0.0417497         0.0434503        -0.0325387         -0.013902         -0.059388       -0.00882067
       -0.00858461       -0.00106389         -0.031761        -0.0185581         0.0174168          -0.03051         0.0130634        -0.0206734         0.0157849        0.00256999         0.0187275        -0.0110012        0.00423519        -0.0305327         0.0332166        -0.0191548        -0.0559579         0.0471115        -0.0142225       -0.00826111        -0.0182831         -0.042705        -0.0113798         0.0325555         0.0136104        -0.0261554        -0.0164218         0.0418122       -0.00139189        -0.0256659        -0.0269905       -0.00835797         -0.032996        -0.0234157         0.0379038        0.00717059       -0.00250697       -0.00962184        -0.0668304        -0.0353852          0.026805        0.00211268         0.0641082        -0.0247704        -0.0182812       0.000332742         0.0350753        0.00570581        -0.0716591        -0.0187316         0.0784003        -0.0172202         0.0250155        0.00715341         -0.013723         0.0385553           0.01566         -0.039314        0.00133855         -0.042809         -0.010178        -0.0292115         0.0299006        -0.0291787        0.00974253         0.0314631        -0.0273938         -0.013576      -0.000837828         0.0339682        0.00810282         0.0539714        -0.0206582      -0.000699227        -0.0629617       -0.00316494        -0.0512255        0.00121041         0.0127539        -0.0108199       -0.00885183         0.0281906         0.0607917       -0.00317993        -0.0249055         0.0145832         0.0315671        -0.0100536        -0.0223167         0.0114357          0.061558      -0.000336367        -0.0166388        -0.0683167        -0.0519945         0.0147618         0.0470276        -0.0179016        -0.0242414        0.00625652         0.0184204        -0.0417653        -0.0160176        -0.0389953         0.0125399        -0.0274621         0.0345829        -0.0106492        -0.0296912        0.00425683        -0.0365118         0.0107452         0.0308521         0.0631451         0.0329551         0.0603625        -0.0373222         0.0147543        0.00701711        -0.0178002        -0.0516189        -0.0286517         0.0604307         0.0580462         0.0264063         0.0488394         0.0481745        -0.0417777      -0.000920564        -0.0431383        -0.0250433        -0.0105237         0.0940044         0.0391323        0.00308961       -0.00160393       -0.00878775        -0.0142211        -0.0897048        -0.0715125         0.0900854         0.0235644         0.0407972         0.0897417         0.0402603           0.01771        -0.0903327        -0.0178865        -0.0320168         0.0345683        -0.0170623         0.0823201        -0.0394418        0.00167946        -0.0327618        -0.0653331       -0.00764543        -0.0154743          0.044979        -0.0010341        0.00396796         0.0278298
        -0.0171537        0.00657502        0.00921661        -0.0171152         0.0567941        -0.0021372        -0.0131824         -0.052502        -0.0279855          0.024769        -0.0636786         0.0511948        -0.0130297         -0.079527        -0.0669539          0.040455        0.00634543        -0.0115544        -0.0256129         0.0202687        -0.0215503        -0.0161198         0.0614662        0.00692498       0.000433566        0.00679675         0.0381745         0.0391216        -0.0581695         0.0265965         0.0330266        -0.0368423         0.0282738         0.0208376         0.0179901       -0.00798014        0.00287529        -0.0560588        -0.0659399        -0.0167859       -0.00966454        0.00490078         0.0108533         0.0855364        -0.0172084       -0.00277459       -0.00959042        -0.0960975        0.00929754         0.0490468         0.0036329        -0.0511896         -0.024539        -0.0100331       -0.00227422        -0.0371641        0.00544422         0.0192476        -0.0127903        -0.0276284        -0.0280016         0.0285753         0.0093346         0.0189118        -0.0091434        0.00311498        -0.0449513         0.0170849        -0.0254399        0.00382266        0.00830535        -0.0151609       -0.00131099        -0.0377704        -0.0443766         0.0526137        0.00855655        -0.0387779        0.00334849        -0.0152266         0.0261061         0.0390761        0.00692505         -0.046912        -0.0784088        -0.0400913        -0.0401459       -0.00812953       -0.00407837         0.0121617        -0.0276042        -0.0220438        -0.0283071        -0.0917246       -0.00778603        0.00103574        -0.0333512         0.0286474       -0.00813275        -0.0100153         0.0456104         0.0115703         0.0198514        -0.0422956        -0.0157852       -0.00818115        -0.0162563        -0.0374723        -0.0329378        -0.0611246      -0.000233103        0.00698577        -0.0167717        0.00567207         0.0279987        -0.0413644        -0.0674364         0.0144568         0.0423542        -0.0417686        -0.0493926       -0.00726988         0.0864569         0.0377347         0.0464934        -0.0370606        -0.0108473         0.0155236        -0.0846841        -0.0285967          0.109629          0.106253          0.109747          0.043463         -0.029924        -0.0538677          0.013637        -0.0281749        -0.0189454         0.0287062         0.0870868         0.0431513        -0.0263233        -0.0556402        -0.0819034          -0.05174         -0.069487        0.00359155         0.0176125         0.0652854         0.0357302         0.0343939         0.0152703         0.0380319          0.068608        -0.0417419         -0.045126        -0.0449906        -0.0263869         0.0274747       0.000305684        -0.0531819

bias 0:
          -2.82182
          0.356213
         -0.698192
             0.423
         0.0379192
          0.161678
          0.489745
        -0.0588016
          -1.36428
           1.92349

