weight 0:
         0.0107486         0.0330205        -0.0105728        -0.0187249        -0.0269285        -0.0298503         0.0597252         0.0468922        -0.0466481         0.0274056         0.0257935       -0.00756185        -0.0474639       0.000420431         0.0151552         0.0733709        -0.0278395         0.0122036       -0.00120834         -0.048222        0.00329446        -0.0288477          0.012351        -0.0629615        -0.0157138        -0.0378623         0.0491256         0.0465698         0.0552605        -0.0201547         0.0255817        -0.0138954       -0.00721264         0.0317558        0.00238618      -0.000770673          0.083292        0.00419346         0.0292558          0.021151        -0.0221488       -0.00299786         -0.013316        -0.0271522        -0.0283438         0.0264052        -0.0287374         0.0455896         0.0112041         0.0188752        -0.0392841        -0.0808731        -0.0413825        -0.0164077        -0.0248898         0.0136742        -0.0339348        0.00886026         0.0510075       -0.00614525       -0.00932145        -0.0182208        -0.0196787         -0.019455          0.047523        0.00412735        -0.0283853         0.0516072         0.0132707         0.0144069        -0.0408388        -0.0381805        -0.0471774        -0.0104882         0.0410049         0.0708998        -0.0153453         0.0249523        -0.0309226         -0.063083         0.0102622        0.00859824        -0.0185769       -0.00420831          0.025536         0.0629077        -0.0352887        -0.0370541         0.0312905        0.00161801        -0.0487233         0.0310654        -0.0207596       -0.00102223         -0.019818         0.0290049        -0.0359381       -0.00893372         0.0679135         0.0287528        -0.0349884         0.0241564         0.0329037        -0.0498295        0.00834451         -0.021419         0.0472469         0.0329866         0.0127948         0.0276734        -0.0289801       -0.00468699         0.0165146        -0.0395555        -0.0398535         0.0283615         0.0442303         0.0447421        0.00557536        0.00888196        0.00312858         0.0314517         0.0241995         0.0133809        0.00304541         0.0355041        -0.0250339        -0.0108523         0.0146341         0.0135772       0.000742484         0.0301147        0.00362034        -0.0121106         0.0289082       -0.00984966         0.0184505        0.00227571        -0.0547345        -0.0230685        0.00117118        -0.0419663         0.0619216         0.0125483         0.0115025        -0.0150077        -0.0340552          0.021369         0.0480393       -0.00196334        -0.0274225        -0.0416743        -0.0114923         0.0388795        0.00535798         -0.010565         0.0316579        -0.0377608         0.0245319        -0.0215595         0.0107625       0.000255578
          0.036716         0.0162832        0.00451816        -0.0601174       -0.00493646       -0.00191647        -0.0540457         0.0199293        0.00754016        -0.0697853        0.00350791       -0.00681339           0.03604         -0.014838         0.0429908        -0.0384531        -0.0140797         0.0275695         -0.023509        -0.0161185        -0.0279866        0.00701654          0.072578        -0.0212354        0.00696559        -0.0443034        -0.0284866         0.0391333        -0.0154462        0.00682617         0.0480247        -0.0299935        -0.0586676        -0.0180123        -0.0309168        -0.0208606         0.0146575         0.0255896        -0.0191797        0.00814036        -0.0299455      -0.000662223         0.0529183         0.0133641      -0.000583083         0.0271844        -0.0269565         0.0360701        0.00461338        -0.0593562        0.00686021       -0.00431101        0.00987133         0.0238147         0.0411867         0.0264734         0.0299658         0.0734724         0.0110173         0.0130508        -0.0739369        -0.0171337           0.01858        -0.0113833        -0.0140039        0.00269462         0.0420406         0.0328179         0.0156718        -0.0185107         0.0400033        0.00380328         0.0409797         0.0137098       -0.00307132        -0.0284912       0.000903654        -0.0395839       -0.00481914         -0.043451        0.00982116         0.0635868        -0.0805545         0.0775684         0.0671476         0.0459477         0.0622949         0.0942533         0.0442185         0.0818827         0.0632802         0.0643592         0.0769476         0.0844042         0.0866772         0.0977236         0.0449087         0.0644425         0.0847834         0.0619969         0.0635242          0.106926         0.0145349       -0.00387244         -0.024048         0.0373587         0.0478951          0.122068          0.036579         0.0913442         0.0665372       -0.00605993        -0.0414365        0.00733958        -0.0281104         0.0167924          0.154574         0.0952016          0.135862          0.115223         0.0100282       -0.00774407         0.0231987        -0.0498676        -0.0442789          0.198191           0.11773          0.102224         0.0720496        -0.0156193       -0.00312249         0.0483308        0.00675888       6.13606e-06          0.132467         0.0709724          0.109476         0.0589715       -0.00907723        -0.0608545          0.041669       -0.00390087         0.0205758         0.0727697         0.0270568         0.0700587          0.123384         0.0362044        -0.0319868          0.035709       -0.00623449        -0.0118937         0.0043486         0.0157765         0.0120481         0.0542982       -0.00535013         0.0124126         0.0370642         -0.011662        0.00488296        -0.0367887
         0.0347587         0.0149194       -0.00573077         0.0207699         0.0220513         0.0192807         -0.032684       -0.00959505         0.0456133        -0.0539017        0.00449053       -0.00553775         0.0323684        -0.0082297        0.00430088       -0.00824456         0.0252329       -0.00418999        -0.0010737         0.0167101         0.0407689        0.00457718         0.0164199        -0.0490536        -0.0416959         0.0290685        -0.0576189        -0.0331801        -0.0242117        0.00736584         0.0109806         0.0204718         0.0431584         0.0179674        -0.0226638         0.0680055         0.0161812       -0.00296846        -0.0317717        -0.0181665         0.0151812        0.00830797        -0.0583177         0.0463453        -0.0299972        -0.0400281       -0.00380261        -0.0162842          -0.03154         0.0111953        -0.0270608        -0.0324365         0.0700929         0.0182664        -0.0245628        -0.0273428        -0.0509566       -0.00589918         0.0246015        -0.0244534       0.000880703        -0.0338177         0.0120618         0.0459065         0.0418159       -0.00838923         0.0221694        -0.0129171        -0.0118385         0.0138552         0.0577199        0.00881176         0.0488904       -0.00485735         0.0343112         0.0121051        0.00365906         -0.012598        -0.0123426        -0.0469021         0.0325643        0.00298703        -0.0184713        0.00124376       -0.00571181         0.0686312         -0.052153         0.0319693         0.0313459         0.0384441        -0.0576951        -0.0169758         0.0139492         -0.051002         0.0462935         0.0346546        0.00226355        -0.0114875        -0.0422279         0.0292834        -0.0115766        -0.0274445         0.0576658         0.0285226         0.0184399        -0.0228309        -0.0208309         0.0310485        -0.0482918         0.0133917        -0.0241154         0.0104833          0.065969        -0.0173464        -0.0759469       -0.00769272        -0.0683777         0.0321381         0.0164915       -0.00899344         0.0628866           0.07899      -6.74957e-05         0.0299384        -0.0424189        -0.0454283        -0.0169203        -0.0293601         0.0140327         0.0334405          0.054451        0.00933021        -0.0456095        -0.0901876        -0.0548781        -0.0188529        -0.0258526         0.0227758         0.0630009          0.100696         0.0659158        -0.0478581            0.0415        -0.0579128        0.00794212        -0.0036638        0.00357002       -0.00180476         0.0637144         0.0293092         0.0233274       -0.00130655        -0.0400205         0.0386732        -0.0434611        0.00458923        -0.0596903         0.0327211          0.031226        0.00723135          0.011916        -0.0293544
         0.0111273         0.0111844        -0.0811389        -0.0335496          0.006113        -0.0245603        -0.0253745        -0.0173409         0.0180633         0.0192502         -0.023959         0.0151527         0.0318298        -0.0938634        -0.0219739         0.0135588        0.00766765        -0.0525264        0.00282912        -0.0156598         0.0343799        -0.0413971         0.0241729         -0.014521        -0.0201891         0.0419776       -0.00183293         0.0346212         0.0331514         0.0155564         0.0110594        0.00832354       -0.00590346        -0.0127101        -0.0274663        -0.0154126         0.0252522        -0.0440547         0.0102118        -0.0358175        -0.0447653        -0.0708406        -0.0197783        0.00522393         0.0330813        0.00792596         0.0118078       -0.00148618        -0.0385088       -0.00792832        0.00532129         0.0419942        -0.0353382         0.0222348       0.000493097         0.0126878       0.000968219         0.0154662        -0.0080749        -0.0138944         0.0187975        -0.0412519        -0.0393672      -0.000881499          0.016685         0.0444312        -0.0382843         0.0257525         0.0234448       -0.00615186        -0.0206491         0.0513637         0.0600539        -0.0133104          0.017343        -0.0362887         -0.022607         0.0371539        -0.0130587        0.00857741        -0.0294892        -0.0152901         0.0571679         0.0500256         0.0306787         0.0128611        -0.0266834         0.0267792         0.0150326         0.0254172         0.0520162         0.0419757         0.0193545         0.0378382          0.028426        0.00485541       -0.00147527        -0.0112499         0.0245533         0.0383842         0.0521196         0.0420054        0.00272639        -0.0288038         0.0125019       0.000908417         0.0325713         0.0609711       -0.00466587         0.0482257          0.033885        -0.0276302        -0.0137079         0.0168493        -0.0373977        -0.0458986         0.0749829       -0.00629032        0.00549266         0.0303523         0.0398059         0.0319076       -0.00737051         0.0256989        -0.0128676         0.0694682         0.0116419         0.0109984         0.0401245        -0.0217033        -0.0120375        -0.0110814         0.0226941         0.0256304         0.0178698         -0.090071        -0.0194091         -0.037323       -0.00681188          0.032109        5.0174e-05       -0.00202843          -0.01196             0.078         0.0299206        -0.0274371        -0.0140362        -0.0182368         0.0391259        -0.0418773        0.00624931         0.0503089         0.0118954         0.0186504        -0.0136841         0.0310176         0.0288377        -0.0319268         0.0124794        -0.0345325         0.0113111        -0.0548026
        -0.0137976           0.05125        0.00767159        -0.0265942        -0.0599419        -0.0248658       -0.00523281         0.0098087         0.0365465       -0.00465156         0.0211485       -0.00514743       -0.00880141          0.057373         0.0218017         0.0302683       -0.00688308        0.00114414         0.0218204         0.0360745       0.000413906         0.0300415           0.05461        0.00570239         0.0382487         0.0277674         0.0140328        -0.0478474        -0.0196227         -0.013141        0.00930975         0.0182922        -0.0160769        0.00796601       -0.00704419          0.043384        -0.0296624      -0.000262887        -0.0162678         0.0147393         0.0139703          0.014509        0.00618733         0.0380142          0.032927         0.0107021         0.0517404        -0.0414504        -0.0195721        -0.0335174       -0.00594558        -0.0505148       -0.00824434         0.0240021        -0.0554189        -0.0059877         0.0384119         0.0236883       -0.00721454        -0.0170842        -0.0128377        -0.0555344         0.0400078        0.00827983         0.0280092        -0.0611476        -0.0644167       0.000356287         0.0253495         0.0624879         0.0448739        -0.0236981        0.00430251         0.0676405        -0.0254532         0.0229356        -0.0648743        0.00247505       -0.00478745        -0.0446089        -0.0528557         0.0538971        -0.0378304        -0.0289649       -0.00784026         0.0233471        -0.0329745        -0.0652445        -0.0374191          -0.05381         0.0165079       -0.00333561         -0.061084         -0.038899           0.04319          0.015153        -0.0508679        -0.0081098         0.0223346        -0.0476073        -0.0506831        -0.0501381        0.00732917        0.00314471        0.00167049         0.0399821         -0.024647        -0.0405575        -0.0294488        -0.0294987        -0.0303647       -0.00946225         0.0665578         0.0559592       -0.00337289        -0.0160962         -0.018361        -0.0417943        -0.0154372        -0.0624007         0.0314439         0.0475191         0.0968676        0.00896316        -0.0128335       -0.00726682         0.0447841        -0.0311541        0.00661065        0.00241528         0.0448926         0.0609496        0.00972995         0.0293229        -0.0203125         0.0149323        -0.0318652       -0.00583331        -0.0865424         0.0342252          0.007865         0.0760053         0.0180767        0.00225257        -0.0405392        0.00645886        -0.0490608        -0.0113593        -0.0290581        -0.0221981         0.0112108         0.0198894        -0.0127374         0.0067349        -0.0197318        -0.0154443        -0.0411726       -0.00938126        -0.0182021         0.0187212       -0.00150189         0.0222057
        -0.0228835        -0.0130994        -0.0514186       0.000402662         -0.017509       -0.00975063        -0.0143067         0.0129316        -0.0223776         0.0314464        -0.0764189        0.00179701         0.0444986        -0.0256719         0.0266374        -0.0209352        -0.0468345         0.0502047        0.00631415         -0.013219         0.0324007         0.0369116        -0.0470038        -0.0618561         0.0149849       -0.00531136         0.0837108        -0.0330933        -0.0296603         0.0648468        0.00320465        -0.0260004        -0.0307268         0.0153989        -0.0338705         0.0159508        0.00167402        0.00151989         -0.024192         0.0321814        -0.0321314        -0.0473274       -0.00155048        -0.0426291        -0.0264957        0.00673509        -0.0165006         0.0192264        -0.0255702       -0.00235416        -0.0754966        0.00261426         -0.045516        -0.0308904         0.0514303       -0.00337216        0.00397696         0.0481789        0.00295544        0.00861282        0.00395831        0.00592982        -0.0214879         0.0344543        -0.0091278        -0.0181323       -0.00435065       -0.00686785         0.0160024        -0.0204885         0.0244923        -0.0210853         0.0455648        -0.0137766       -0.00280773         -0.025083        -0.0523671        -0.0162415        -0.0247973         0.0133763        -0.0542784       0.000795819         0.0739516        -0.0121811        -0.0110113         0.0483103        -0.0283576        -0.0176196         0.0469069        -0.0196488       -0.00882314         -0.049598         0.0276984         0.0360558        -0.0775075        -0.0173725         0.0433702         0.0268662         0.0104764        -0.0150033         0.0853085        -0.0054388         0.0015157        0.00518233         0.0413594         0.0297303         0.0298546        0.00632149         0.0282078        0.00334489          0.040668         0.0462631        -0.0343619         0.0383638         0.0135688         0.0149951          0.031999          0.027921       -0.00702334         0.0169014         -0.023212         0.0854145        -0.0273217        -0.0423921       -0.00632183         0.0618358        -0.0035897       -0.00280664         -0.031087        0.00205135       -0.00471471        -0.0212124         0.0058224        0.00368985        -0.0423024        -0.0111872         0.0245685          0.037122        -0.0248585        -0.0501596         -0.054127        0.00840956        0.00150325           0.05625         0.0191669        -0.0120259        -0.0264393         0.0531892         0.0335089         0.0669183         0.0476451        -0.0198116         0.0250832        -0.0535478        0.00920621        -0.0558108         0.0307226        0.00511912        -0.0359299         -0.013621       2.88943e-05       -0.00821003
        0.00484261         0.0189735         0.0037982        0.00417399        -0.0416834        -0.0346109        0.00153924         0.0507103         0.0310678         0.0373531         0.0281695       -0.00755517        -0.0284462        -0.0388443        -0.0537739        -0.0135735         0.0235346       -0.00824761        -0.0287577         0.0173505        -0.0492988        -0.0461123        -0.0254991         0.0601727        -0.0308613         0.0581885        -0.0533641          0.035151         0.0155116         0.0212038        -0.0384676       -0.00329816        -0.0600364        0.00459495        0.00279378        -0.0206989         0.0313245        -0.0191248       -0.00104315        -0.0039683        -0.0286578        -0.0265311       2.54544e-05         0.0661638         0.0878854        -0.0212586        -0.0208629         0.0114126        -0.0407419         0.0367731         0.0308929        -0.0121441        -0.0180962        0.00989458        0.00403433         0.0297961        -0.0366075        -0.0110521          0.036269         0.0539988        -0.0232905         0.0340172        0.00596681         -0.026172         0.0524203         0.0124402        0.00406939         0.0160722        -0.0147957        0.00907654         0.0459564         0.0114511       -0.00908981        -0.0264597        -0.0099829         0.0341609        -0.0254471         0.0405935         0.0602637        -0.0496809          0.059023        -0.0442291       -0.00853297        -0.0349269       -0.00849156        0.00725057        -0.0315705        0.00112461         0.0211989        -0.0234781         0.0361245         0.0644414        0.00675721        -0.0172143         0.0314768        -0.0317982        -0.0461101            0.0261        -0.0244107          0.038975       -0.00444657         0.0217979       -0.00872415        -0.0371695           0.05887      -0.000230618        -0.0432098        -0.0338893        0.00160458        -0.0195768         0.0470549         0.0135595         0.0066266       -0.00655875        -0.0239709        -0.0416306        -0.0253851          0.016421        -0.0604895        -0.0333079         0.0316296         0.0284792         0.0182935       -0.00961117        -0.0167615        -0.0358308        -0.0398712         0.0175282        -0.0157074        -0.0309615         0.0952757         0.0587639        -0.0225591         0.0306033        -0.0572113         0.0333182        0.00258655        -0.0320648        0.00617416         0.0482929       0.000130499         0.0197395         0.0187294        0.00222914        -0.0371713        -0.0389669        0.00288913         0.0314548        -0.0201277         0.0447171         0.0465761       -0.00288011       -0.00762857        -0.0202011         0.0235106         0.0407312        -0.0561207         0.0252211         -0.030404        -0.0186022         0.0940779         0.0355798
        -0.0365815        -0.0237155        0.00529566         0.0029343         0.0195873       -0.00622659          0.051126        -0.0165857       2.62386e-05       -0.00995396         0.0211235        -0.0274955         0.0656449         0.0483806        0.00398688        -0.0202626       0.000946607         0.0207137        0.00350804          0.017349        0.00682408        -0.0430328       -0.00773987         0.0446219         0.0337932         0.0413145         0.0173525       -0.00343257         0.0519613         0.0774203       -0.00258136         0.0720649        -0.0213376       -0.00790264        0.00330367        0.00234101         0.0027426         0.0569007         0.0174308         0.0542616         -0.039755         0.0366736        -0.0158105       -0.00870869        -0.0405627        -0.0236935       -0.00521151        -0.0224495         0.0234314         0.0233383         0.0292518         0.0238097         0.0337768        -0.0281078       -0.00731891        0.00861629        -0.0515477          0.031065         0.0536354        -0.0277335        -0.0326188          0.016442        -0.0410318         0.0217131        -0.0041665        -0.0121384         0.0542354        -0.0286315         0.0291245       -0.00816824        0.00909801        -0.0474571         0.0130216         0.0019084         0.0186716        0.00752111       -0.00757113        0.00660325         0.0119295         0.0160499        -0.0468453         0.0216492        -0.0307695        0.00899399         0.0471623       3.37048e-05         0.0184844        0.00837702        -0.0170238        0.00141792       -0.00882415         0.0402168         0.0222372         0.0724941         0.0203869         0.0775463        0.00599257         0.0151101         0.0490521         0.0112933         0.0432893        -0.0191631         0.0384774        -0.0474718        -0.0171897         0.0550054      -0.000111835         0.0430518         0.0165593         0.0213409         0.0634019        -0.0903191         0.0753585         0.0105226        0.00990975         0.0307465         0.0519815         0.0564277         0.0139389        -0.0135374         0.0255669         0.0515223        -0.0234238       -0.00638924        -0.0138296        -0.0279699          0.060249         0.0532283        -0.0517036         0.0172244        -0.0592726        0.00104273        -0.0276917        -0.0201684         0.0403745        0.00668653         0.0781792         0.0182508        -0.0319868       0.000833424      -0.000972758          0.050395        0.00902797         0.0107364         0.0374961        -0.0163046        0.00690933         0.0464275        -0.0288396         0.0449659        -0.0454891           0.01321       -0.00845237       -0.00230465        -0.0427159       0.000192023         0.0445882         0.0429752        -0.0325463        -0.0128888        -0.0586142       -0.00874654
       -0.00853326       -0.00105752        -0.0315708        -0.0184473         0.0173127        -0.0303273         0.0129854        -0.0205496         0.0156907        0.00250939         0.0185631        -0.0109543        0.00420813        -0.0303313         0.0330883        -0.0190071        -0.0556231         0.0468297        -0.0141822       -0.00826079        -0.0182614        -0.0425223        -0.0113319         0.0324032         0.0140008        -0.0245532        -0.0149431         0.0415564       -0.00138895        -0.0255209        -0.0269523       -0.00890195        -0.0333661        -0.0234004         0.0387484        0.00838847       -0.00249246       -0.00956516        -0.0664342        -0.0352471         0.0256277        0.00115094         0.0644011        -0.0239334        -0.0164623       0.000330751         0.0348656        0.00567168        -0.0712536        -0.0192928         0.0773156        -0.0168032         0.0255335        0.00792215         -0.013641         0.0383245         0.0155664        -0.0391748       0.000531272        -0.0435921        -0.0104605        -0.0286634         0.0303774        -0.0290041        0.00968425         0.0312748        -0.0274862        -0.0141431      -0.000894367         0.0338873          0.008282         0.0536988        -0.0205345      -0.000695044        -0.0625849       -0.00314602        -0.0509191        0.00120318         0.0127116        -0.0107503       -0.00879433         0.0280221         0.0604281       -0.00316089        -0.0247564          0.014496         0.0313782       -0.00999339        -0.0221831         0.0113673         0.0603904      -0.000858068        -0.0167077        -0.0677295        -0.0511296         0.0151784         0.0469011        -0.0180554        -0.0273953        0.00445772           0.01656        -0.0429957        -0.0163771         -0.037955         0.0167905         -0.017936         0.0420724         -0.019512        -0.0305865        0.00270805        -0.0405064        0.00170115         0.0196674         0.0648817         0.0537728         0.0774406        -0.0478315          0.014535        0.00657508        -0.0240382        -0.0727087        -0.0588902         0.0544426         0.0850992         0.0514821         0.0415701         0.0478702        -0.0416162       -0.00608537        -0.0640817         -0.056303        -0.0173311           0.11627         0.0583955       -0.00199208       -0.00159435       -0.00873657        -0.0189953         -0.108145         -0.101687         0.0748092         0.0385544         0.0590665         0.0909879         0.0400197         0.0175057        -0.0971387        -0.0388256         -0.056711         0.0235816       -0.00588432         0.0984741        -0.0335741        0.00166941        -0.0326602        -0.0690837        -0.0177989        -0.0218913         0.0470199        0.00379238        0.00661258         0.0280909
        -0.0170337        0.00653768        0.00916148         -0.017013         0.0564544       -0.00212441        -0.0131036        -0.0521874        -0.0278174         0.0246559        -0.0632677         0.0509202        -0.0129351        -0.0790506        -0.0665527         0.0402244        0.00634947        -0.0114485        -0.0254231         0.0201883        -0.0213628        -0.0160721         0.0610631        0.00680175       0.000400517        0.00651698         0.0377052         0.0389072        -0.0578079         0.0264573         0.0327876         -0.036699         0.0279926         0.0208685         0.0178243        -0.0080991        0.00290887        -0.0556953        -0.0655152        -0.0166346       -0.00957087        0.00484277         0.0106701         0.0850327        -0.0173027       -0.00274197       -0.00949621        -0.0954546        0.00923002          0.048608        0.00338138        -0.0510857        -0.0244281        -0.0099559       -0.00225041        -0.0369322        0.00543148         0.0191899        -0.0127391        -0.0275258        -0.0277622         0.0284228        0.00921557         0.0188291       -0.00905658        0.00312365        -0.0444934         0.0171154        -0.0253043        0.00377074        0.00825763        -0.0150631       -0.00130315        -0.0375445        -0.0441113         0.0522992        0.00850536         -0.038546         0.0033226        -0.0151364         0.0259492         0.0389792        0.00690301        -0.0466313          -0.07794        -0.0398516        -0.0399046       -0.00807453       -0.00400653         0.0123624        -0.0266887        -0.0213528        -0.0277728        -0.0910437       -0.00771993        0.00126429        -0.0324775         0.0294752       -0.00646418       -0.00854465         0.0467823         0.0122801         0.0198184        -0.0419412        -0.0155221       -0.00844894        -0.0161885        -0.0336011        -0.0316189        -0.0595115      -0.000235085        0.00584289        -0.0168347          0.006335         0.0274364        -0.0413682        -0.0618683         0.0154037         0.0430067        -0.0413016        -0.0494461       -0.00600325         0.0875972          0.037435         0.0467023        -0.0316192       -0.00941461         0.0170698        -0.0829096        -0.0282933          0.109434          0.105577           0.10807         0.0444072        -0.0253594        -0.0526697         0.0150396        -0.0274372         -0.020577         0.0273935         0.0871093         0.0428445        -0.0257264        -0.0531074        -0.0805662        -0.0501259        -0.0674355        0.00370809         0.0169814         0.0657856         0.0358372          0.033372         0.0153245         0.0384198         0.0690697        -0.0398199        -0.0435254        -0.0450742        -0.0270498         0.0270072        0.00033045        -0.0527966

bias 0:
          -2.82182
          0.373629
         -0.701885
          0.428767
         0.0344171
          0.164816
          0.488362
        -0.0553719
          -1.36862
           1.92502

