weight 0:
         0.0107594         0.0330535        -0.0105834        -0.0187436        -0.0269554        -0.0298802          0.059785         0.0469391        -0.0466948          0.027433         0.0258193       -0.00756942        -0.0475114       0.000420852         0.0151704         0.0734443        -0.0278673         0.0122158       -0.00120955        -0.0482702        0.00329775        -0.0288773         0.0123625        -0.0630258          -0.01573        -0.0379022         0.0491728         0.0466164         0.0553158        -0.0201748         0.0256067         -0.013911       -0.00722201         0.0317875        0.00238684      -0.000773167         0.0833754        0.00419765          0.029285         0.0211722        -0.0221722       -0.00300203        -0.0133303        -0.0271807        -0.0283752         0.0264316        -0.0287662         0.0456352         0.0112153          0.018894        -0.0393239        -0.0809545        -0.0414262        -0.0164274        -0.0249147         0.0136879        -0.0339687        0.00886911         0.0510585       -0.00615141       -0.00933082        -0.0182391        -0.0196993        -0.0194745         0.0475705        0.00413147        -0.0284137         0.0516588          0.013284         0.0144213        -0.0408796        -0.0382187        -0.0472246        -0.0104987         0.0410459         0.0709706        -0.0153607         0.0249773        -0.0309535         -0.063146         0.0102725        0.00860685        -0.0185955       -0.00421252         0.0255615         0.0629707         -0.035324        -0.0370912         0.0313218        0.00161963        -0.0487721         0.0310965        -0.0207804       -0.00102325        -0.0198378         0.0290339         -0.035974       -0.00894266         0.0679813         0.0287816        -0.0350234         0.0241743         0.0329237        -0.0498925        0.00833873        -0.0214616         0.0472714         0.0330129         0.0128085         0.0277019        -0.0290277       -0.00473404         0.0164895        -0.0396336        -0.0399406         0.0283488         0.0442697         0.0447877        0.00558208        0.00887085        0.00308163         0.0314393         0.0241842         0.0133346        0.00299023         0.0355228         -0.025059        -0.0108628         0.0146361           0.01356       0.000717523         0.0301108        0.00355277        -0.0122041         0.0289001       -0.00985953         0.0184689        0.00227323        -0.0547996        -0.0231026         0.0011424        -0.0420669         0.0619225         0.0125336          0.011514        -0.0150227        -0.0340893           0.02139         0.0480864       -0.00197603        -0.0274707         -0.041735        -0.0115127         0.0389184        0.00536334        -0.0105756         0.0316896        -0.0377986         0.0245565        -0.0215811         0.0107733       0.000255834
         0.0367439         0.0162975        0.00452059        -0.0601796       -0.00494206       -0.00192037        -0.0541021         0.0199472        0.00754617        -0.0698735        0.00349567       -0.00683645         0.0360676        -0.0148522         0.0430432        -0.0384917        -0.0141135         0.0275799        -0.0235489        -0.0161539        -0.0280434        0.00704183         0.0726651        -0.0212088        0.00697706        -0.0442819        -0.0284374         0.0391623        -0.0154671        0.00682479         0.0480896        -0.0299995        -0.0586724         -0.018091        -0.0309284         -0.020811         0.0146459         0.0255999        -0.0192152        0.00812905        -0.0299672      -0.000622056         0.0530363         0.0133689      -0.000493636         0.0272006        -0.0270013         0.0360747         0.0046274        -0.0593323        0.00697814       -0.00421871        0.00992043         0.0238564         0.0412208         0.0264907         0.0299774         0.0735144         0.0110203         0.0131199        -0.0740385        -0.0171574         0.0186315        -0.0114105        -0.0140348        0.00268413         0.0420023         0.0327809         0.0156934        -0.0185271         0.0400394        0.00379958         0.0410207         0.0137235       -0.00307439        -0.0285197       0.000904559        -0.0396236       -0.00482168        -0.0434934        0.00983118         0.0632691        -0.0810471         0.0772148         0.0667998         0.0455931         0.0619539         0.0939526         0.0439064         0.0816311         0.0628704         0.0640501         0.0767649         0.0843916         0.0867774          0.097697         0.0445379         0.0639023         0.0838791          0.061227         0.0627369          0.106538          0.014479       -0.00380999        -0.0242378         0.0370317         0.0473316          0.120052          0.035984         0.0907425         0.0664973       -0.00569865        -0.0415107        0.00668182        -0.0286961         0.0161707          0.151853         0.0946774          0.135488          0.115262         0.0103194       -0.00822001         0.0223293        -0.0504186        -0.0452107          0.195424          0.116986          0.101386         0.0716228        -0.0153914       -0.00313543         0.0484391        0.00700568       -0.00101123          0.130114         0.0703843          0.108611         0.0588374       -0.00812516        -0.0605939         0.0412031       -0.00402981         0.0202755         0.0715898         0.0264441         0.0692343          0.122603         0.0359739        -0.0322454         0.0348415       -0.00676098        -0.0117227        0.00414418         0.0153988         0.0115524         0.0534142       -0.00624658         0.0122768         0.0371942        -0.0117497        0.00475842        -0.0369009
         0.0347938         0.0149344       -0.00573619         0.0207913         0.0220736         0.0193008        -0.0327158        -0.0096038         0.0456596        -0.0539503        0.00449706       -0.00554177         0.0324009       -0.00823857        0.00430072       -0.00825294         0.0252654       -0.00418877       -0.00106801         0.0167348         0.0408216        0.00457124         0.0164239        -0.0491305        -0.0417393         0.0291014        -0.0576752         -0.033209        -0.0242336        0.00737664         0.0109827          0.020465         0.0431632         0.0180099        -0.0226638         0.0680794         0.0162085       -0.00296497        -0.0317967        -0.0181789         0.0151662        0.00827208        -0.0583857         0.0464035        -0.0300163        -0.0400635       -0.00379894        -0.0162872        -0.0315775         0.0111432        -0.0271635        -0.0325078         0.0701867         0.0183242        -0.0245844        -0.0273663        -0.0509999       -0.00589195         0.0246281        -0.0245181       0.000870757        -0.0338524         0.0120789         0.0459591         0.0418649       -0.00839205         0.0222075        -0.0129325        -0.0118598         0.0138669         0.0577798        0.00882477         0.0489394       -0.00486222         0.0343455         0.0121172        0.00366272        -0.0126106        -0.0123559        -0.0469495         0.0325968        0.00310317          -0.01834        0.00140881       -0.00555636         0.0688564        -0.0520476         0.0321563         0.0315217         0.0386209        -0.0576799        -0.0169544         0.0139863        -0.0510491         0.0463237         0.0347323        0.00241796        -0.0112984        -0.0420514         0.0295711        -0.0113491        -0.0274067         0.0575845         0.0283438         0.0184281        -0.0226305        -0.0205294          0.031559        -0.0480775         0.0136786        -0.0242469        0.00991027         0.0654657        -0.0172597        -0.0753671       -0.00710597        -0.0678102         0.0324317         0.0167147        -0.0091883         0.0620748         0.0781755      -1.94896e-05         0.0307772        -0.0416511        -0.0446873         -0.016574            -0.029         0.0140064         0.0324326           0.05311        0.00883178        -0.0450243        -0.0890914        -0.0538126        -0.0185942        -0.0254693         0.0227538         0.0621543         0.0996333         0.0655972        -0.0472963         0.0425206        -0.0571928        0.00822036       -0.00332707        0.00358713       -0.00245106         0.0630385         0.0291831         0.0236319       -0.00105293        -0.0398994         0.0388781        -0.0433254        0.00464518         -0.060082         0.0322796         0.0310333        0.00723505         0.0120033        -0.0293441
         0.0111353         0.0111949        -0.0812208        -0.0335839        0.00611888        -0.0245856        -0.0254007         -0.017359         0.0180808          0.019263        -0.0239885         0.0151621         0.0318587        -0.0939571        -0.0219926         0.0135723        0.00766838         -0.052585        0.00282618        -0.0156823         0.0344041        -0.0414321         0.0242022        -0.0145186        -0.0202077         0.0420428       -0.00180735         0.0346523         0.0331826         0.0155691         0.0110764        0.00834035       -0.00589035        -0.0127442         -0.027487        -0.0154032         0.0252718        -0.0441042         0.0102163        -0.0358602        -0.0448072         -0.070897        -0.0197751        0.00522612         0.0331461        0.00793388         0.0118192       -0.00149076        -0.0385425       -0.00791359        0.00536032         0.0420696        -0.0353601         0.0222634       0.000493591         0.0127004       0.000967881         0.0154745       -0.00808087        -0.0138885         0.0188086        -0.0412972        -0.0393942      -0.000887974         0.0166957          0.044471        -0.0383506         0.0257547          0.023472       -0.00615791        -0.0206755         0.0514124          0.060114        -0.0133237         0.0173603         -0.036325        -0.0226296         0.0371911        -0.0130718        0.00858598        -0.0295186        -0.0154399         0.0570798         0.0499236          0.030563         0.0127327        -0.0268523         0.0266667          0.014922          0.025325         0.0519014          0.041886         0.0192823         0.0378418         0.0284592        0.00481641       -0.00162337        -0.0114744          0.024229         0.0381292         0.0518717         0.0418727        0.00270431        -0.0288091          0.012456       0.000780848         0.0323882          0.060278        -0.0048933         0.0480295         0.0338814        -0.0275282        -0.0137329         0.0166318        -0.0376317        -0.0461697         0.0740437       -0.00648536        0.00531902         0.0303559          0.039945         0.0317746       -0.00769248         0.0255479        -0.0131935          0.068492         0.0115113         0.0108226         0.0400654        -0.0216701        -0.0121176        -0.0110997         0.0227992         0.0252981         0.0170124        -0.0901847        -0.0195337        -0.0372689       -0.00643626         0.0322552      -0.000108693       -0.00204761        -0.0120757         0.0776436         0.0298032         -0.027685        -0.0142955        -0.0182915         0.0391337        -0.0422231        0.00605508         0.0504086           0.01184         0.0185303        -0.0138769         0.0307103         0.0285393        -0.0320384         0.0124555        -0.0346735         0.0112437         -0.054884
        -0.0138113         0.0513014        0.00767927        -0.0266208        -0.0600019        -0.0248907       -0.00523805        0.00981853          0.036583       -0.00465336         0.0211705       -0.00515248       -0.00881004         0.0574297         0.0218204         0.0302982       -0.00688542        0.00114938         0.0218463         0.0361153       0.000421245         0.0300655         0.0546576        0.00569152          0.038282         0.0277782         0.0140272        -0.0478943        -0.0196411        -0.0131521        0.00931479         0.0183044        -0.0161067        0.00798927       -0.00705611         0.0434096        -0.0296911      -0.000261584         -0.016282         0.0147579         0.0139822         0.0145132        0.00617714         0.0380544         0.0329373         0.0107131         0.0517924        -0.0414914        -0.0195846        -0.0335266       -0.00594587        -0.0505892       -0.00826677         0.0240042        -0.0554744       -0.00599368         0.0384503         0.0237144       -0.00720489        -0.0170899          -0.01286        -0.0555994         0.0400325        0.00828812         0.0280372        -0.0612088        -0.0644788       0.000367411         0.0253745         0.0625439         0.0449134        -0.0237225        0.00430682         0.0677083        -0.0254787         0.0229585        -0.0649391        0.00247753       -0.00479282        -0.0446538        -0.0529086         0.0539533        -0.0378673        -0.0289939       -0.00784809         0.0233705        -0.0330075        -0.0653097        -0.0374522        -0.0538268         0.0165568       -0.00332934        -0.0611425        -0.0389467         0.0432064         0.0151735        -0.0508371       -0.00798261         0.0225957        -0.0475127        -0.0506028        -0.0501539        0.00725626         0.0030285        0.00162523         0.0400662        -0.0245318        -0.0400647        -0.0293369        -0.0293659        -0.0304056       -0.00963744          0.066543         0.0561068       -0.00327299        -0.0159582        -0.0176558        -0.0417715        -0.0153706        -0.0624714         0.0313936         0.0476826         0.0971881        0.00909811        -0.0126228       -0.00652735         0.0448695        -0.0311251        0.00678364        0.00275302           0.04537         0.0611456        0.00959743         0.0294087        -0.0198764         0.0149547        -0.0318772       -0.00561461        -0.0860898         0.0348521        0.00797226         0.0756511         0.0177181        0.00222249        -0.0405798        0.00646664        -0.0489338        -0.0109671        -0.0287807        -0.0223057         0.0108058         0.0195168        -0.0128974        0.00674163        -0.0197507        -0.0153793        -0.0410345       -0.00935051        -0.0183818         0.0185916       -0.00155642         0.0222226
        -0.0229084         -0.013113        -0.0514705       0.000402602        -0.0175267       -0.00976083        -0.0143215         0.0129441        -0.0224003         0.0314737         -0.076499         0.0017951         0.0445412        -0.0256974         0.0266662        -0.0209562        -0.0468858          0.050251        0.00631673        -0.0132366         0.0324265         0.0369527        -0.0470475        -0.0619071         0.0150009       -0.00530164         0.0838123        -0.0331269         -0.029691         0.0649098         0.0032098        -0.0260211        -0.0307476         0.0153996         -0.033906         0.0159788        0.00167062        0.00152033        -0.0242162         0.0322101         -0.032166        -0.0473782       -0.00154194        -0.0426557        -0.0264926        0.00673958        -0.0165209         0.0192389        -0.0255891       -0.00231889        -0.0755355        0.00262673        -0.0455569        -0.0309219         0.0514801       -0.00337763        0.00397675         0.0482197        0.00295543        0.00862587        0.00394963        0.00593283        -0.0215032         0.0344851       -0.00914078        -0.0181535       -0.00437336       -0.00689174         0.0160183        -0.0205095         0.0245159        -0.0211081         0.0456104        -0.0137904       -0.00281054        -0.0251081        -0.0524194        -0.0162577        -0.0248216         0.0133899        -0.0543327       0.000709515         0.0739315        -0.0122917         -0.011117         0.0482673        -0.0284779        -0.0177273         0.0468726        -0.0197445       -0.00894002        -0.0497329         0.0276669         0.0360698        -0.0775818        -0.0174182         0.0433187          0.026755          0.010261        -0.0152083         0.0851995       -0.00555736        0.00150117        0.00520274          0.041363         0.0296769         0.0297448        0.00583946         0.0281084        0.00319182         0.0406732         0.0463757        -0.0344221          0.038219         0.0133985         0.0148309         0.0315458          0.027874       -0.00708181         0.0169214        -0.0232455         0.0852379        -0.0275929        -0.0422948       -0.00610302         0.0617458       -0.00373485       -0.00294387        -0.0310447        0.00242191       -0.00444604         -0.021028        0.00614448        0.00382061        -0.0425892        -0.0113422         0.0243881         0.0372289         -0.024424        -0.0499348        -0.0542857        0.00825185         0.0012993         0.0559732         0.0190399        -0.0122422        -0.0267249         0.0530089          0.033227         0.0665499         0.0474626        -0.0198277         0.0250492        -0.0536912        0.00909945        -0.0560993         0.0304933        0.00502503        -0.0359798          -0.01366       -6.3078e-07       -0.00823547
        0.00484825         0.0189927        0.00380213        0.00417822        -0.0417251        -0.0346455        0.00154078          0.050761         0.0310989         0.0373921         0.0281991       -0.00756127        -0.0284739        -0.0388833        -0.0538287        -0.0135876         0.0235582       -0.00825585         -0.028785         0.0173696        -0.0493455        -0.0461604        -0.0255277         0.0602268        -0.0308915         0.0582469        -0.0534175         0.0351871         0.0155276         0.0212257        -0.0385083       -0.00330817        -0.0601055        0.00460492        0.00280702        -0.0207133         0.0313582        -0.0191426       -0.00104273       -0.00397052        -0.0286872        -0.0265613        1.9661e-05         0.0662311         0.0879731        -0.0212792        -0.0208822         0.0114269        -0.0407835         0.0368024         0.0309138        -0.0121649        -0.0181178        0.00990337        0.00403899         0.0298266        -0.0366428        -0.0110606          0.036306         0.0540478        -0.0233113         0.0340518        0.00596982        -0.0261968         0.0524743         0.0124538        0.00408069         0.0160943        -0.0148114        0.00908532         0.0460027         0.0114632       -0.00909889        -0.0264862       -0.00999289         0.0341951        -0.0254725         0.0406341         0.0603238        -0.0497307          0.059082        -0.0442646       -0.00853839        -0.0349601        -0.0084991        0.00725841        -0.0316015         0.0011263         0.0212205        -0.0235015         0.0362028         0.0645382         0.0067852        -0.0172267         0.0315007        -0.0318374        -0.0461584         0.0261265        -0.0244342         0.0390889       -0.00437529         0.0218522       -0.00876235        -0.0372622         0.0589028       -0.00022338        -0.0432332        -0.0338214        0.00166233        -0.0195366          0.047073         0.0134254          0.006481       -0.00653097        -0.0237635        -0.0414132        -0.0250985         0.0164925        -0.0605058        -0.0333605         0.0315568         0.0284422         0.0184389        -0.0093003        -0.0163967        -0.0354716        -0.0398363         0.0176299        -0.0156782        -0.0310143          0.095372         0.0588694         -0.022482         0.0308554        -0.0569814         0.0334045        0.00267043        -0.0320846          0.006092         0.0483124       0.000182358         0.0197861         0.0187935        0.00235114        -0.0371544        -0.0389312         0.0029671          0.031504        -0.0201337         0.0448389         0.0466684       -0.00289945       -0.00761741        -0.0201859         0.0235798         0.0408553        -0.0561009         0.0252535        -0.0304471        -0.0186151         0.0941837         0.0356222
        -0.0366203        -0.0237397        0.00530043        0.00293672         0.0196067       -0.00623332         0.0511766        -0.0166028       2.58801e-05       -0.00996853         0.0211407        -0.0275271         0.0657085         0.0484292        0.00399322        -0.0202829       0.000942608         0.0207301        0.00350744         0.0173615        0.00682367        -0.0430713       -0.00774398         0.0446786         0.0338282         0.0413724         0.0173894       -0.00343855         0.0520119         0.0774957       -0.00258205         0.0721424        -0.0213483       -0.00792661        0.00330517        0.00235683        0.00273874         0.0569538         0.0174442         0.0543103        -0.0397979         0.0367062        -0.0158143       -0.00869729        -0.0405691          -0.02372       -0.00522121        -0.0224797         0.0234635         0.0234067         0.0293242         0.0238425         0.0338154        -0.0281347       -0.00732801        0.00862261        -0.0516039         0.0310882          0.053687        -0.0277495        -0.0326657         0.0164511        -0.0410662         0.0217329       -0.00417259        -0.0121521         0.0542714        -0.0286756         0.0291569       -0.00817629        0.00910453        -0.0475048         0.0130346        0.00191031         0.0186903        0.00752863        -0.0075787        0.00660986         0.0119414         0.0160659        -0.0468922         0.0215751        -0.0309038        0.00889468         0.0471052      -6.68745e-05         0.0184016        0.00828619        -0.0171303        0.00133555       -0.00895181         0.0401632         0.0221942         0.0725423         0.0204107         0.0775926        0.00589414         0.0149733         0.0488527         0.0110956         0.0431189        -0.0193067         0.0384982        -0.0475026        -0.0172485          0.054969      -0.000265504         0.0425578         0.0164172         0.0211882         0.0634236         -0.090342         0.0754012         0.0103308        0.00971968         0.0305849          0.051506         0.0563286         0.0138261        -0.0136017         0.0255547         0.0512792        -0.0237028       -0.00621091        -0.0135672        -0.0281511         0.0600928         0.0530571        -0.0517309         0.0176305        -0.0590328        0.00127117        -0.0273466        -0.0200101         0.0401633        0.00652765         0.0780225         0.0183785        -0.0314197         0.0012298       -0.00106169         0.0502438        0.00881501         0.0103928         0.0374265        -0.0164937        0.00673881          0.046419        -0.0290194         0.0446071        -0.0458078         0.0132259        -0.0085099       -0.00235312        -0.0428352       5.98675e-06         0.0444587         0.0430046        -0.0325842        -0.0129596        -0.0587039       -0.00876081
       -0.00854178       -0.00105858        -0.0316025        -0.0184657           0.01733        -0.0303577         0.0129984        -0.0205702         0.0157064        0.00251497         0.0185856        -0.0109633        0.00421247        -0.0303632         0.0331144        -0.0190295        -0.0556788         0.0468766        -0.0141948       -0.00826725        -0.0182764        -0.0425608        -0.0113409         0.0324316          0.014001        -0.0246217        -0.0150048         0.0415981       -0.00139018        -0.0255462        -0.0269758       -0.00888465        -0.0333762        -0.0234211          0.038745        0.00834415       -0.00249494       -0.00957472        -0.0665005        -0.0352818         0.0256863        0.00118296         0.0644294        -0.0239848        -0.0165557       0.000331081         0.0349004        0.00567736        -0.0713248        -0.0192845         0.0774196        -0.0168382         0.0255145        0.00787511        -0.0136546         0.0383629          0.015582        -0.0392131       0.000563062        -0.0435963          -0.01046        -0.0287092         0.0303752        -0.0290331        0.00969394         0.0313061        -0.0275066        -0.0141283      -0.000892085         0.0339161        0.00827794          0.053751        -0.0205551       -0.00069574        -0.0626475       -0.00314916        -0.0509701        0.00120438          0.012723        -0.0107617       -0.00880325         0.0280501         0.0604886       -0.00316406        -0.0247812         0.0145105         0.0314096        -0.0100034        -0.0222053         0.0113787         0.0605219      -0.000807176        -0.0167049        -0.0678191        -0.0512446         0.0151364         0.0469308        -0.0180586         -0.027225        0.00457798         0.0166922        -0.0429341        -0.0163659        -0.0380796         0.0166179        -0.0182163         0.0419667        -0.0190088        -0.0305675        0.00278346        -0.0403208        0.00218969         0.0202486         0.0649419          0.053116         0.0769918        -0.0472778         0.0145544        0.00659231        -0.0237942        -0.0718058        -0.0575637         0.0547035         0.0840069         0.0505493         0.0420775         0.0479184         -0.041657       -0.00589257        -0.0631824        -0.0549111        -0.0171434          0.115234         0.0575494       -0.00166336       -0.00159594       -0.00874532        -0.0188142         -0.107306         -0.100208         0.0755686         0.0377453         0.0581258          0.090986         0.0400597         0.0175237        -0.0968834        -0.0377744        -0.0554546          0.024124       -0.00646683         0.0977688         -0.033865        0.00167108        -0.0326924        -0.0689353        -0.0172551        -0.0215364         0.0469637        0.00355406         0.0064967         0.0281068
        -0.0170517        0.00654412        0.00917065          -0.01703         0.0565108       -0.00212654        -0.0131167        -0.0522396        -0.0278452         0.0246785        -0.0633328         0.0509693         -0.012949        -0.0791296        -0.0666194         0.0402641        0.00635365        -0.0114619        -0.0254504         0.0202063        -0.0213875         -0.016086         0.0611257        0.00681284       0.000400734        0.00653216         0.0377526          0.038945        -0.0578664         0.0264828         0.0328229        -0.0367321         0.0280273         0.0208818         0.0178444       -0.00809904        0.00290875        -0.0557528        -0.0655826        -0.0166535       -0.00957949         0.0048523         0.0106883         0.0851168        -0.0173096       -0.00274543       -0.00950757        -0.0955537        0.00924033         0.0486662        0.00339759        -0.0511256         -0.024448       -0.00996378       -0.00225314        -0.0369696        0.00543601         0.0192061        -0.0127528        -0.0275469        -0.0277932         0.0284505         0.0092286         0.0188461        -0.0090676        0.00312525        -0.0445471         0.0171252        -0.0253279        0.00377552        0.00826579         -0.015079       -0.00130445        -0.0375821        -0.0441554         0.0523515        0.00851388        -0.0385846        0.00332619        -0.0151514         0.0259752         0.0390096        0.00690875        -0.0466779        -0.0780179        -0.0398915        -0.0399445       -0.00808271       -0.00401296         0.0123569        -0.0267674        -0.0214128        -0.0278248        -0.0911428       -0.00772833        0.00125064        -0.0325531         0.0294414       -0.00657338       -0.00864901         0.0467312         0.0122364         0.0198233        -0.0419989        -0.0155705       -0.00848382        -0.0162488        -0.0338566        -0.0317233        -0.0596505      -0.000237346         0.0059015        -0.0168623        0.00625839         0.0274136        -0.0414599         -0.062247         0.0153475          0.042991        -0.0413423        -0.0494479       -0.00605497         0.0875831         0.0374133         0.0466465        -0.0319938       -0.00951742         0.0169797        -0.0830507        -0.0282947          0.109541          0.105689          0.108206         0.0443341        -0.0256722        -0.0527779         0.0149628        -0.0274714        -0.0204815         0.0274576         0.0871376         0.0428732        -0.0257891        -0.0533054        -0.0807068        -0.0502607        -0.0675874        0.00370097         0.0169922          0.065764         0.0358228         0.0334295         0.0153157         0.0384127           0.06908        -0.0399638        -0.0436578        -0.0451166         -0.027049         0.0270353       0.000318686        -0.0528581

bias 0:
          -2.82182
          0.372853
         -0.701711
          0.428506
         0.0345581
          0.164675
          0.488422
        -0.0555271
          -1.36842
           1.92494

