weight 0:
          0.257938         -0.528064          -0.27559        -0.0337943          0.284155          0.318145         0.0571624         0.0525659        -0.0211917        0.00630007         -0.183582         -0.254417         0.0608358         -0.117538          0.273332          0.373715        -0.0417397        -0.0627172         -0.123985         -0.150898         0.0203217          -0.27746         -0.183777        -0.0794909        -0.0556687          0.411639          -1.02004         -0.304064         -0.258214         -0.164995           1.09906         -0.249524         -0.601317         -0.425315         -0.407878         -0.154628         -0.476062         -0.277925         -0.429263         -0.228119        -0.0128982         -0.436551          -0.16865         -0.305916         -0.373563         -0.174381         -0.339001         -0.479161         -0.130905        -0.0774237          0.418793         -0.658688         -0.224853         -0.472073         -0.133474            1.2044         -0.375051         -0.434442         -0.161071         -0.320176         -0.330308         -0.219686         -0.326204         -0.312192         -0.376716         -0.203847         -0.126602          -0.26298         -0.239719         -0.536603         -0.599368         -0.198183         -0.450024         -0.259013          -0.36406
          0.114832         -0.532966          0.111696          0.214948         -0.273366          0.206366          0.190459         -0.138059         -0.270452       -0.00962946         -0.149105         -0.245306          0.103326        -0.0233906        -0.0107517         0.0539856        -0.0208305          0.171803        -0.0825419         -0.252962         0.0415329          0.166522          0.111303         -0.109415         0.0636342          0.321919          -1.01426         -0.297553          -0.44705         -0.353687          0.940547         -0.492492         -0.411011         -0.410872         -0.254056         -0.234686         -0.399494         -0.316027         -0.506786         -0.132199         -0.362587         -0.343759          -0.23733         -0.204146         -0.403619          -0.33463         -0.472347         -0.242801         -0.361065         -0.586798         0.0781885          -0.27017          -0.16778         -0.438646         -0.585963           1.43571          -0.11952         -0.181848       -0.00448398         -0.138174         -0.418283         -0.368134          -0.35379         -0.588761          -0.46603         -0.372392           -0.2831         -0.593614         -0.679251         -0.285579         -0.591699           -0.1507        -0.0784815         -0.429222         -0.659574
         -0.298569          0.508074         -0.345082          0.110917        -0.0311029         -0.186383         -0.184851         0.0155041         -0.283846          0.118308         0.0854878       -0.00314563        -0.0242394        -0.0682138         0.0047349         -0.091156         -0.191541         0.0944676         -0.177977         0.0589397         -0.101017         -0.342453        -0.0858381         -0.086935          0.160965         -0.245613           2.24346         0.0598137          0.401531         0.0488405         -0.251588          0.358094         0.0859226          0.444262          0.290226          0.143556          0.479375          0.652002          0.246175          0.419463          0.467359          0.333596         0.0806962          0.372773          0.343706          0.383063          0.548634          0.468956         0.0312683          0.276191        -0.0774539          0.571872          0.521721          0.193006          0.472415         -0.545144          0.419967          0.679848          0.505351          0.329974           0.30612           0.26006          0.459399          0.635492          0.349213          0.271604        0.00423397          0.356636          0.427502          0.268636          0.446792          0.263125          0.364604          0.293623          0.332815
         -0.244794        -0.0604244        -0.0102736        -0.0697498         0.0225163          0.164789          0.178911         -0.161732         0.0789479          0.210164        -0.0260546        -0.0859682         0.0148421         -0.132746         0.0565163         -0.141965         -0.139477         -0.204121         -0.257051          0.138165         0.0619827          -0.17135         -0.273598        -0.0013319          0.123579          -0.43618        -0.0282204         -0.153877         0.0625126          0.206665         -0.102681         -0.046123        -0.0263659        -0.0084279       -0.00787118           0.17971          0.182329           0.14727          0.139176        -0.0555312         -0.180602        -0.0422259        -0.0228158         0.0941303         -0.411904        -0.0292303         0.0118078          0.124201          0.253167         -0.351298         -0.252199        -0.0506385          0.157248         -0.131723           0.03309        -0.0229385         -0.197755         -0.196586       -0.00018077         -0.139469         0.0125317        -0.0233929          -0.17652         -0.229102          0.133137         -0.180214         0.0194897          0.111228        0.00438139         -0.188493          0.285001         -0.159399        -0.0334652       -0.00823466         -0.144498
          0.793982           -0.3644          0.118847        -0.0936085         -0.132133          0.629023         0.0799569         -0.326503          0.189408          0.083571         0.0156004          0.172731         -0.251363          0.315304         0.0278684         0.0912075         -0.271609          0.185744         -0.404751           0.12763        -0.0635519         -0.231845          0.350172          0.132206           0.23573           0.13851         -0.670026         -0.144125         -0.671529         -0.261151          0.892692         -0.272403         -0.301908         -0.371345         -0.335425         -0.102537         -0.496663         -0.359312         -0.345868         -0.390621         -0.431466         -0.193791         -0.625847          0.171671         -0.383236         -0.191478         -0.232619          -0.65064         -0.198368         -0.379594         -0.135859         -0.225362         -0.214739         -0.351329         -0.448543          0.895351          -0.34646         -0.424724         -0.383937          -0.14575         -0.487956         -0.411703          0.047095        -0.0469765         0.0595965         -0.424293         -0.414481         -0.406689         -0.326368          -0.38243          -0.36632         -0.115189         -0.148117          -0.15466         -0.224016
          0.249274         0.0461492          0.153558         0.0622451        -0.0040851         -0.131891         0.0505425         -0.188175         -0.119881       -0.00199309         -0.206459          0.043716         -0.127325         -0.106452         -0.112186         0.0458934         -0.291102         -0.218102          0.136939          0.255383         0.0123894        -0.0223621          0.144969         -0.174835         0.0623059         -0.445506         -0.178232          0.192735          0.138974         -0.161916        -0.0730028          0.240437         -0.234668         0.0773262         0.0164836         -0.184749          0.089038          0.092515        -0.0790726       -0.00526529          0.160409        -0.0654294        -0.0749247         0.0880159        -0.0703789         -0.289169        -0.0803646         0.0506828         -0.139164          0.121855         -0.311281          0.146822         0.0215069        -0.0389128        -0.0452085         -0.145786         -0.200708          0.054755          0.211713        0.00827838         -0.189172         -0.213138         0.0155442         -0.252929          0.257326         0.0648746         0.0424851          0.139624         -0.113403         -0.161735         -0.103199         0.0205564        -0.0821441        0.00931399        -0.0378235
          0.418615         -0.207983          0.107006         -0.105589          0.313267          0.152566         -0.017469         0.0102895         0.0965314          0.293101        -0.0387609         -0.178086        -0.0644172          0.106722        -0.0685169          0.060248         0.0808628          0.114365        -0.0548309           0.24069        -0.0578854         0.0107151          0.256289         0.0375269         0.0356799         -0.174692         -0.362447         -0.303354         -0.522183         -0.322024           1.00251         -0.303107         -0.322804         -0.328418        -0.0466375         -0.370937         -0.329141         -0.454666         -0.516729         -0.312138         -0.382824         -0.148792         -0.518072         -0.467133         -0.327879         0.0259788         -0.365173         -0.381687         0.0319005          -0.43494          0.396982         -0.251939        -0.0709992         -0.170216         -0.435774          0.269725          -0.57175         -0.259415        -0.0998491         -0.309832         -0.207473         -0.371685         -0.343632          -0.52377         -0.230621         -0.498912         -0.180215       -0.00654613         -0.295431         -0.271668         -0.346686           -0.5448         -0.326985        -0.0229056          -0.59983

bias 0:
         -0.190212
        -0.0849645
          0.452439
                 0
         -0.044689
       -0.00178425
        -0.0104337

