weight 0:
         0.0107378         0.0329875        -0.0105622        -0.0187062        -0.0269016        -0.0298205         0.0596655         0.0468453        -0.0466015         0.0273782         0.0257677       -0.00755429        -0.0474164        0.00042001         0.0151401         0.0732975        -0.0278117         0.0121914       -0.00120713        -0.0481738        0.00329117        -0.0288181         0.0123396        -0.0628971        -0.0156975        -0.0378219         0.0490789         0.0465232         0.0552052        -0.0201346         0.0255565        -0.0138801       -0.00720342         0.0317241        0.00238597       -0.00076759         0.0832088        0.00418927         0.0292266         0.0211298        -0.0221261        -0.0029941        -0.0133017        -0.0271238        -0.0283123         0.0263788        -0.0287087          0.045544         0.0111929         0.0188564        -0.0392445        -0.0807919         -0.041339        -0.0163882        -0.0248649         0.0136605        -0.0339009        0.00885141         0.0509565        -0.0061391       -0.00931208        -0.0182025        -0.0196581        -0.0194355         0.0474755        0.00412323        -0.0283569         0.0515556         0.0132574         0.0143925         -0.040798        -0.0381423        -0.0471303        -0.0104777         0.0409639          0.070829          -0.01533         0.0249273        -0.0308917          -0.06302          0.010252        0.00858963        -0.0185584        -0.0042041         0.0255105         0.0628447        -0.0352535         -0.037017         0.0312592        0.00161639        -0.0486746         0.0310344        -0.0207388       -0.00102121        -0.0197982         0.0289759        -0.0359021       -0.00892478         0.0678457          0.028724        -0.0349534         0.0241391         0.0328849        -0.0497654        0.00835293        -0.0213709         0.0472282         0.0329611         0.0127812          0.027645        -0.0289331       -0.00464081         0.0165393        -0.0394727        -0.0397531         0.0283883         0.0441964         0.0446966        0.00556876         0.0088891         0.0031662         0.0314561          0.024217         0.0134386        0.00311185         0.0354914        -0.0250089        -0.0108417         0.0146275          0.013584       0.000758528         0.0301166        0.00368956        -0.0120163         0.0289168       -0.00983983         0.0184321        0.00227649        -0.0546725        -0.0230367        0.00119794        -0.0418688         0.0619173         0.0125615          0.011491        -0.0149927        -0.0340211         0.0213481         0.0479924       -0.00195075        -0.0273754         -0.041615        -0.0114724         0.0388406        0.00535262        -0.0105544         0.0316262         -0.037723         0.0245074         -0.021538         0.0107517       0.000255322
         0.0366874         0.0162686        0.00451535        -0.0600556       -0.00493099       -0.00191304        -0.0539899          0.019911         0.0075339        -0.0697003        0.00351768       -0.00679083         0.0360116        -0.0148238         0.0429392        -0.0384145        -0.0140472         0.0275578        -0.0234716        -0.0160859        -0.0279341        0.00698508         0.0724863        -0.0212679        0.00694437        -0.0443622         -0.028568         0.0391035        -0.0154261         0.0068264         0.0479699         -0.029989        -0.0586667        -0.0179451        -0.0309477        -0.0209469         0.0146634         0.0255766        -0.0191462        0.00814911        -0.0299023      -0.000688565          0.052803         0.0133612      -0.000681704         0.0271666        -0.0269153         0.0360589        0.00460197        -0.0593532        0.00677213       -0.00439356        0.00981881         0.0237603          0.041151         0.0264541          0.029951         0.0734252         0.0109857         0.0129863          -0.07385        -0.0171188         0.0185316        -0.0113597        -0.0139765         0.0027026         0.0420614         0.0328336         0.0156466        -0.0185002         0.0399609        0.00380644         0.0409387         0.0136961       -0.00306825        -0.0284627       0.000902752        -0.0395444        -0.0048177        -0.0434086        0.00981118         0.0638092        -0.0801796          0.077798         0.0673745         0.0461828         0.0625157          0.094438         0.0444354         0.0820851         0.0636384         0.0646358         0.0771107         0.0844045         0.0865704         0.0977378         0.0452551         0.0649378         0.0855555         0.0626647         0.0642113          0.107195         0.0144736       -0.00402829        -0.0241116         0.0371415         0.0478184          0.123502         0.0370987         0.0918527         0.0664478       -0.00664907        -0.0416918        0.00721837        -0.0289303         0.0159914          0.156309         0.0956267          0.136171          0.115176        0.00971579       -0.00748797           0.02332         -0.050527        -0.0445219          0.200048          0.118317            0.1029         0.0725384        -0.0154535       -0.00277883         0.0481312         0.0060734       0.000357066          0.134157         0.0714404          0.110163         0.0591729       -0.00976115        -0.0610504         0.0418952       -0.00412813         0.0205214         0.0736143         0.0275515         0.0707407          0.124007         0.0361636        -0.0321501          0.036062       -0.00609744        -0.0121694        0.00449375         0.0160817         0.0124649         0.0550066       -0.00469921         0.0123662         0.0367632        -0.0117267        0.00494373         -0.036689
         0.0347232         0.0149044       -0.00572532         0.0207486         0.0220291         0.0192608         -0.032652       -0.00958615         0.0455672        -0.0538524        0.00448398       -0.00553429         0.0323357       -0.00822091        0.00430066       -0.00823624         0.0252007       -0.00419106       -0.00107841         0.0166865         0.0407179        0.00458505         0.0164166        -0.0489756        -0.0416525         0.0290362        -0.0575624        -0.0331509        -0.0241895        0.00735551          0.010974         0.0204746         0.0431513         0.0179298        -0.0226595         0.0679323         0.0161563       -0.00297084         -0.031746        -0.0181535         0.0151828        0.00833412          -0.05825         0.0462901        -0.0299755        -0.0399921       -0.00380482        -0.0162785        -0.0315042         0.0112345         -0.026972        -0.0323682         0.0700052         0.0182181        -0.0245406        -0.0273185         -0.050912        -0.0059043         0.0245871        -0.0243929       0.000893929        -0.0337794         0.0120456         0.0458554         0.0417684       -0.00838539         0.0221356        -0.0128979         -0.011817         0.0138459          0.057663        0.00879942         0.0488416       -0.00485249         0.0342769          0.012093         0.0036554        -0.0125854        -0.0123288        -0.0468548         0.0325318         0.0029039        -0.0185561        0.00112848       -0.00581802         0.0684552        -0.0522091         0.0318301         0.0312095         0.0382872        -0.0577121        -0.0170037         0.0139071        -0.0509555         0.0462643         0.0345801        0.00211428         -0.011671        -0.0423986         0.0290206        -0.0117849        -0.0274593         0.0577655         0.0287087         0.0184546        -0.0230235        -0.0211057         0.0306042        -0.0484762         0.0131386        -0.0239661          0.011053         0.0664772        -0.0173712        -0.0764191       -0.00818043        -0.0688321         0.0318851         0.0162936        -0.0088401         0.0635657         0.0796993      -6.77914e-05         0.0292594          -0.04303        -0.0459994         -0.017202        -0.0296555         0.0140023         0.0341928         0.0555276        0.00978808        -0.0460221        -0.0910252        -0.0557005        -0.0190624        -0.0261633         0.0227628          0.063714          0.101665         0.0663011         -0.048194         0.0407121        -0.0584832         0.0077124       -0.00394176        0.00357066        -0.0011507         0.0644543         0.0295716         0.0231934        -0.0014688        -0.0401124         0.0384981        -0.0435641         0.0045606        -0.0592999         0.0331604         0.0314655        0.00729337         0.0118646        -0.0293562
          0.011119         0.0111738        -0.0810572        -0.0335154        0.00610708        -0.0245352        -0.0253485         -0.017323         0.0180457         0.0192363        -0.0239304         0.0151431         0.0318007        -0.0937698         -0.021955         0.0135453         0.0076665        -0.0524683        0.00283121        -0.0156383         0.0343542        -0.0413643          0.024142        -0.0145254         -0.020174         0.0418993       -0.00186986         0.0345899         0.0331199         0.0155433          0.011046        0.00830623       -0.00591792          -0.01268        -0.0274607         -0.015435         0.0252313        -0.0440062         0.0102067        -0.0357757        -0.0447159        -0.0707793        -0.0197806        0.00522239         0.0330132        0.00791804         0.0117963       -0.00148238        -0.0384758       -0.00794065        0.00528726         0.0419221        -0.0353177         0.0222018       0.000492605         0.0126752       0.000968525         0.0154567       -0.00807909        -0.0139026         0.0187824        -0.0412084        -0.0393389       -0.00087629         0.0166731         0.0443906        -0.0382241         0.0257421         0.0234154       -0.00614695         -0.020624         0.0513148         0.0599939        -0.0132971         0.0173257        -0.0362524        -0.0225844         0.0371168        -0.0130457        0.00856884        -0.0294598         -0.015174         0.0572146         0.0500839         0.0307518         0.0129474        -0.0265569         0.0268508         0.0151097         0.0254921         0.0521129          0.042054         0.0194198         0.0378302         0.0283905        0.00489002       -0.00133577        -0.0110412          0.024831         0.0386033         0.0523323          0.042096        0.00270715        -0.0288314         0.0124584       0.000844026         0.0325286         0.0614591       -0.00446499         0.0483891         0.0338431        -0.0278126         -0.013799         0.0167921        -0.0376595        -0.0461294         0.0755746       -0.00612319        0.00564365         0.0303462         0.0396594         0.0319631       -0.00731233         0.0254229        -0.0129561         0.0701239         0.0117468         0.0111436         0.0401951        -0.0216639        -0.0119116        -0.0111237         0.0224325          0.025727         0.0184937        -0.0899622        -0.0193029        -0.0373796       -0.00721039         0.0318731       9.01958e-05        -0.0021175        -0.0119608           0.07824         0.0300114        -0.0272211        -0.0138674        -0.0183788         0.0388906        -0.0417153        0.00634346         0.0501889         0.0119316          0.018745        -0.0135191         0.0312448         0.0290019        -0.0319148         0.0124546        -0.0344192         0.0113647        -0.0547256
         -0.013784         0.0511986        0.00766393        -0.0265676        -0.0598819        -0.0248409       -0.00522757        0.00979889           0.03651        -0.0046493         0.0211267       -0.00514241       -0.00879284         0.0573162         0.0217827         0.0302384       -0.00688051         0.0011392         0.0217952         0.0360344       0.000407568         0.0300188         0.0545633        0.00571432         0.0382171         0.0277659         0.0140464        -0.0478004        -0.0196042        -0.0131296        0.00930216         0.0182804        -0.0160462        0.00794569       -0.00702163         0.0433675        -0.0296335      -0.000263809        -0.0162532         0.0147213          0.013953         0.0145013        0.00619683         0.0379736          0.032919         0.0106911         0.0516884        -0.0414094        -0.0195581        -0.0335053       -0.00594534        -0.0504431       -0.00822175         0.0239999        -0.0553636       -0.00598172         0.0383735         0.0236628       -0.00722037        -0.0170741        -0.0128157        -0.0554697          0.039981        0.00827154         0.0279812        -0.0610865        -0.0643538       0.000347095         0.0253246         0.0624316         0.0448348         -0.023674         0.0042982         0.0675729        -0.0254278         0.0229127        -0.0648095        0.00247258       -0.00478182        -0.0445641        -0.0528028         0.0538405        -0.0377937        -0.0289359       -0.00783244         0.0233237        -0.0329415        -0.0651793        -0.0373862        -0.0537922          0.016463        -0.0033413        -0.0610262        -0.0388525         0.0431716         0.0151314        -0.0508962       -0.00822797         0.0221062        -0.0476834        -0.0507467        -0.0501018        0.00742137        0.00327376        0.00176804         0.0400271        -0.0246035        -0.0409037        -0.0295426        -0.0296106        -0.0302971       -0.00923778          0.066646         0.0559975       -0.00312606        -0.0158779         -0.018817        -0.0418061        -0.0154911        -0.0623294         0.0314985         0.0474104         0.0967352        0.00913231        -0.0127488       -0.00777602         0.0447055        -0.0311732        0.00643483        0.00206144         0.0444218         0.0608079         0.0099602         0.0293712        -0.0206161           0.01491        -0.0318505       -0.00603333        -0.0869357         0.0336946        0.00781588         0.0763581         0.0184388        0.00230126        -0.0404987        0.00645193        -0.0491548        -0.0116652        -0.0292317         -0.022032         0.0116001         0.0202179        -0.0125984        0.00672817        -0.0197125         -0.015493        -0.0412763       -0.00939136        -0.0180179         0.0188536       -0.00144897         0.0221866
        -0.0228588        -0.0130859        -0.0513668       0.000402652        -0.0174914       -0.00974054         -0.014292          0.012919        -0.0223549         0.0314185        -0.0763395        0.00179881         0.0444559        -0.0256464         0.0266088        -0.0209142        -0.0467835         0.0501581        0.00631103         -0.013202         0.0323739         0.0368691        -0.0469612        -0.0618066         0.0149667       -0.00532962          0.083602        -0.0330598        -0.0296298         0.0647836         0.0032015        -0.0259801        -0.0307073         0.0153954        -0.0338451         0.0159139        0.00167627        0.00151924        -0.0241678         0.0321522        -0.0320926        -0.0472749       -0.00155827        -0.0426002        -0.0264995        0.00673026        -0.0164811         0.0192125        -0.0255509       -0.00238498        -0.0754527        0.00260247        -0.0454765        -0.0308625         0.0513801       -0.00336714        0.00397644         0.0481368        0.00294804        0.00859641        0.00396301        0.00592456         -0.021472         0.0344227       -0.00911561        -0.0181117       -0.00433194       -0.00684966         0.0159847        -0.0204689         0.0244673        -0.0210626         0.0455193        -0.0137628       -0.00280492        -0.0250579        -0.0523148        -0.0162253        -0.0247733         0.0133627        -0.0542242       0.000860373         0.0739449        -0.0120988        -0.0109332         0.0483261        -0.0282647        -0.0175383         0.0469196        -0.0195643       -0.00871801        -0.0494705         0.0277255          0.036039        -0.0774347        -0.0173296         0.0434162         0.0269673         0.0106618        -0.0148215         0.0853948       -0.00534746        0.00150348         0.0051406          0.041298         0.0296594         0.0298182        0.00667083         0.0282909        0.00347677         0.0406317         0.0460959        -0.0343796         0.0383274         0.0134143         0.0148331           0.03225         0.0279531       -0.00697255         0.0168805        -0.0231935          0.085523        -0.0272202        -0.0427313        -0.0067588         0.0617778       -0.00347368       -0.00269703        -0.0311076        0.00176517       -0.00492116        -0.0214129         0.0054279        0.00344606        -0.0421332        -0.0110595         0.0247105          0.037009        -0.0252885        -0.0504329        -0.0540631         0.0084647        0.00160975         0.0564448          0.019267         -0.011842        -0.0262297         0.0532109         0.0335931         0.0671143          0.047726        -0.0198246         0.0251023        -0.0534209        0.00929503        -0.0555764         0.0308575        0.00513417         -0.035933        -0.0136175       4.38709e-05       -0.00818744
        0.00483704         0.0189544         0.0037943        0.00416977        -0.0416417        -0.0345763         0.0015377         0.0506596         0.0310368         0.0373144         0.0281402       -0.00754904        -0.0284185        -0.0388053        -0.0537192        -0.0135595          0.023511       -0.00823937        -0.0287302         0.0173317        -0.0492517        -0.0460638        -0.0254702         0.0601191        -0.0308309         0.0581302        -0.0533108          0.035115         0.0154957          0.021182         -0.038428       -0.00328917        -0.0599681        0.00458602         0.0027824        -0.0206835         0.0312913        -0.0191068        -0.0010434       -0.00396585        -0.0286303        -0.0265022       3.10281e-05         0.0660965         0.0877977        -0.0212379        -0.0208433          0.011399        -0.0407006         0.0367414         0.0308693        -0.0121241        -0.0180743        0.00988698        0.00402981         0.0297659        -0.0365719        -0.0110432         0.0362346         0.0539495        -0.0232684         0.0339834        0.00596354        -0.0261469         0.0523667         0.0124268        0.00405967          0.016052        -0.0147797        0.00906831         0.0459107          0.011439       -0.00908073        -0.0264332       -0.00997293         0.0341268        -0.0254217         0.0405529         0.0602038        -0.0496311          0.058964        -0.0441929       -0.00852704        -0.0348934       -0.00848379        0.00724289        -0.0315394        0.00112307         0.0211775        -0.0234547         0.0360509         0.0643475        0.00673075        -0.0172012         0.0314527        -0.0317594         -0.046062         0.0260737        -0.0243868         0.0388703       -0.00450908         0.0217531        -0.0086777        -0.0370709         0.0588415      -0.000235781        -0.0431827        -0.0339424         0.0015533        -0.0196091         0.0470411         0.0136931        0.00677425       -0.00656814        -0.0241409        -0.0418067        -0.0256238         0.0163582        -0.0604676        -0.0332606         0.0316859         0.0285111         0.0181745       -0.00987338        -0.0170737          -0.03613        -0.0398923         0.0174409        -0.0157423        -0.0309442         0.0951497         0.0586601        -0.0226113         0.0303961        -0.0573889         0.0332425         0.0025184        -0.0320512        0.00623222         0.0482677       0.000100739         0.0197263         0.0186987        0.00213783        -0.0371776          -0.03899        0.00282514           0.03143        -0.0200839         0.0446417          0.046519       -0.00285132       -0.00763441        -0.0202098         0.0234485         0.0406229        -0.0561186          0.025205        -0.0303455        -0.0185755          0.093978         0.0355386
        -0.0365429        -0.0236914         0.0052908         0.0029318         0.0195679       -0.00621999         0.0510753        -0.0165687       2.65345e-05       -0.00994017         0.0211057        -0.0274641         0.0655812         0.0483321        0.00398072        -0.0202423       0.000950301          0.020697        0.00350804         0.0173358        0.00682343        -0.0429959       -0.00773694         0.0445638         0.0337558         0.0412473         0.0173075       -0.00342679         0.0519105         0.0773447        -0.0025784         0.0719872        -0.0213281       -0.00788173        0.00329106        0.00231547        0.00274501          0.056847          0.017417         0.0542122        -0.0397073         0.0366434        -0.0158059       -0.00871769        -0.0405572        -0.0236674       -0.00520272        -0.0224209         0.0234013         0.0232795         0.0291887         0.0237768          0.033736        -0.0280853       -0.00731022        0.00860949        -0.0514924         0.0310405         0.0535766         -0.027716        -0.0325761         0.0164306        -0.0409975         0.0216934        -0.0041603        -0.0121243         0.0541959        -0.0285918         0.0290921       -0.00816054        0.00909137        -0.0474092         0.0130086        0.00190649          0.018653        0.00751359       -0.00756356        0.00659665         0.0119176         0.0160339        -0.0467985         0.0216994        -0.0306647        0.00906221         0.0471891       0.000104312         0.0185371        0.00843877        -0.0169411        0.00148798       -0.00870938         0.0402623         0.0222753         0.0724429         0.0203615         0.0774969        0.00608495         0.0152357         0.0492185         0.0114655         0.0434348        -0.0190494         0.0384272        -0.0474646        -0.0171946         0.0549052      -0.000118981            0.0434         0.0166826         0.0214704         0.0633466        -0.0903551         0.0752317         0.0105161        0.00974302         0.0305502         0.0522358         0.0565021         0.0140356        -0.0134765         0.0255664         0.0516963        -0.0233283       -0.00683424         -0.014333        -0.0279514         0.0603659          0.053361        -0.0516375           0.01696        -0.0593954       0.000807376        -0.0281307        -0.0204606          0.040453        0.00681534         0.0782931         0.0181623        -0.0324439       0.000488385      -0.000949699         0.0504175        0.00912034         0.0109839         0.0375606        -0.0161268        0.00706358         0.0463867        -0.0287511         0.0452057        -0.0452611         0.0131716       -0.00841029       -0.00225028        -0.0425925       0.000357227         0.0446789         0.0429257          -0.03252        -0.0128278        -0.0585248       -0.00873084
       -0.00852474       -0.00105646        -0.0315393        -0.0184289         0.0172954         -0.030297         0.0129724         -0.020529         0.0156751        0.00250463         0.0185416         -0.010945        0.00420381        -0.0302996         0.0330616         -0.018985        -0.0555675         0.0467829        -0.0141696        -0.0082543        -0.0182463         -0.042483        -0.0113223         0.0323749         0.0140043        -0.0244642        -0.0148626         0.0415148       -0.00138766        -0.0254955        -0.0269282       -0.00891321        -0.0333504        -0.0233793         0.0387706        0.00845289       -0.00248998       -0.00955561        -0.0663679        -0.0352123         0.0255746        0.00112364         0.0643699        -0.0238894        -0.0163681       0.000330421         0.0348308        0.00566601        -0.0711824        -0.0192999         0.0772125        -0.0167708         0.0255509        0.00796844        -0.0136274         0.0382861         0.0155508        -0.0391365       0.000506139        -0.0435775         -0.010458         -0.028616         0.0303765        -0.0289751        0.00967456         0.0312435        -0.0274628        -0.0141513      -0.000894846         0.0338591          0.008287          0.053646         -0.020514      -0.000694348        -0.0625223       -0.00314288        -0.0508683        0.00120198         0.0127009         -0.010739       -0.00878544         0.0279941         0.0603678       -0.00315773        -0.0247316         0.0144815         0.0313469        -0.0099834        -0.0221609         0.0113559         0.0602756      -0.000897695        -0.0167068        -0.0676413        -0.0510191         0.0152163         0.0468702        -0.0180502        -0.0275264        0.00435407         0.0164443        -0.0430397        -0.0163749         -0.037826          0.017059        -0.0173888         0.0424869        -0.0197956        -0.0306036        0.00263913          -0.04065        0.00132243         0.0192276         0.0651476         0.0550698         0.0785598         -0.047999         0.0145174        0.00655966        -0.0242293        -0.0734326        -0.0599678          0.054518         0.0866357         0.0528375         0.0413665         0.0478221        -0.0415751       -0.00625707        -0.0648933        -0.0575687        -0.0174332           0.11737         0.0593637       -0.00215397       -0.00159276       -0.00872783        -0.0191631         -0.108885         -0.102955         0.0742056         0.0393819         0.0600263         0.0910617         0.0399797         0.0174876        -0.0973201        -0.0396518         -0.057656         0.0232739       -0.00525452         0.0991313        -0.0332866        0.00166774        -0.0326281        -0.0691767        -0.0182129        -0.0221297         0.0471461        0.00405995        0.00672553         0.0280699
        -0.0170157        0.00653124        0.00915231         -0.016996          0.056398       -0.00212229        -0.0130905        -0.0521352        -0.0277896          0.024633        -0.0632029         0.0508711        -0.0129213        -0.0789716        -0.0664861         0.0401847         0.0063452        -0.0114352        -0.0253961           0.02017        -0.0213386        -0.0160589         0.0609999        0.00678979       0.000399148        0.00649751         0.0376541         0.0388694        -0.0577496         0.0264317         0.0327536         -0.036666         0.0279575          0.020854         0.0177992       -0.00810358        0.00290836        -0.0556382         -0.065448         -0.016616       -0.00955976        0.00483478         0.0106521         0.0849489         -0.017297       -0.00273857        -0.0094852        -0.0953563           0.00922         0.0485528        0.00336848        -0.0510448        -0.0244087       -0.00994953       -0.00224775        -0.0368949        0.00542687         0.0191733        -0.0127288        -0.0275043        -0.0277329         0.0283941        0.00920286         0.0188117       -0.00904596        0.00312178        -0.0444416         0.0171034         -0.025281        0.00376547        0.00824884        -0.0150472       -0.00130185         -0.037507        -0.0440672         0.0522469        0.00849685        -0.0385074        0.00331889        -0.0151214         0.0259233         0.0389485        0.00689726        -0.0465847        -0.0778621        -0.0398117        -0.0398647       -0.00806635       -0.00399998         0.0123678        -0.0266149        -0.0212954        -0.0277218        -0.0909451       -0.00771154        0.00127777        -0.0324029         0.0295059       -0.00636704        -0.0084511         0.0468229         0.0123106         0.0197991        -0.0418963        -0.0155028       -0.00847363        -0.0161975         -0.033406        -0.0315225        -0.0593825      -0.000246418        0.00575883        -0.0168448        0.00632318         0.0272987        -0.0414386        -0.0615981         0.0154492         0.0430155        -0.0412604        -0.0494452        -0.0059749         0.0875262         0.0373158         0.0466215        -0.0313469       -0.00932783         0.0171427         -0.082761        -0.0282472          0.109365          0.105454          0.107882         0.0444038        -0.0251206        -0.0525703         0.0151015        -0.0273919        -0.0206422         0.0273358         0.0870536         0.0427746        -0.0257047        -0.0529468        -0.0804355        -0.0500026        -0.0672969        0.00368739         0.0169251         0.0657519         0.0358094          0.033303         0.0153267          0.038419         0.0690509        -0.0396943        -0.0434177         -0.045049         -0.027067          0.026964       0.000335795        -0.0527365

bias 0:
          -2.82182
           0.37426
         -0.702025
          0.428979
         0.0343021
          0.164927
          0.488313
        -0.0552473
          -1.36878
           1.92509

