weight 0:
         0.0227738         0.0427142        -0.0559144        0.00170906        -0.0210513         0.0240349        -0.0312425         0.0137839         0.0239447         0.0334615        -0.0277928       -0.00897001         0.0255069         0.0239655         0.0110142        -0.0464822        0.00909592         0.0383238        -0.0177743         0.0338486       -0.00912182         0.0194813        -0.0454131       -0.00028977       -0.00734862          0.142625         0.0206269        -0.0325807         0.0306366        -0.0440786        0.00367982         0.0221457        -0.0350908        -0.0370755         0.0155043        -0.0199906         -0.104951         0.0138139         0.0106441         -0.043733         -0.047857        -0.0408723         0.0140133        -0.0314765        -0.0290656        -0.0314132        0.00503802        -0.0291707        -0.0494366       -0.00290644        -0.0249388        -0.0418715         0.0254074        -0.0162402       -0.00201261       -0.00289929       0.000996648         0.0604668        0.00329557        -0.0399078         -0.005662         0.0156885          0.024674        -0.0020768        -0.0245186         -0.011089         0.0436865         0.0048584         0.0268989        -0.0405718        -0.0155573         0.0391626        -0.0282355        -0.0181795       -0.00305683
         0.0258529         0.0411201         0.0134411        -0.0168365        -0.0195772        -0.0292269         0.0447371        0.00608126         0.0660558         0.0562307        -0.0369637         0.0127416         0.0176247        -0.0177165        -0.0354034        0.00836418         0.0597179        -0.0295459         0.0256157         -0.021622        -0.0104484        -0.0389097        0.00141471        -0.0430349         0.0461344       -0.00372903        -0.0272105        -0.0449066        0.00104555         0.0118789        -0.0532821       -0.00910113       -0.00165949       -0.00443027         0.0535797         0.0154363       -0.00224505        -0.0572032        -0.0197586         0.0461109        -0.0124945          0.059071         0.0410727         0.0187078          0.068249        -0.0549211        -0.0254977        -0.0555554         0.0134789        -0.0161422        -0.0338585         0.0276646         0.0245365        0.00611611        0.00778938       -0.00502409        -0.0390412        -0.0161677        -0.0408156         0.0480541        -0.0216546        -0.0208194         0.0407051         0.0116177         0.0224508       -0.00136927         0.0215515       -0.00376701       -0.00555885        -0.0455851         -0.013687        -0.0182147         0.0153221         0.0121521        -0.0530959
         0.0125884         0.0959371         0.0138194        0.00229682        -0.0436226        -0.0140086        -0.0238232        -0.0127005         0.0308309         0.0512598        -0.0101258         0.0209138        -0.0463413         0.0435913        -0.0330185        -0.0530301        -0.0102302        -0.0303125          0.025036         -0.018858        -0.0259506        -0.0339708           0.03548         0.0204065       0.000254966       -0.00759569         -0.037622          0.072451        -0.0696609        -0.0202141       -0.00288602       -0.00270708       -0.00790703        -0.0108371        0.00499749        0.00525042        -0.0276103        -0.0720969         0.0345215         0.0404561         0.0135969         0.0577937         0.0240369        -0.0137998       0.000885258         0.0126803        -0.0272945       0.000487878       -0.00788006        0.00169821       -0.00929456         0.0194985         0.0067509       -0.00761196       -0.00047099       -0.00720614         0.0290138         0.0279496         0.0280835         0.0913575         0.0447521        -0.0202781        -0.0211781          0.031763        -0.0288121        -0.0528641          0.018747        -0.0839224       -0.00444344         0.0121434       -0.00216436       -0.00650311         0.0294563         0.0365804         -0.018562
        -0.0556247         -0.028658        0.00832556        -0.0118301         0.0235211         0.0101842       -0.00438137        0.00154151        -0.0453855         0.0373783        0.00200447        -0.0584393         0.0402485         0.0513315         0.0204576        -0.0440185         0.0148313        -0.0347075        -0.0567211        -0.0424682         0.0133249       -0.00270012         0.0137992         0.0581225         0.0454966         0.0575243         0.0873706         0.0808558         0.0342412      -1.83701e-05         0.0955287         0.0483768        -0.0150779         0.0752651          0.124186         0.0658405         0.0332248         0.0568972         0.0749461         0.0345557         0.0551553         0.0517894         0.0539837         0.0669738         0.0550682          0.063328         0.0548457        0.00890257          0.029114         0.0349192        -0.0162663        -0.0342945         0.0293994         0.0310895        -0.0402137         0.0601831         0.0038016         0.0018438        -0.0117092         -0.018471        -0.0431385         0.0181805         0.0203881        -0.0398805        -0.0116544         0.0163959        -0.0450232         0.0343812         0.0065093         0.0208248        -0.0310592         0.0253347         0.0212886        -0.0525263       -0.00908293
         0.0758386         0.0291258        -0.0212175        0.00138582       -0.00762685        -0.0465848        0.00322441        -0.0147759         0.0151079        -0.0284479        -0.0660984         0.0163762        -0.0615803         0.0126076         0.0342984         0.0337871        -0.0089019        -0.0918654         0.0116667        -0.0125395        -0.0520497        0.00974811        -0.0103074        0.00458951        -0.0241719          0.290702        -0.0472314         -0.081572         0.0160028        -0.0990387       -0.00483646         0.0070528        -0.0232348        -0.0678745        -0.0794659        -0.0630802       -0.00509678          -0.06522         -0.047995        -0.0868916        -0.0274514        -0.0376931       -0.00977908        -0.0346957        -0.0601865        -0.0190113        -0.0860179        -0.0753789       -0.00699777        0.00803606        0.00375883        -0.0220467        -0.0066336        0.00661608       0.000645971       -0.00858984         0.0404742         0.0148814        -0.0403586        -0.0115017        -0.0136832         0.0367179        -0.0364517          -0.03598         0.0305765        -0.0388097         0.0415421         0.0507287        -0.0195971         -0.048037         0.0319631         0.0307792        -0.0689012        -0.0264749        -0.0149477

bias 0:
          0.175017
         -0.289357
         -0.522382
         -0.281201
          0.968755

