weight 0:
           1.29226          0.374801         -0.195585          0.434093          0.101022        -0.0719872         0.0726175          0.138368          0.116548          0.275691         0.0735929          0.381602          0.218046          0.300937          0.190161         0.0953501          0.205203          0.156355          0.170742          0.141499          0.255216          0.109437          0.260181         0.0878953         -0.123154           0.51062          0.974562         -0.254465         -0.325588          0.134223         -0.130625        0.00887566         0.0777003         -0.169309         -0.113837         -0.349699          -0.16289         0.0911994         -0.168884         0.0277132        -0.0674201          0.143535         -0.145409         -0.152749         -0.428578        -0.0922453        -0.0397658         0.0668918         -0.204517         -0.121194         -0.529126          0.133077         -0.119261         -0.180927         -0.204321          0.143931         -0.331878         0.0487882         -0.447557         -0.278161         0.0322326         0.0625484        -0.0971726         -0.129799         -0.039388         -0.278782        -0.0622806         0.0303161         -0.335246          0.163731         -0.420997         -0.125304         -0.121281         -0.182087          0.100673
         -0.104425          0.398236         0.0690025          0.356769          0.294642          0.443917         0.0617774         -0.061807          0.442521          0.632224          0.313732          0.377236           0.32254          0.327241        0.00930041          0.276085          0.377824          0.408718          0.413566          0.529255          0.421376          0.509806          0.179704          0.225072          0.566438           0.22796         -0.527339          0.246174        -0.0986957          0.144315          0.604927       -0.00691202         -0.173868         -0.361512         -0.156345          0.159866          0.422408         0.0681223        0.00892066         -0.257232         -0.103439         -0.379963        -0.0621536         -0.293518        -0.0433248         -0.139031         -0.126222        -0.0155573        -0.0817329        -0.0506082          0.694493         -0.403159         -0.444593         -0.436157         -0.477127         -0.126972         -0.686672         -0.333348         -0.150322         -0.367579         -0.367468         -0.273835         -0.586486         -0.493863         -0.179958         -0.409647         -0.213625         -0.363391         -0.289443         -0.146559         -0.259534         -0.304483         -0.413419         -0.107983        -0.0714372
         -0.182205         -0.894692          0.419463           0.44637          0.694368          0.475263          0.430295          0.587626           0.63385          0.105799          0.136912          0.569238          0.360082          0.445225          0.464032          0.403846          0.795365           0.67635          0.242594          0.348588          0.250805          0.435929          0.443244          0.529553          0.594063          0.205288          -1.30041         -0.283585          -0.54221         -0.519871         -0.101353         -0.218316         -0.274384          -0.46338         -0.447897         -0.575765        -0.0369949           -0.3268          -0.26331         -0.556564         -0.365986          -0.26524         -0.352538          -0.46037         -0.440484         -0.363487         -0.458232         -0.286031        -0.0982591         -0.214039           1.02736         -0.120925          0.553301          0.162795          0.392492          0.252904          0.275304          0.251122          0.350094          0.269535          0.215155          0.218471          0.638987          0.300317           0.48672          0.568562          0.551663          0.343784          0.850323          0.368101          0.229867          0.389628          0.712556          0.436723          0.423261
           -0.2495          0.275883          0.157084          -0.10514          0.194764         -0.363577          0.241408         -0.114237         0.0281817        -0.0276077        -0.0942212            0.1244          0.114936         -0.278644         0.0484067         0.0964305        -0.0459927          -0.12297          0.207484         -0.182703         -0.134741        -0.0213801         0.0925491         -0.168989         -0.172618         -0.587611         0.0848123         0.0647079          0.155233        -0.0225086         -0.254976        0.00312649          -0.13209         -0.161873        -0.0437629          0.112997          0.177214         -0.297435           0.34605         -0.024935         0.0686985        -0.0555895         -0.107603        -0.0272041         -0.197698        -0.0346559          0.100402          0.190366         -0.146286          0.223649          -0.37168          0.297596         -0.128672          0.021297         0.0887132         -0.102044         0.0449557          0.125547         -0.117711          0.292459          0.192793          0.120003         -0.166735         0.0469467          0.299253         0.0578965         -0.207445         -0.190647         0.0604873         -0.264343         -0.185538          -0.21455         -0.126393          0.371725         -0.169412
           1.14471          0.753775         0.0578183          0.152746          0.359002         0.0614619          0.139812         0.0418889          0.377916          0.070363          0.282343          0.635884         0.0654184          0.153296         -0.134744         0.0897579           0.11406          0.229702          0.111792        -0.0218329          0.597388          0.192566         0.0314505          0.128339          0.312509          0.525529           1.04632         -0.395176        -0.0857878          0.110164         -0.183474         -0.124844          0.203579        -0.0071387         0.0166336         -0.212667        -0.0684058        -0.0633596         -0.128447         -0.163682          0.302187         -0.327381         -0.349981         -0.207639         -0.318346         -0.179742         -0.401225         -0.135784         0.0639967          -0.17663         -0.468085          0.293491          0.192378         -0.360914         -0.170335         -0.249632         -0.158415          -0.17458         -0.326577        -0.0516313          0.146867        -0.0496432        -0.0890576        -0.0385521          0.111651        -0.0649783         -0.113383         -0.395116         -0.150679         -0.166488         -0.303509          -0.11196         -0.224869          -0.37554         -0.256823
           1.36699          0.760839          0.267893          0.198121            0.0752        -0.0897712        -0.0585979          0.115571           0.26083          0.379721          0.310622          0.319308          0.131188         0.0192087          0.360369         0.0427485          0.459197           0.59665       -0.00627388          0.297768          0.124794           0.14135          0.461569        0.00895957          0.151645          0.721158           1.22842         -0.496852          -0.60828         -0.452363         -0.591605         -0.392365         -0.494636         -0.379854          -0.50165         -0.219401         -0.241215          -0.23852         -0.261424         -0.395813         -0.394863         -0.733397        -0.0839518         -0.314812         -0.325346        -0.0945948         -0.570048         -0.272958         -0.422755         -0.297738         -0.509077          0.249269         -0.597141         -0.258665         -0.489453         -0.261687         -0.270715         -0.297618          -0.25864         -0.450944         -0.456986         -0.582909         0.0821725         -0.379707         -0.389128         -0.447699         -0.284166         -0.530742          -0.46915         -0.229314         -0.422677         -0.305118         -0.510716         -0.137731         -0.626061
           1.02419          0.699099          -0.24432        -0.0181594         -0.522776         -0.252847         -0.178456       -0.00286497         -0.257997         -0.228663        -0.0921493         -0.230174         -0.121821         -0.374609         -0.443293         -0.365658         -0.208878         -0.250422         -0.178282        -0.0917058          -0.33925         -0.260146         -0.426313         -0.298294         -0.169625          0.746539           1.09855       -0.00119094         0.0680108          0.319254          0.113209        -0.0138902          0.179965          0.359378          0.207233          0.102942        -0.0983784         0.0298789          0.124543           -0.1095          0.126244         0.0807019        0.00857851          0.211438          0.330044          0.103037          0.202857         -0.324518          0.292586         -0.142631         -0.345448          0.510231        -0.0832449         -0.180936         -0.275302          -0.49809        -0.0862604         -0.239688         0.0278781           0.22108         -0.286791          -0.20116        -0.0759494         0.0102872         -0.171017         -0.038946         -0.069179         -0.140307         -0.216397         -0.591165         -0.229972         -0.149704          0.170912         -0.205059         0.0661014

bias 0:
        -0.0399884
            0.2531
          0.257182
       -0.00778029
         -0.040725
        -0.0453846
        -0.0236215

