weight 0:
       -0.00316519        -0.0670529      -3.47457e-05         0.0159069         0.0162055        -0.0176263        -0.0719498        0.00685584       -0.00667359
        0.00834434        -0.0813235        0.00796911          0.022295          0.108459       -0.00216316        -0.0739983       -0.00134728        -0.0881507
        0.00645185         -0.040862         0.0167957         0.0366634         0.0817839          0.124649       -0.00052848         0.0263665         -0.042922
         0.0566673         0.0381747        -0.0209063       -0.00130126         0.0538819         0.0693109        0.00682046         0.0129359        -0.0228987
         0.0702037         0.0452383        -0.0259532         -0.023656       -0.00201269       -0.00938277         0.0955963       -0.00839082       0.000915835
          0.106437         0.0268168         -0.060598         0.0088197         0.0259171         0.0169412         0.0235498         0.0238877        0.00624541
        0.00166673        -0.0148959        -0.0258324         0.0754672        -0.0265196         0.0132834        -0.0554566         0.0386989        0.00542745
       -0.00377313        -0.0178736         0.0442737         0.0363241        -0.0150475         0.0327033        0.00769752        -0.0129021      -0.000630638
          0.014799       -0.00406756         0.0480042       -0.00446872        0.00837357         0.0602999       -0.00856768          0.017637        -0.0152722

bias 0:
         -0.142524

weight 1:
         0.0474288        -0.0327205        0.00174713         0.0937291         0.0325077          0.030207         0.0115007         -0.011612       -0.00152861
         0.0526025        -0.0162674       -0.00210237         0.0296474         0.0402146          0.067302           0.06545        -0.0231321         0.0212156
         0.0515603       -0.00800364        0.00749356        -0.0486295         0.0590358         0.0758552         0.0595478        -0.0516963         -0.042082
        -0.0583972        -0.0275197        0.00386816         0.0145519         0.0145722        -0.0232833        -0.0051403         -0.031599        -0.0394853
        -0.0341089          0.015159          0.022925         0.0658904         0.0544078       -0.00245992        -0.0407804         0.0375186         -0.017089
       -0.00529586        -0.0256576         0.0245218         0.0516896         0.0127301          -0.02791         0.0216171        -0.0182353       -0.00760199
         0.0196395        -0.0137136           0.01444        -0.0881858        -0.0299645       -0.00746448        -0.0353658         0.0695921         0.0051366
        0.00398726         0.0261308       -0.00114782        -0.0212725         0.0213157         0.0008118        0.00679462        0.00572326          0.053747
         0.0198578        -0.0191609        0.00207524        0.00428304         0.0774683        0.00258814         0.0101367        -0.0188111         0.0178454

bias 1:
         -0.420076

weight 2:
         0.0268679        -0.0548939         0.0580598        0.00444112       -0.00171642      -0.000593082        -0.0364025         -0.009437         0.0186673
        -0.0143591         0.0006066          0.054537       -0.00149165         0.0125702        0.00190351         -0.030434         0.0154928       -0.00281501
       -0.00748989       -0.00526011         0.0254238          0.109867         0.0309487        -0.0630857        -0.0108079        -0.0439998        -0.0103611
        -0.0402733        -0.0238465          0.040699          0.118434          0.115187        -0.0291532         0.0124957        0.00865866       -0.00882149
       -0.00986265      -4.84747e-05         0.0128069         0.0722877         0.0718569         0.0268317        -0.0031568        0.00711475       -0.00987372
         0.0280924         0.0109774       -0.00911864        0.00464267         0.0124324         0.0594191        -0.0208485         0.0234097         0.0465246
        -0.0126844         0.0163391        -0.0643305        0.00530609        -0.0398882        -0.0212584        -0.0480149         0.0380275        -0.0279699
        -0.0135611        -0.0114228         -0.030631        -0.0179447         0.0119927         0.0275691         0.0148014        -0.0139799        -0.0134605
         0.0298235        -0.0199632          -0.05123        0.00501285       -0.00942776        -0.0153637        -0.0146909        0.00921893       -0.00564691

bias 2:
         -0.294347

