weight 0:
          0.106951        -0.0784035          0.019146        -0.0523048        -0.0112601        -0.0524178       -0.00806645        0.00545044             0.016        -0.0500043         0.0334704       -0.00816647        -0.0407946        -0.0148563          0.030673        -0.0341967         0.0200552        -0.0291984        -0.0111908         -0.047609        0.00465709          0.040859         0.0364874        -0.0443947         0.0201338       -0.00483276        -0.0081733        0.00699938         0.0143564         0.0573912        -0.0237377        -0.0139552         0.0127915         0.0348462         0.0137939        0.00173361        0.00844963          -0.01869        -0.0319002         0.0263188         0.0237037          -0.04133        -0.0388724        -0.0192709         0.0379816         0.0361642        -0.0491308         0.0152876        -0.0470671        -0.0194399        -0.0137613         0.0157329         0.0356154        -0.0334397        -0.0113696        0.00909128         0.0339883         0.0134159          0.032174        -0.0318991        -0.0112375         0.0157306         0.0147777         0.0579962        -0.0345503       -0.00309291         0.0184249         0.0151611        -0.0261901         0.0155366         0.0557858        -0.0154901        -0.0193179        -0.0176519       -0.00778979         0.0256159        0.00726316         0.0398481        0.00129658        -0.0170621         0.0306301        -0.0490639        -0.0273453         -0.011423         0.0186792         -0.039301        -0.0278644         0.0356794         0.0474266       -0.00443306        -0.0206215        -0.0196698        -0.0252617        -0.0212351         0.0491788        -0.0109707         0.0465222         0.0126089        -0.0344363        0.00727107        -0.0193224         -0.019264        -0.0137409         -0.020732        -0.0146972        -0.0338014        -0.0483349        -0.0202867       -0.00656029       -0.00992828        0.00993952        0.00111275        -0.0188605        -0.0371164         0.0219527         0.0421797         0.0231254        -0.0500838        -0.0176663         0.0571954       -0.00858086        0.00693992        -0.0230389         0.0127783       -0.00872822          0.003214        -0.0371697        -0.0143085         -0.013999         0.0134421        0.00907269       -0.00381886        -0.0255359         0.0188741       -0.00294868         0.0170568        0.00394364         -0.077813        -0.0299642        -0.0215315         0.0253215        -0.0118758        -0.0177145         0.0299141         0.0234049         -0.024638        -0.0373033        0.00155612        -0.0298662         0.0128149         -0.052919       -0.00735232          0.047212         0.0205516        -0.0249258        -0.0177221       -0.00920748        -0.0367299        -0.0123137        0.00500871        -0.0308619           0.03508        -0.0734621         0.0335415        -0.0342808          0.029405       -0.00541847       -0.00776515        0.00374338         -0.032424         0.0225994         0.0183511         0.0018891       0.000920469        -0.0104672         0.0191545        -0.0313754        -0.0470356         0.0347643         0.0451465         0.0157176         0.0208298        -0.0349585        -0.0063756         -0.030552         0.0456777         0.0195639         -0.050448        0.00708667        -0.0307763         0.0193296        0.00156577       -0.00256926        -0.0155262        -0.0307287        -0.0545057         0.0335098         0.0643233         0.0459534         0.0601085       -0.00120917         0.0165284        -0.0381075         0.0549713        -0.0305502       -0.00259295        -0.0590408        -0.0144076         0.0680523        -0.0242733        -0.0557542        0.00110437         0.0213954         0.0331848        -0.0353938         0.0599007        -0.0426901         0.0308512         0.0168335        -0.0115482        -0.0264173         0.0376047        0.00388166          0.045262        -0.0101846       -0.00861988         0.0396717        -0.0154784        -0.0577823        -0.0232452          0.054576        -0.0261231       -0.00240959         0.0589154       -0.00942079        -0.0357603         0.0509017        -0.0122296          0.016977       -0.00705016         0.0580985         0.0423648        -0.0259592
         0.0884336         0.0197022        -0.0275107        -0.0204032        -0.0101182       0.000189612        -0.0198904        -0.0226929        0.00336157         0.0302559        -0.0262625         0.0508945        0.00839396        -0.0575271        -0.0229711        -0.0417904        -0.0230124        -0.0755894         0.0342712         0.0151793         0.0256526          0.017963          0.034716         0.0557078        -0.0232219         0.0153535        -0.0781118        -0.0279627         0.0380291         0.0218372         0.0565177         0.0148913         0.0252764         0.0159393        -0.0403074          0.098005        -0.0310105         -0.017645         0.0347572         -0.023195        -0.0482456        -0.0727964         0.0386089         0.0500384         0.0222037       -0.00272356         -0.028691         0.0198725         0.0387184         0.0348166         0.0295578        0.00843738         0.0497597        -0.0550367          0.015397       -0.00482739        0.00343748       -0.00526986        -0.0105791         0.0614953        -0.0271051         -0.036149        -0.0529301       -0.00975955        -0.0366226        -0.0464733           0.02672         0.0210681         0.0511929         0.0216549       -0.00494404         0.0277123        -0.0578953         0.0195122        -0.0162327         0.0468974      -0.000823747        -0.0185261        0.00114254        -0.0119708         0.0458499        -0.0403917          0.011145        0.00263854         0.0526697         0.0274183         0.0201191         0.0297287        -0.0446702         0.0557045         0.0955832         0.0334673         0.0277656         0.0150828        -0.0131176       -0.00563233       -0.00881553        -0.0134749         -0.009105         0.0323891        -0.0378074         0.0141081       -0.00288278        0.00246611       -0.00369518        0.00331972          0.010504        -0.0585253         0.0144639         0.0268435        0.00288509        0.00846267         0.0308076        -0.0556866        -0.0123474        -0.0522617         0.0282258       -0.00955427         0.0526627        0.00654518        -0.0234021         0.0306802         -0.023153         0.0381902         0.0590406         -0.036071         0.0284083       -0.00320549       -0.00325817        -0.0157103         0.0191991         0.0842137        -0.0189513      -0.000404326         0.0244446        -0.0727677          0.043457       -0.00808646         0.0258027         0.0322491       -0.00304798         0.0225943        -0.0166948        -0.0481702        -0.0114237         0.0031967         0.0343489          0.034647         -0.034668         0.0214194        -0.0116584         -0.069145        -0.0187928        -0.0381134        -0.0406025        0.00787807        -0.0528776        -0.0419889         0.0185835         0.0046406        -0.0195911        0.00560551        -0.0574559        -0.0293385         0.0969122        -0.0238657         0.0211515         0.0308549         0.0153453         0.0323692         0.0224753         -0.086095         0.0093669         0.0623269         0.0177688         0.0951123         0.0389487          0.106576         0.0597253         0.0212088         0.0315146        -0.0132444        0.00856771        -0.0595883        -0.0357734         0.0119458        -0.0413844       0.000276759         0.0287717         0.0257333         0.0435985         0.0362276         0.0131429         -0.033368       -0.00910704       -0.00847379        -0.0290589         0.0440277         0.0100908       -0.00889833         0.0175853        -0.0684359        -0.0296409         0.0089937        -0.0111433        -0.0246764         0.0390458         0.0607868         0.0182306       -0.00781404        -0.0277989        0.00208653        -0.0442973        -0.0028805          0.015988        0.00250564         0.0349923       -0.00141895         0.0550437         0.0146872         0.0207079        -0.0356103        -0.0106013         -0.102133         0.0148248         0.0388581        0.00895895         -0.025255         0.0150346         0.0126039         -0.026046         0.0147569         0.0453457        0.00204459        0.00559837      -0.000721185        0.00615828         0.0129414        -0.0184691        -0.0315507         0.0340474         0.0232959       -0.00114498
          0.215819         -0.017925         0.0160405        0.00278301       -0.00712977         0.0100679         0.0176837       0.000317686        0.00382799       -0.00494193        -0.0124947        -0.0474138       -0.00676068         0.0366955        -0.0511712         -0.028971        0.00478759        0.00766215        -0.0561855         -0.025318         0.0427752        0.00835655       -0.00233083       -0.00246058         0.0167806         0.0319037        -0.0112237       -0.00629817         0.0119702        0.00210947        -0.0300149        0.00683026         -0.012246         0.0465543        -0.0390266        -0.0452727          0.038924          0.016263         0.0440975         0.0205171        -0.0658755         0.0109807         0.0420336       -0.00172974        -0.0103154        -0.0540252         0.0287027        -0.0435923        -0.0225951         0.0237435         0.0205067        0.00712717        -0.0671148       -0.00133476        -0.0275341        0.00636056        0.00410552       -0.00858424         0.0377509        -0.0036552       0.000709904       -0.00171239       -0.00323654         0.0193101        -0.0148856         0.0262448         0.0243814         0.0255181        -0.0190945         0.0218906       -0.00804046        0.00975959        -0.0169539       -0.00395344         -0.014406       -0.00973116        -0.0226883        -0.0314997         0.0753729        -0.0156624         -0.014353         0.0371024         0.0173781        -0.0145271        0.00640897        -0.0283135        -0.0494753         0.0289946         0.0186479         0.0484965       -0.00810208        -0.0687381       -0.00359732         0.0136863          0.064464         0.0330175        -0.0180261         0.0505494        -0.0460319        -0.0171407        -0.0325811        -0.0483598        -0.0433232         0.0851099          0.048028        0.00793214        -0.0525733        -0.0205391         0.0319981       -0.00277363        -0.0381381       -0.00681435       -0.00404449        -0.0214343         0.0254866        -0.0112674        0.00604676        -0.0169076       -0.00292017        0.00267344         0.0325684         -0.031676        -0.0034702        -0.0316169        -0.0157436        -0.0612508         0.0249704        -0.0344969        -0.0134908        -0.0193882          0.039287        -0.0540654         0.0320005         0.0272417         0.0230846        -0.0123708        0.00977511         0.0290552        -0.0393745         0.0324568         -0.012253         0.0398887        0.00863122        -0.0148167        -0.0227643      -4.37945e-05        -0.0391174         0.0255785         0.0388276         0.0223872        -0.0201626        0.00926507         0.0132237          0.052055         0.0167245        -0.0306039         0.0366357       -0.00248538        -0.0176375        -0.0523431        -0.0758201        0.00907446         0.0669947        0.00264545       0.000370672          0.049676        -0.0106958         0.0246655         0.0409219         0.0266284         0.0131977         0.0211745        -0.0197487         0.0312746         0.0751808        0.00491846         0.0260791         -0.050573        -0.0187235       -0.00185125        -0.0157615        0.00769317         0.0434173         0.0394532        -0.0261893        -0.0255009        0.00955989        -0.0154497       -0.00779093         0.0463527        -0.0205781        -0.0165955          0.014646        -0.0539382        -0.0083816        -0.0112013        -0.0592827        -0.0640048       -0.00172641        -0.0127444         0.0355689        -0.0172856        -0.0223035         0.0409652        0.00104353       -0.00213596      -0.000667493        -0.0229712         0.0098174         0.0496759         0.0189027         0.0300762          0.012376         0.0149313        -0.0488552        -0.0191012         -0.046713        -0.0186781         0.0242823       -0.00113532       0.000592497         0.0166207        -0.0202422         0.0123631        -0.0359136        -0.0123245        -0.0320088         0.0544128        -0.0204493       -0.00729138         0.0260647       -0.00724487         0.0159919       -0.00479996        0.00270247         0.0209426         0.0099532        -0.0189545        0.00258754         0.0516302        -0.0230947        -0.0181999         0.0383611
        -0.0422391        0.00157157        -0.0393644         0.0292634        -0.0541647        -0.0400758       -0.00626628         0.0128017        0.00640901       -0.00830321        -0.0370282      -9.04345e-05        -0.0226679         0.0309546         0.0243902        0.00795313        0.00486143        -0.0179749        -0.0237317         -0.023189        -0.0397261        -0.0911678        0.00740589        -0.0121618         0.0265693          0.027693        -0.0176822        -0.0285213        -0.0254403        0.00201644        -0.0161811         0.0451177        -0.0348071        -0.0236235         0.0080133         0.0385042      -0.000752821        0.00633254        -0.0335866         0.0345389           0.03338        -0.0213797        -0.0644806        -0.0175728         0.0106068       -0.00522419         0.0149306        0.00797575          0.011673          0.042328        0.00490484        -0.0456309        -0.0428812        0.00278513         0.0296983         0.0100217        -0.0313153         0.0544504       -0.00115867        -0.0363575         0.0355748        -0.0405014        -0.0134156        -0.0168813         0.0660682         0.0227563       -0.00128681        -0.0268089         0.0206426        -0.0206145      -0.000947654         0.0106304       -0.00729104      -0.000744121         0.0706904          0.036519        0.00973451         0.0157643         0.0108508        -0.0098572       -0.00288039        -0.0217036         -0.024546         0.0415946         0.0170385         0.0122778        -0.0137979       7.76645e-05          0.014809         0.0358117        -0.0109326         0.0284202         0.0131521        0.00326787         -0.016946         0.0302578        -0.0545054         0.0443423         0.0145025       0.000714293        -0.0243774        -0.0307601         0.0162556        -0.0110878         0.0275235         0.0146473        -0.0143887        -0.0233039         0.0207595         0.0410165         0.0549181         -0.044072       -0.00082191         0.0442767         0.0042835        -0.0168558        -0.0233812         0.0295891         0.0227153         0.0313095         0.0555156         0.0143936       0.000279488         -0.019382       -0.00416626        -0.0372561         0.0129688         0.0183647          -0.03128         0.0121902        -0.0145944         0.0181351        0.00891601          0.059049        0.00940457        -0.0288831        0.00745842         0.0235218        -0.0427308        -0.0207709         0.0324612         0.0117965        -0.0273803       -0.00688077         0.0236173         0.0411381         0.0175208         0.0194904         0.0149881        0.00219858        -0.0296028        -0.0169232       -0.00781118        -0.0136478        -0.0139134        0.00998936         0.0119608       -0.00282924        -0.0246973        0.00081172        0.00242639         0.0452537        -0.0159596         0.0342794       -0.00358779       -0.00103343        -0.0519108         0.0563783         0.0272409        0.00262953        -0.0264181            0.0183        -0.0472617         0.0382976         0.0102134        -0.0394968         0.0209601         0.0154244        0.00511886        -0.0318153         0.0232204        0.00706315       0.000625532        -0.0167615        -0.0622738        -0.0194718         0.0228118         0.0269324        -0.0444203        0.00123249        -0.0787771        -0.0255753         0.0127058        -0.0450417       -0.00665077      -0.000628849        -0.0162042      -0.000327292         0.0407492         0.0255243         0.0325845         0.0492519        -0.0377646        0.00320978        0.00552085       0.000496667         0.0366323         0.0293846       -0.00951204        -0.0131117        -0.0569065        0.00695036         -0.017112         -0.027153        -0.0067026         0.0243202        -0.0590932         0.0104783         0.0209807         0.0116441         0.0154769        0.00630353         0.0092132       -0.00115355         0.0549051       -0.00279304         0.0521593         0.0477503        -0.0301489         0.0134787        -0.0145764         0.0243439         0.0197062        -0.0503515        -0.0158428        -0.0629113        0.00419127        -0.0123254         0.0312226        0.00781972       -0.00887483          0.031056        -0.0381876
         0.0873823        0.00514356       -0.00659436         0.0328592        -0.0130967        0.00860233         0.0058188      -0.000969674         0.0196563        -0.0119782         0.0589671         0.0133029         0.0045081         -0.035685        -0.0311695         0.0103357         0.0237179        -0.0363773         0.0188965        -0.0579974         -0.023162       -0.00785108        -0.0230736       -0.00750112         0.0560001       -0.00348261         0.0456241        -0.0264603         0.0151837        0.00492388        -0.0111386        -0.0367183        -0.0051074        -0.0370457         0.0111353       -0.00936877        -0.0488404         0.0189475         0.0486967        0.00743786        -0.0661612         0.0315412        -0.0150046         0.0537498         0.0107326        -0.0118881         0.0441123          0.017916         0.0502468        -0.0107433         0.0187412         0.0353122        -0.0256922       0.000574865         0.0199179        -0.0332914      -0.000399955         0.0370552         0.0204786       -0.00570942         0.0372505         0.0315661       -0.00790231         0.0739987         0.0263523        0.00178634         0.0195832       -0.00758204         0.0368948        -0.0337138        -0.0283643        -0.0472686         0.0312404         0.0140764         0.0376568         0.0623051        -0.0481751        -0.0210614        -0.0149933         0.0210659       -0.00448111         0.0340525         0.0234166        -0.0488977        -0.0217277         0.0209438         0.0664723        -0.0139357       -0.00581391         0.0430206          0.024651         0.0869841        -0.0227915           0.01002         0.0479605        -0.0124075         0.0516109        -0.0135091        0.00140085        -0.0196806        0.00319388         0.0127688         0.0344137       -0.00289994        0.00146222        0.00196045        -0.0386952        -0.0127636        -0.0144167           0.01001         0.0236425         0.0221448        -0.0140764        -0.0334815         0.0499698        0.00574965          0.031736         0.0276915        -0.0318243        0.00191294         -0.016454         -0.017089        0.00437645        -0.0444526        -0.0245554        -0.0351368         0.0449313        -0.0496108        0.00908836        -0.0509474        -0.0243725         0.0618068         0.0160916         0.0493476         0.0313777         0.0216675         -0.040576        0.00357921        -0.0302514         -0.042445        0.00672384         0.0215559        0.00939394        -0.0319421          0.030517       -0.00242393        -0.0226502        -0.0662686         0.0290625        -0.0316502         0.0396458         -0.052273       -0.00554267        0.00932312        -0.0480669        -0.0382034         0.0233946        -0.0960865        0.00702631         0.0693143         0.0261712       -0.00133786        -0.0542442        -0.0265913        0.00613078        -0.0410071        -0.0560494         0.0186794        -0.0291511        -0.0641095         -0.012145        -0.0263838        -0.0754904          0.024375        -0.0546957        -0.0154151       -0.00302475        -0.0263365        -0.0316472       -0.00665585         -0.038811        -0.0503122         0.0220264        -0.0289958         0.0045224        0.00647241       -0.00330536        0.00534949         0.0265552         -0.027897        -0.0109015         0.0645778       -0.00596703        0.00838297         0.0197675         0.0305221         0.0211851        -0.0352278         0.0127282        -0.0226204        0.00999046        -0.0420747            0.0175         0.0106651        0.00280431         0.0639963         0.0474673        -0.0271644        0.00809189        -0.0143448        -0.0204802        0.00163393        0.00576403       0.000605461         0.0872102        -0.0234802        0.00401732        -0.0165564        -0.0241508        -0.0286921        -0.0248644        0.00529659         0.0164291        0.00498983         -0.060987        -0.0462696         0.0296638         0.0292377       -0.00355552         0.0119671        0.00268166         0.0398297         0.0047876        -0.0396806        -0.0185216        -0.0110584        -0.0368834         0.0106477         0.0135117        0.00127526       -0.00813766        -0.0488296        -0.0252369
          0.167576         0.0178045         0.0223927         0.0203206         0.0416268         0.0327598         0.0641289       -0.00582359        0.00666234         0.0706925         0.0641341         0.0290178         0.0630408        -0.0228613       -0.00819196       -0.00903569        -0.0050403        -0.0442012        0.00773256         0.0110687         0.0338188         0.0158952        -0.0012395         -0.019323        0.00776012         0.0184438         0.0500595        -0.0136168       -0.00446023         0.0300886        -0.0232289        -0.0592354       -0.00521244         0.0506861        -0.0382059        -0.0159695         0.0287499         0.0163855       -0.00383479         0.0164131         0.0325377         0.0358362        -0.0032091          -0.02311         0.0454619        -0.0161707          -0.02145        0.00772036        0.00958223         0.0343188        0.00944517        -0.0648132         0.0401889         -0.029333        0.00861344        -0.0424283         0.0413008        0.00946453        -0.0414892         0.0139201         -0.016739        -0.0437234         0.0298812         0.0336229         0.0050103        0.00364745           0.03974         0.0308923        0.00942022         0.0184641         0.0633716         0.0235755        0.00111103         0.0332573       -0.00439477        0.00306198         0.0230971         0.0489844        -0.0627718        -0.0030636         0.0150735        0.00225181        -0.0614033        -0.0112935         0.0341482        -0.0205051       -0.00764317         0.0110083         0.0265852         0.0524088        -0.0567997         -0.026626         0.0328159        -0.0125492         0.0433922        -0.0133717         0.0102315        -0.0233811       0.000407841        0.00974302         0.0179364       -0.00171952         0.0561591       -0.00435387        0.00870038         0.0176602         0.0150225       -0.00525599         0.0242217        -0.0190682        0.00165672         -0.012342       -0.00955755         0.0211486         0.0647008        0.00536851        -0.0480694        -0.0241029         0.0381418          0.043615        0.00683876         0.0105293         0.0159625        -0.0524671         0.0281352         0.0477399       -0.00360398       -0.00976595         0.0555373         0.0159407         0.0459023        0.00290475       -0.00150306        -0.0229417       -0.00747338         0.0599952         -0.020245        0.00642151        -0.0258819        -0.0352355         0.0212112         0.0149276         0.0478753        -0.0402686         0.0140986        -0.0548801        -0.0155162        -0.0248026        0.00343745      -0.000950949         0.0651433        -0.0528265         0.0210864         0.0249434         0.0222272      -0.000478651           0.01729          0.026186       -0.00760065         0.0246775         0.0485837         0.0388974        -0.0573163        -0.0278069        -0.0305818         0.0246965         0.0531128         0.0738304        -0.0228318         0.0130617       -0.00316049       -0.00208278         0.0374788        -0.0141724        -0.0441032        -0.0340437        -0.0413425        -0.0184705        0.00525121         0.0202358        -0.0233402         0.0126565       -0.00748063        0.00502669       -0.00689343         0.0285451         0.0449503         0.0271172       -0.00525989       0.000736614        -0.0520339         0.0326164         0.0530853        -0.0252181         0.0162217        0.00178238        -0.0486812          -0.10418        -0.0331735        -0.0405265       -0.00652769         0.0144602        -0.0354885          0.109511        -0.0167237         -0.031651       -0.00494912       -0.00666873       -0.00638812        -0.0186965        -0.0193023         0.0236855         -0.030022        -0.0177026         0.0348706        0.00149941        -0.0229589         0.0229492        -0.0715763        -0.0914595        -0.0421239         0.0253499         0.0164571         0.0479078       -0.00915511        -0.0376237          0.017671        -0.0136858         0.0677785         0.0116096        -0.0829958         0.0278214         0.0220501        -0.0391735        -0.0241677       -0.00534787        0.00829371         0.0107118        -0.0138628         0.0104116          0.031921         0.0234132        0.00881007
        -0.0100556       -0.00648519        -0.0340045        0.00156778         0.0274539         0.0267777         0.0362336       -0.00606476        0.00391755         0.0227511         0.0147442        -0.0245054        -0.0398237        0.00623749        0.00501808        -0.0103974        0.00491344         -0.037005         -0.020096         0.0522573       -0.00139774        -0.0118924         0.0463522        -0.0141944       -0.00566155        0.00867425          0.041566         0.0101846         0.0225328        -0.0271841       -0.00410927         0.0214843         0.0617867         0.0173897         0.0302305          0.037154         0.0373658        -0.0448169        -0.0119469         0.0258082       -0.00612574         0.0518359        0.00891384         0.0362836        -0.0668961        0.00500734        -0.0160546         0.0550748       -0.00559634        -0.0132831        -0.0058471         0.0288813         0.0042454       -0.00456637         -0.011481       -0.00251668        0.00977842       -0.00681474         0.0136739        0.00548596        -0.0195905        0.00806604       -0.00667837         0.0209724         0.0245922       -0.00623679        -0.0169868        -0.0304564       -0.00719119        -0.0530282         0.0342392         0.0197329         0.0370097         0.0160667         0.0301787        -0.0324154         0.0262268        0.00573295         0.0133539        0.00613368        -0.0405826         0.0492769         0.0568991         0.0252095        0.00876821         0.0216557         -0.059185        -0.0118409        -0.0249665       -0.00235344        -0.0234829        -0.0253645        0.00579392        -0.0327286        -0.0443544        0.00653044        -0.0190067        -0.0157798         -0.015845       -0.00598598        -0.0862332        -0.0103301         0.0160649        -0.0260294         0.0285555       -0.00113486         0.0104688        -0.0585797         0.0341676        0.00985528        0.00806253       -0.00911211         0.0650095         0.0243934        -0.0386397        -0.0138212         0.0640751         0.0456439         0.0131718          -0.07587        -0.0244693         0.0351127        -0.0103036         0.0238885       -0.00823848       -0.00643858        -0.0344329        -0.0039015         -0.014425        -0.0597435         -0.071671          0.037002        -0.0136524        -0.0103906        -0.0121053        0.00524599         0.0324396         -0.018642         0.0617812         0.0441931         0.0183563         0.0190162       -0.00171012       -0.00203724        -0.0326355         0.0291259        0.00731776        -0.0319209         0.0172569         0.0405078         0.0427472      -0.000350471        -0.0144644        -0.0075102        -0.0508019        0.00176963      -0.000291168        0.00709255       -0.00489505          0.038908         -0.037012         0.0419309       -0.00773061         0.0167644        0.00255763        -0.0265529         0.0402526       -0.00490352        -0.0231101         0.0011842      -8.78839e-05         0.0130447         0.0708257          0.029105        -0.0225087         0.0122355        -0.0130763         0.0316471        -0.0318142          0.020967         0.0465321         0.0040555        -0.0154189         0.0625601        -0.0341921           0.04354        -0.0467572       -0.00288456         0.0162069         0.0395995        -0.0345499       -0.00926881       -0.00746331        -0.0195485       -0.00291803         0.0153438       -0.00334745        -0.0157168        -0.0399515       -0.00425159       -0.00295459        -0.0217232         0.0473012        -0.0578977       -0.00809918        0.00862347         0.0527291       -0.00495173         0.0219679         0.0185813        -0.0186056       -0.00179944        -0.0490614        0.00817829        -0.0407214        -0.0251456        -0.0054863          -0.04174         0.0465563        -0.0328675       -0.00355432        -0.0256155        -0.0249162         0.0393061        -0.0178579        0.00109111         0.0601394        -0.0159139       -0.00108483        -0.0154558         0.0191143          0.041228        -0.0117991         0.0162457        -0.0202548        0.00182089         -0.039747         0.0251651        -0.0159558        -0.0147115         0.0312892        0.00618635         0.0553795
          0.290501        0.00735423       -0.00552778         -0.087586        -0.0250034        -0.0445046         0.0270846        -0.0149516        -0.0122202        -0.0184341        -0.0328323          0.064774        0.00987055         0.0530965        -0.0699531        0.00651279        -0.0736001          0.018303         0.0212984        0.00423671       -0.00653407        -0.0163554          0.087581       -0.00186399        -0.0142907        -0.0319651        -0.0497422      -0.000311618         0.0212424        0.00564055        -0.0685783       -0.00688925         0.0204461         0.0260123       -0.00471534        -0.0237959       -0.00434116       -0.00567315        -0.0966718        -0.0327973         0.0387534       -0.00763831         0.0388097        -0.0265185          0.056333        -0.0184065        -0.0499357        0.00879109         0.0156932        -0.0522575        0.00484425        -0.0234847        0.00658854         0.0389134         0.0188219        -0.0366613        -0.0246016         0.0189728        -0.0791813        -0.0237975         -0.010905         0.0250567        -0.0683519        -0.0158884        -0.0165456        -0.0290362        -0.0025565        -0.0625386         0.0131569        -0.0331784          0.024126        -0.0121083        -0.0312043        0.00437643         -0.037575        -0.0244735          0.031321        -0.0210314         0.0148911        -0.0136509         0.0474252         0.0166033         0.0187874         0.0314402        -0.0527531        -0.0111237        -0.0408649        -0.0393069        -0.0248711        -0.0180632        0.00179534         0.0565679        -0.0323385          -0.02784        0.00254418         0.0598319         0.0253463        -0.0544024         0.0193047         -0.022116         0.0168642        -0.0286766       -0.00805749         0.0105551        -0.0443166       -0.00985183         0.0248551        -0.0310558        -0.0368993         0.0120807         0.0103827        0.00908889         0.0248018         0.0244637         0.0939807        -0.0629439         0.0418813        0.00947277        -0.0192819        -0.0265654        0.00646433        -0.0387982        -0.0363659         0.0123463       -0.00275999         0.0276189        -0.0100927         0.0249987         0.0100786        0.00607987        -0.0721174         0.0220601         0.0216719         0.0673909        -0.0263316         0.0314157        -0.0440266         -0.029465       -0.00855344         0.0282689        -0.0569244         0.0328084        0.00377574         0.0469003        0.00420604       -0.00732094         0.0210016         -0.060497        -0.0209777        -0.0544061        0.00341348        -0.0162274         0.0267879      -0.000419245        0.00246734        -0.0228326         0.0150139        -0.0528302         0.0405286        -0.0266028         0.0200186         0.0252284         0.0107326          0.016309        -0.0299349        0.00453246        -0.0260375         0.0117514         0.0306789       -0.00559157        -0.0186623         0.0299568         0.0182013       -0.00949373       -0.00229128        -0.0548877         0.0120988         0.0471556         0.0624178        -0.0721129       -0.00251108         0.0570667         0.0126697        0.00711414         0.0215835         0.0241674        0.00800797        -0.0141022         0.0225604         0.0379564        -0.0842707        -0.0304621         0.0281673         0.0159395        -0.0333731        -0.0207432         0.0297817         0.0226369        0.00142534        -0.0141174         0.0260746        -0.0657452         0.0262298        0.00143178           0.03249          0.040426        0.00206693        -0.0895875         -0.034437         0.0284413         -0.013595         0.0240397         0.0280681         0.0308801         0.0191973         0.0318026        -0.0085184         0.0471972         0.0168085        -0.0110262        -0.0124528       -0.00333366         0.0703934         0.0236211       0.000680868         0.0121148         0.0126981        -0.0184619        -0.0213337         0.0776195        -0.0352045        -0.0217635        -0.0164963         0.0320036         0.0349301         0.0365411        -0.0399449        -0.0245193       -0.00648152        -0.0288591        -0.0536261       0.000819701        -0.0133791
        -0.0304091         0.0188146         0.0412647        0.00498559        -0.0286052        -0.0411266        -0.0626318       -0.00388833        0.00955771        -0.0163912        -0.0112846         0.0021178       -0.00701234         0.0175988        -0.0106858        0.00300978         -0.014139       -0.00395052        0.00344508          0.019876        -0.0547169        -0.0248454          0.019303        -0.0207743        -0.0373094         0.0369082        0.00338199          0.015659       -0.00725334        -0.0265909         0.0866854         0.0347474         0.0344905       -0.00910033        -0.0274563       -0.00765929        0.00697352         0.0180313       -0.00611243         0.0216388         0.0357972        -0.0392687         0.0247194         0.0594983         0.0655855          0.016111        -0.0649665       -0.00330064        -0.0364882        0.00216678         0.0287605        -0.0157803          0.024393        -0.0257019        -0.0440846         0.0301909       -0.00719693        -0.0117082       -0.00756543         0.0515524        -0.0186424        -0.0366505         0.0111085        0.00903285         0.0605691         0.0385516        -0.0337391        -0.0801687         0.0370546         0.0593524       0.000893576         0.0442714        -0.0331459         0.0385866        -0.0351787        0.00981698        -0.0158094       -0.00271523          0.038206         0.0568742        -0.0797823         0.0395045         0.0508982         0.0532799         0.0260397         0.0156655         0.0139732        -0.0291986        -0.0222412         0.0330891         0.0539604         0.0126501         0.0606544         0.0560764        -0.0199109         -0.015623        -0.0270403         0.0210489        -0.0249149        -0.0395574         0.0153459         0.0470658         0.0705315         0.0554734         0.0433194       0.000354588         0.0104504        -0.0293991       -0.00986994        0.00590045       -0.00406047        -0.0262878         0.0281625        -0.0124944         0.0541609        0.00375192        -0.0515446        -0.0410805        -0.0043942        0.00988543           0.03316         0.0282852         0.0120156        -0.0022824       6.15521e-05         0.0512833        -0.0114814         0.0514511        -0.0281171        0.00375193        0.00524731        -0.0735407         0.0151431        -0.0362301        0.00878676         0.0403775       -0.00956159        0.00634492       -0.00256067         0.0158503        -0.0132399        -0.0148755       -0.00415989        0.00463321         0.0318499         0.0454252      -0.000973821         0.0270826         0.0557128         0.0289576       -0.00266397        -0.0429813         0.0283953        -0.0032245        -0.0204012         0.0408396         0.0389618         0.0217839         0.0175531         0.0172075          -0.04934        -0.0185422        0.00960591         0.0321135        -0.0718416          0.016261        -0.0499354         0.0202768        -0.0573178          0.066425        -0.0272135        -0.0487176        -0.0227295        -0.0565925        -0.0117764         0.0289617         0.0184323         0.0442433        -0.0149703         0.0265371         0.0165101        0.00684662        -0.0379211        -0.0263544         0.0242258       -0.00567633        -0.0412013        -0.0273995        -0.0600266         0.0454609        0.00773537        0.00360728        -0.0162679        -0.0367631       -0.00514881         0.0206603        -0.0286419        -0.0579976         0.0302271        -0.0220752         -0.015616         0.0139058        -0.0127317        -0.0538388        -0.0304026         0.0440469        -0.0390127        -0.0438074         0.0299358         0.0208997        0.00138653         0.0317302       -0.00030426         0.0296943         0.0676962        -0.0339008         0.0180042        -0.0225224        -0.0255045         0.0353661        -0.0254557         0.0269919         0.0077372        -0.0191422         0.0449947        -0.0258676        -0.0238501      -0.000821375       0.000233514         0.0193031        -0.0959484        0.00224084        -0.0547588        -0.0246798        -0.0224407          0.019354        -0.0114958        -0.0349075        0.00558578        0.00918065        0.00438942         0.0151266         0.0202569

bias 0:
          -1.10091
           2.17268
          0.415333
         -0.704204
          0.287064
         -0.719976
          0.571484
         -0.024889
           1.72728

