weight 0:
         -0.276956         0.0193554      -0.000821205         0.0730748         0.0505212          0.018562        0.00540812         0.0126646        -0.0321583       0.000871518        -0.0366026         0.0137108         0.0180224         -0.015947        -0.0153547        -0.0186879          0.021205        0.00477807          0.034393        -0.0135168        0.00104688         0.0938864          0.025937         0.0320585        0.00327287         0.0065205         0.0642608        0.00962547        -0.0193856        -0.0342298        -0.0197503        -0.0344657        -0.0591929         0.0118359        -0.0350848        -0.0322282         0.0135666         0.0390485        -0.0176615         0.0438756         0.0415732         0.0236982       -0.00175162         0.0644165        0.00496946        -0.0335227       -0.00139556         0.0280769         0.0301066        -0.0179346        0.00189774        0.00289724        0.00581347        0.00378297         0.0585789        0.00917356        -0.0382418         0.0159695         0.0166365        -0.0469998         0.0798197        -0.0339355         0.0344369        -0.0313376         0.0491634        -0.0397852       -0.00821922          0.050225         0.0269227        0.00894911        -0.0315856         0.0342336          0.025102         0.0527756        -0.0118715        -0.0320676         0.0321991         0.0549474        -0.0247899        0.00719415         0.0443837          0.131058       -0.00641721         0.0855793         0.0154573         0.0258626         0.0385573         0.0169564         0.0748179         0.0228535       -0.00122996         0.0321044         0.0280705         0.0773036         0.0989065          0.023523         0.0509003          0.036341          0.065638         0.0106199         0.0668565         -0.054811         0.0664613         0.0164857         0.0299757         0.0328051         0.0906165         0.0399196         0.0239854         0.0788513         0.0162835       -0.00676645        0.00324679         0.0466149           0.02537       -0.00523414         0.0386102         0.0545401       -0.00556208         0.0500869         0.0527503         0.0512291         0.0469914          0.017561        -0.0506604         0.0354808         0.0475497        0.00382147         0.0699908         0.0261034         0.0205207         0.0665899         0.0414935         0.0120936         0.0477792         0.0417771       -0.00441513         0.0629361         0.0334217         0.0542742         0.0392585         0.0616203      -0.000750391         0.0640997         0.0433216         0.0551952        -0.0248461          0.111436        -0.0431912         0.0199084         0.0540934         0.0703447         0.0153975         0.0113187         0.0164494        -0.0403068         0.0818268         0.0631766           0.04615        0.00695346         0.0231378         0.0648558        0.00837028         0.0305418         0.0756795        -0.0272284       -0.00975506      -0.000693238        -0.0296571        -0.0113977        -0.0349761        0.00943064         0.0213403        -0.0437341         0.0437545        -0.0154067         0.0405606         0.0376461        -0.0278487         0.0596733        -0.0198751         0.0324621       -0.00932519          0.076543        0.00513486         0.0110911         0.0212681        0.00941662        -0.0118782         -0.010929        0.00202164         0.0369458        -0.0193661         -0.003766        -0.0488537         0.0306426         0.0194805        -0.0066301        0.00725587         0.0326408         0.0479205        -0.0229594         0.0508181        -0.0213182          0.009824         0.0387211        0.00841418        -0.0263994        0.00491179         -0.004196       -0.00969506        -0.0536658        -0.0489464         0.0188682        -0.0204041         0.0260607        -0.0163001         0.0141884       -0.00391412         0.0388577        -0.0027599        -0.0077368         0.0417325        -0.0061441        -0.0409241       0.000338031         0.0274547         0.0167212        0.00305074       -0.00843899        -0.0669611        0.00792684        0.00986354         0.0295713       -0.00626022         -0.018381         0.0278194         -0.047223         -0.027045        0.00680634        0.00186915       -0.00785876       -0.00703126
       -0.00985063         0.0255411         0.0146318        -0.0217069        0.00812625         0.0271203        0.00817139         -0.019332         0.0488174        -0.0165437        -0.0321585        -0.0525229       0.000224572         0.0106858       -0.00959116         0.0605879         -0.014671        -0.0265125        -0.0151817         -0.020199        -0.0438297        0.00417219         -0.070872        -0.0551107         0.0248068       -0.00807177        0.00964904       -0.00318691         0.0155157        -0.0082079       -0.00904472        -0.0183239         -0.035349         0.0176266        -0.0159289         0.0277779         0.0808269         0.0191405         0.0364587          0.019111        -0.0134578       -0.00575402        -0.0152823         -0.054863        -0.0134984         0.0238565         0.0158611        -0.0189002        0.00706124         0.0370491         0.0154503        -0.0525639        0.00547404         0.0429573         -0.014036         0.0211022        -0.0349046         0.0601014       -0.00214708         0.0466141        0.00658464        -0.0345869         0.0225716         0.0187478        -0.0227588         0.0253765         0.0541489         0.0270392          0.017586        -0.0454958       -0.00408457        -0.0139396         0.0306275         0.0180489         0.0340254         0.0162372         0.0248951         0.0692209        0.00161626         0.0316983         0.0456905       -0.00437184        -0.0388408       -0.00713476        -0.0442838        -0.0239626         -0.013188         0.0155226         -0.040074         0.0275393         0.0137936         0.0109411        -0.0429822         0.0157114         0.0124952         -0.044578         0.0188027         0.0224297         0.0294905        0.00380735         0.0124405       -0.00727833         0.0341099         0.0383356          -0.03029        0.00820653         0.0150349         0.0108842         0.0623488        -0.0109176         0.0162275         0.0360255          0.061412       0.000231818       -0.00490863         0.0548826        -0.0496488       -0.00244774         0.0201538        -0.0130329        -0.0164511        -0.0286602        0.00460787        -0.0651113         0.0243188        -0.0170162       -0.00611867         0.0554268      -0.000114436         0.0215262        0.00479495        0.00493946         0.0283255          0.049637         0.0102699          0.036744        -0.0102988         0.0036927         0.0110552        -0.0104644        -0.0461525       -0.00863505         0.0132688        -0.0322789        -0.0130444         0.0383114       -0.00964234        0.00855586         -0.074745       0.000275193        -0.0314216        -0.0231958        -0.0207388         0.0173156        -0.0344229        0.00315819        -0.0251913         0.0365315        -0.0172298         0.0626996         0.0104923        0.00472818         0.0482245        -0.0265631         0.0101057        -0.0152197       -0.00811308         0.0499231        -0.0161331        0.00905513         0.0317225       -0.00330587        0.00699945         0.0430258        -0.0063212       -0.00696109         0.0311414          0.023028        -0.0232736        -0.0131776        -0.0158112        -0.0170548         0.0122127         0.0398564        -0.0449198        0.00961975         0.0407463         0.0278389        -0.0322095         0.0163278         0.0473334       -0.00915109        -0.0779402        0.00306762         0.0116934         0.0318525       0.000206627        -0.0160067         0.0239953        -0.0116961        -0.0166687         0.0765144         0.0326037      -0.000981466        0.00644102         0.0107349        -0.0198941         0.0402835        -0.0322026        0.00313266        -0.0361315        -0.0251539        0.00343393       -0.00369588        -0.0254858        0.00932904       -0.00495649       -0.00839565        -0.0431705         0.0219692        -0.0466857         0.0111578         0.0094968        -0.0516645        0.00289705        -0.0158741          0.047451       -0.00664006         0.0623914       0.000100992        0.00287802        0.00627772        -0.0496816        -0.0125101          0.012606         0.0403566        -0.0260957        -0.0129682        -0.0191308        0.00694015        -0.0274437        -0.0321656          0.047068
           -0.0992         0.0228886         0.0387168         0.0531746         0.0388798         0.0314087          0.066289        0.00165158        -0.0263841         0.0814973        -0.0329383        -0.0133819        -0.0233682        -0.0581619        -0.0275617         0.0522187      -0.000903865         0.0406366          0.026594         0.0196713         0.0366362        -0.0230036         0.0464716         0.0209928      -0.000402731        -0.0243527       -0.00974929         0.0801409         0.0125503        0.00588055        0.00535652         0.0017261        -0.0030582       0.000227976         0.0626318        -0.0435162        -0.0172084        0.00605311         0.0437421         0.0346279         0.0449867        -0.0310536      -0.000360637       -0.00675884        -0.0232748         -0.032879        -0.0060433         0.0232309        0.00381366         0.0302959       -0.00684635         0.0393439         0.0530924         0.0273756         0.0067373         0.0932569         0.0319092         0.0222762        -0.0247856         0.0563835         0.0280045        -0.0140382        0.00242948         0.0157634         0.0354998         0.0500133          0.030103        0.00182903         0.0170432         0.0334545         0.0255056       0.000959039          0.014812        -0.0058531         0.0762384        0.00846624         0.0125476         0.0391997        0.00419291        -0.0250001          0.042888         0.0267989         0.0100035         0.0597903         -0.019518          0.020815        0.00830567          0.095328         0.0499882        -0.0215013        -0.0287318         0.0605008         0.0160208         0.0580147          0.027857         0.0410525        0.00213661         0.0194643         0.0430164         0.0670502         0.0688985        -0.0102757         0.0181009        -0.0373383         0.0200303         0.0718288        0.00149935        0.00339277         0.0379838         0.0738218         0.0340494         0.0154011         0.0485265          0.043532         0.0609675         0.0760781         0.0305575         0.0359444         0.0167046         0.0220059         0.0302448         0.0745275        0.00735916         0.0617064         0.0422663       -0.00358865          0.098685         0.0394735         0.0766735        -0.0294385         0.0487244         0.0376364       -0.00905895         0.0604928         0.0451203         0.0135335         0.0271238         0.0124716         0.0729499       -0.00432081         0.0517168         0.0123097         0.0198048        -0.0172526         0.0153569        -0.0306439         0.0293942         0.0651852         0.0190623       -0.00332449          0.103453         0.0580569         0.0362331         0.0654142       0.000641438         0.0370855         0.0250083         0.0149327         0.0820335          0.027247       -0.00324412         0.0767612         0.0224869         0.0337474       -0.00177139          0.015222        0.00027069        0.00417161         0.0329954         0.0503199          0.102811       -0.00324469       -0.00404646        -0.0116477        -0.0186226         0.0347337        -0.0178303       -0.00283567         0.0148508         0.0554106         0.0319258          0.017669         0.0548729         0.0159541        -0.0149622       -0.00271479         0.0387113        -0.0197148         0.0570342          0.017298        -0.0252933        -0.0216187         0.0187499         0.0421543        -0.0391386        -0.0235293        -0.0288013        -0.0501222         0.0516716        -0.0154754         0.0372047         0.0302976        -0.0250803        -0.0415463         0.0288902         0.0113649         0.0109267        -0.0504205         0.0403793        -0.0118915         -0.010738         0.0146334        0.00580755         0.0252045         0.0615675         0.0404728         -0.017482        -0.0420602       0.000903088        -0.0104646         0.0142414         0.0657515         0.0689868         0.0316182         0.0302426         0.0294148       -0.00659253        0.00704316          0.069035       0.000740115         0.0384059          0.051427          -0.02508          0.095803         0.0148162         0.0528476        -0.0431553         0.0254609         0.0258457         0.0212824       -0.00998223       0.000436276         0.0246128
         -0.015828       -0.00550058        -0.0205526        0.00457338        -0.0106177         0.0793733        0.00384808        -0.0104636         0.0342639         0.0419001         -0.021183        -0.0406802        0.00547711       -0.00670464        -0.0756232       -0.00294447          0.074421         0.0155383        -0.0737163         0.0459215        0.00125226      -0.000365775         0.0227778         -0.067574         0.0395457        -0.0157802         0.0167351          0.024753        0.00768743        0.00665935       -0.00593908         0.0128509         0.0118798        -0.0279511        -0.0558603       -0.00503199        -0.0128512        -0.0423281         0.0270648         0.0291654        -0.0114918         0.0120644        0.00134897        0.00569437         -0.018158         0.0423547         -0.033668          0.024629        -0.0174608        -0.0243627         0.0220683         0.0457431        -0.0181523        0.00498469         0.0397145         0.0107895        -0.0152125         0.0122813         0.0174831          0.045096        -0.0187659        0.00328393         0.0357679       -0.00275068         0.0201914         0.0216439      -0.000748597        -0.0284776         0.0493972         0.0406175        -0.0504348        0.00238642        -0.0372476         0.0645683        -0.0403556        0.00688538        -0.0121529         0.0314256        -0.0146357        -0.0211359          0.036375       -0.00446697        -0.0265108        -0.0609117         0.0199023         0.0210819        0.00620778        -0.0104987        -0.0520991        0.00757155        -0.0237881         0.0204892       -0.00738793        -0.0283652        -0.0405586         0.0254799        -0.0793279        -0.0542922        -0.0407782        -0.0360083          0.020637          0.013298        -0.0787914        -0.0263706       -0.00835107        0.00028912        0.00189055         0.0195332         0.0241878          -0.00207          0.034834         0.0164468         0.0168624         0.0138591         -0.022428        -0.0407373        -0.0419444         0.0138522         -0.017865         0.0104626        0.00882285       -0.00658299        -0.0373758        -0.0437949         0.0119338         0.0355253        -0.0785257        -0.0192158        -0.0363988         0.0188189         0.0278789        -0.0445662        0.00479449        0.00100378         0.0158623        -0.0162142        0.00222707        0.00950508        -0.0412861         0.0136005         0.0167905        0.00676577        -0.0583324        0.00942396         0.0682031       -0.00941551        -0.0202274        -0.0679465         0.0377728         0.0439549      -0.000138469       -0.00878394         0.0236953        -0.0184636         0.0179774       -0.00416508        -0.0294037         0.0323558         0.0291555         0.0211902        -0.0242459         0.0054293        -0.0781444       8.89749e-05         0.0286745       -0.00110489        -0.0185778        -0.0136407         0.0120217        -0.0285737        0.00892763         0.0251171        -0.0142532         0.0760272         0.0289077        0.00598329          0.022423         -0.011866         0.0131524         0.0314326        0.00179672         0.0702455       -0.00970044       -0.00798817       -0.00194097         0.0587779        0.00416022       -0.00203128         0.0192401       -0.00748059        -0.0228069        -0.0362729         0.0082151        -0.0447373        -0.0282585       -0.00150057       -0.00678039        0.00569146       0.000554581       -0.00250302       -0.00537684        -0.0494954        -0.0355002         0.0645379        -0.0769705        -0.0327847         0.0231894         0.0138665        -0.0579963        0.00735145       -0.00243081         0.0275607         0.0208363         0.0715343         0.0331651         -0.031682         0.0230647        0.00984045        -0.0089011        0.00801646         -0.021507         0.0213047       -0.00560628        -0.0545122          0.037705        -0.0100509         -0.028325         0.0130293         0.0207821        -0.0344247        -0.0377426       -0.00527926        -0.0522756        -0.0138723       -0.00706164        -0.0305996         0.0354938         0.0252006        -0.0239433         0.0456404        -0.0209296        0.00760356         -0.028818
          0.271224         0.0399062         0.0131224         -0.041516         0.0719212        -0.0282946         0.0268297         0.0122287        -0.0406082        -0.0191087         0.0404542        -0.0390108        -0.0148071       -0.00103578        -0.0420048         0.0151256        -0.0347518       -0.00331071        0.00329168        -0.0168348        -0.0451713        -0.0210768        -0.0488526       -0.00377033        -0.0606693        -0.0113019      -0.000700606         -0.018285        -0.0273186        0.00224548        -0.0518871        -0.0450493         0.0195961         0.0144405         0.0171093       0.000638012        -0.0169741         0.0329839         0.0527757         0.0601996         0.0447625         0.0443746         0.0411263        -0.0148832        -0.0455161         0.0481182          0.041919      -0.000201116        -0.0119417         0.0249834        -0.0291741         0.0832754        -0.0248452        -0.0255435        -0.0163902        0.00199933         0.0116449         0.0441744        -0.0550756        0.00791313        -0.0150981        -0.0303691        -0.0118313         0.0516736        -0.0310129        0.00683358         0.0021691        -0.0448483         0.0440781         0.0151457        0.00127581         0.0142737        -0.0410523        -0.0418731         0.0311176         -0.010347         0.0365751        -0.0187701        0.00118028        -0.0742176        -0.0236302        -0.0316809         0.0617286        -0.0204325         0.0303904         0.0220016         0.0254401         -0.011478       0.000998683        -0.0190355        -0.0165698        0.00105343        -0.0382721        -0.0288491         0.0124997        -0.0111463         -0.052232         0.0237447        0.00290511         0.0237818        -0.0339795        0.00257075         -0.014598       -0.00406211        -0.0227677         0.0111864        -0.0281904        -0.0232509         0.0226589         0.0313659        -0.0429207        -0.0228302       -0.00742145        0.00210754        -0.0389152         0.0152044        -0.0220879         0.0112121        0.00726232        -0.0292904       -0.00170254        -0.0332231        -0.0656198          0.019258         0.0244146        -0.0420571        0.00689773       -0.00680455        -0.0360362        -0.0613097         -0.029226        -0.0017809         0.0487838       -0.00726823        0.00921725        -0.0337473        0.00444004         0.0109971       0.000651012          0.028762        -0.0356765         -0.062146         0.0299422         0.0478004        -0.0210421        -0.0250306      -0.000794094        0.00837957       -0.00102247       -0.00844168         0.0433367         0.0518891         -0.012352        -0.0251427        -0.0391059        -0.0034464         0.0017368        0.00404259        0.00862222         0.0116277       -0.00699122          0.016575         -0.061209          0.054395         -0.041099        -0.0984481        -0.0405934        -0.0520143        -0.0387964         0.0336116         0.0350466          0.018395        0.00622355        -0.0372138         -0.030073        -0.0317504        -0.0577722        -0.0322526         0.0427535        0.00921184         0.0173644         0.0431419        -0.0297933         -0.033622         0.0137369         0.0645014       -0.00610536        0.00923997        -0.0552322        -0.0223285        -0.0112273        -0.0310553         0.0184069         0.0248784        -0.0297378         0.0216706        -0.0343799         -0.020634         -0.012318        -0.0184021        -0.0154704         0.0690998         0.0348459        -0.0160339        0.00389924        -0.0230806         0.0129314        -0.0467243       -0.00763391        -0.0182042       -0.00528568         0.0122697        -0.0172152         -0.011208         0.0599545       -0.00548183         0.0226726         0.0220232        -0.0338683         0.0618922         -0.011272        0.00494762        -0.0242534        -0.0112562        -0.0428717       -0.00965126       -0.00655363        -0.0120858        0.00619139        -0.0103361         0.0201665        -0.0361738       0.000172832       -0.00537948        -0.0492383        -0.0249498         0.0108935         0.0744223        -0.0282395         0.0147482        -0.0262858        -0.0208886        -0.0275943
        0.00680967        -0.0684012        -0.0181663        -0.0278995        -0.0145984        -0.0214424         0.0406568         0.0289063         0.0134096         0.0777301         0.0445086         0.0386141         0.0303769        -0.0270837         0.0204184         0.0608497         0.0127328       0.000188427        -0.0278253        0.00391205        -0.0127543        -0.0262588        -0.0190604         0.0144987        0.00700669        0.00364526       -0.00908218         0.0487532        -0.0182121         0.0571484        -0.0154553         0.0236383         0.0135943        -0.0473007         0.0295293         -0.019768         0.0341653       -0.00640003          0.060804        -0.0137809         0.0705912        0.00210211        -0.0109685        -0.0201734         0.0762815         -0.051598        0.00596618         0.0341441       -0.00538429        -0.0114058         0.0724482         0.0201596        -0.0565908         0.0333613        -0.0534266        0.00917251         0.0264044         0.0200756        -0.0091105         0.0199976        -0.0365399        -0.0387733         0.0244753         -0.029856         0.0370106         0.0363447        -0.0362693         0.0474013         0.0153664        0.00235561        -0.0373135        -0.0285463         0.0472504         0.0711789        0.00392558         0.0408118       -0.00947591        0.00700949         0.0193572        -0.0129639       -0.00476074        -0.0359072         0.0137261       -0.00148564         0.0237135       -0.00455765         0.0140346         0.0167233        -0.0350703        -0.0104958        -0.0506898         -0.010815         0.0116138         -0.038658         0.0102776        -0.0239575        -0.0304096       -0.00104032        -0.0191055       0.000651835         0.0205076        -0.0686495       -0.00660525         0.0369036         0.0249663       0.000106166         0.0346395         -0.013534        -0.0226097       -0.00261691       0.000878494        -0.0119973         -0.016106        -0.0088922         0.0331201         0.0144863         0.0183344        0.00151787         0.0119554        -0.0415909         0.0124173        -0.0242188        -0.0337323        0.00574985         0.0203502         0.0241857       -0.00271605         0.0665719        -0.0153434        -0.0121719         0.0103652       -0.00976855         0.0562022      -0.000786013       -0.00290176        -0.0126459        -0.0417238         0.0371223         -0.034492        0.00652849        0.00104692        -0.0273701       0.000921302        -0.0198464        -0.0458366         0.0732737        0.00854212        0.00917601        -0.0133722        -0.0185623        -0.0404206        -0.0351079          0.018761        -0.0331634         0.0174667          0.022172      -0.000870233         0.0365488        -0.0302685       0.000300713        -0.0146472        -0.0629728        -0.0340225         0.0215445         0.0177464       -0.00673066        0.00368034         0.0291175        0.00341916         0.0466986         0.0494886        -0.0284116       -0.00247846        -0.0091641        -0.0227011         0.0278111         0.0114543         0.0640903          0.074889         0.0474555          0.037478         0.0197575       -0.00178081         0.0338028        -0.0139107         0.0212237        -0.0162085       -0.00837414       -0.00183924         0.0320823        -0.0410175        -0.0491511         0.0786071        -0.0199902         -0.031118        -0.0205659         0.0166567        0.00876729          0.019402        -0.0219931         0.0261111         0.0343419         0.0348039        -0.0513371        0.00815037       -0.00843775        -0.0296013         0.0051519         0.0327298          0.012555        -0.0357739        -0.0180994        -0.0340799        -0.0324151        0.00833225         0.0101491         0.0239129          0.053698         0.0191862        -0.0398308         -0.027584         -0.022508         0.0112941         0.0100045         0.0579548         0.0106782         0.0184656         0.0166109         0.0182673         -0.017829        -0.0132461        -0.0350221        -0.0422641         0.0340457        -0.0155898        -0.0208978        -0.0041134        -0.0072333          0.011507         0.0360369       0.000632879         0.0107194          0.018498
         -0.051796        -0.0147035         0.0162721        -0.0389781         -0.019094        -0.0173843         0.0408965        -0.0130037         0.0169678        -0.0282856         0.0392399       -0.00539644        -0.0725297         0.0860838        0.00325729        -0.0270928        -0.0268243         0.0335437        -0.0539061          0.037788         0.0082636        -0.0221041         0.0142407        -0.0597116        -0.0360259        0.00710295         0.0107069        -0.0160897         0.0509963       -0.00590094         0.0233793        -0.0243377        -0.0485993         0.0540048       0.000236269        -0.0318148        -0.0184743        -0.0414237        -0.0168844         -0.023882         0.0272389        -0.0632716         0.0156845         0.0450973       -0.00921197         -0.015241         0.0333422         0.0472008       -0.00555205       -0.00585911        -0.0102769         0.0189041       -0.00733536        -0.0153888        0.00309998         0.0374939         0.0241249         0.0171588          0.028953         -0.035137        -0.0361503       -0.00273279        0.00167326        -0.0326335        -0.0520931       -0.00955345        -0.0122077        -0.0405371       -0.00118202        -0.0769366        -0.0269732        0.00084445         0.0231651         0.0187341        -0.0117905         0.0518921       -0.00353052       -0.00896392      -0.000769605        -0.0324158         0.0317796        -0.0258513        -0.0434263        -0.0193185         0.0105373        -0.0225812       2.94396e-05         0.0576404        0.00630911        -0.0135054        -0.0397642        -0.0130549        0.00126156         0.0426187      -0.000842195        -0.0218506        0.00530803       -0.00715005        -0.0313878         0.0643084       -0.00486864        -0.0240414        -0.0342141        -0.0510266        -0.0163941        -0.0528612         0.0360957          0.039737          0.038285        0.00380577        -0.0108219         0.0260438        -0.0144928         0.0239306          0.025694           0.01634         0.0376158        -0.0665917        -0.0160159        -0.0229396        -0.0143684         0.0376389         0.0116185         0.0290569        -0.0158563        -0.0112721        -0.0338007         0.0266262        -0.0229986       0.000186438         0.0267159        0.00790961        -0.0171019      -0.000549892         0.0250002         -0.039277        -0.0332743        0.00247543       -0.00954695         0.0163202       -0.00712866       -0.00538804         0.0282131         0.0468338         0.0328345        -0.0323025        -0.0213736         0.0164436         -0.045763        -0.0112299        0.00296449         0.0125557        0.00134582         0.0196793        -0.0680074         0.0128688        0.00845764           0.00537         0.0352031       -0.00454921         0.0550163       -0.00236329         0.0542332        -0.0195165       -0.00118602        0.00589571         -0.042289        -0.0058245       -0.00963819         0.0407498        -0.0195304        -0.0187246         0.0303905         0.0208755         0.0137331         0.0614804        -0.0077221          0.076904        -0.0354585        -0.0329829         0.0117678       -0.00848439        0.00964722         0.0157496        -0.0357896        -0.0341599       -0.00516279        -0.0444394        0.00677344         0.0187038        0.00427729        -0.0258397         0.0051404          0.010127        -0.0366043         0.0447379        -0.0187368         0.0223478         0.0186809        0.00064663         0.0545776         0.0234195         0.0213675        -0.0386919        -0.0665953         0.0647426         0.0232345        -0.0311053        -0.0602108         0.0108169        0.00051344        -0.0352195        -0.0118129         0.0339964        -0.0294377        -0.0594274        0.00924637         0.0229696         0.0566477         0.0476422         -0.027303        0.00558549        -0.0454375        -0.0365905         0.0076967        -0.0555228        -0.0517374        -0.0101753         0.0003258       -0.00310026          0.037977       -0.00315876         0.0133898         0.0144964         0.0578285       -0.00306866         0.0106772         0.0128538         0.0233112        -0.0196998          0.013072       -1.0328e-07        -0.0535818
       -0.00830541         -0.010902       -0.00217351        -0.0161278        -0.0114647         0.0303087         -0.023124         0.0175732         0.0509964       -0.00993672       -0.00730678        0.00747584         0.0500276         0.0490433        -0.0360613         0.0298338        -0.0820588        -0.0023959         0.0372277        -0.0159044       -0.00324815        0.00245713        -0.0051964         0.0614399         0.0807513        -0.0015684        -0.0036143          0.012606          0.055214         0.0311863         0.0163234         0.0142397        -0.0348346      -0.000308973        -0.0291919        -0.0444089        0.00760164        -0.0232243        -0.0573398         0.0316096         0.0129496        -0.0287651        -0.0251036        -0.0165797         0.0073156         -0.113705         0.0223245        0.00616045        0.00247935         0.0452547        -0.0118408         0.0127151        -0.0200647         -0.020186        -0.0243713         0.0513409      -0.000520955         0.0459547      -0.000145257        -0.0186543       -0.00766024       -0.00177783        -0.0158816        -0.0196352        -0.0375018         0.0223323        -0.0165578        -0.0515196         0.0508091       -0.00205244        -0.0111262        -0.0025537         0.0224899         -0.001753        -0.0337923         0.0135438        -0.0393178        -0.0117002        -0.0712097        -0.0317263         0.0522084         0.0177008         0.0249316         0.0210872         0.0101616        -0.0755813         0.0111335        -0.0392319         0.0162019        -0.0145206         0.0118003        -0.0194804         0.0238003       -0.00465708         0.0141993        -0.0158034        -0.0113061          0.011206         0.0230618        0.00671282         0.0534436        -0.0336305        -0.0472391         0.0211482        -0.0784618        -0.0240683        -0.0706825        -0.0141251         0.0151011         0.0198516          0.001174       0.000901827        0.00724459        0.00838788        -0.0467944         -0.039388         0.0523535        -0.0514298         0.0221633        -0.0414447        -0.0570144         0.0113529        -0.0133866        -0.0301195        0.00537787         0.0262828         0.0152769        0.00218554        0.00658065        -0.0514446         0.0345447       -0.00495768        -0.0023139         0.0274954        0.00787832         0.0242789         0.0163842         -0.038152         0.0477927         0.0582186         0.0261769         0.0399969        0.00983862        -0.0255098        0.00741459        -0.0505784         0.0137027          0.103138        0.00687433        0.00948545        -0.0204205          0.030707         0.0380872         0.0154462        -0.0527617       -0.00600808        -0.0438094         0.0251636        -0.0404957         0.0546796         0.0239828       0.000520766        -0.0287927       -0.00575179        -0.0460129        -0.0246409        -0.0123204        -0.0125275        0.00791863        -0.0414038        -0.0420058        -0.0162893         0.0312525        -0.0129844       -0.00683575        -0.0375013         0.0179661         0.0171928        0.00972886        -0.0707478        -0.0587733         -0.043686         0.0182658         0.0283868       -0.00911629         0.0471315         -0.025366        -0.0072742        -0.0447752        0.00301709         0.0305041       -0.00751339       -0.00410356      -0.000808828         0.0233491       -0.00228616         0.0225801        0.00171744         0.0750588        0.00606833         -0.063963         0.0428361       -0.00342105          0.007858        -0.0218472        -0.0167202         0.0222468         -0.051082        0.00600562         0.0131019        0.00339914        -0.0209551       -0.00461068         0.0247872        0.00697561         0.0544154        -0.0491721        0.00844177         0.0744518         0.0359384        0.00880994         -0.024373        -0.0485926        -0.0208483       -0.00260064         0.0150862         0.0832678        -0.0368729        0.00304947         0.0187379        -0.0310275        -0.0223411         0.0240552         0.0694232        -0.0255339       -0.00338943         -0.040225         0.0420621        -0.0229836        -0.0037305         0.0311811        0.00722239       0.000124959
        -0.0530199       -0.00371088         0.0347889         0.0419988        -0.0104127       -0.00434511        -0.0209925         0.0280268         0.0278664        0.00514102        -0.0127946        -0.0245341         0.0746851         0.0618242        -0.0469403         0.0367346        -0.0248917         -0.047526         0.0576338        -0.0219616          0.035233         0.0334385         0.0326497         0.0141938       -0.00716934        -0.0168922         0.0613825        0.00889901         0.0336524         -0.060087         0.0502944        -0.0124739         0.0357721        -0.0124083        -0.0142894        0.00531472         0.0330809         0.0382174         0.0322329         0.0145096         0.0196311         0.0452098         0.0448059         0.0740238         0.0297661         0.0178602       -0.00353033         0.0196133        -0.0271635        -0.0649622       -0.00233585          0.041767        -0.0493185         0.0129853        -0.0504601         0.0165216       -0.00719758       -0.00815591       -0.00104483         0.0130468       -0.00880289        -0.0157416          0.019521        -0.0276728        -0.0165826        0.00478425        -0.0098086        0.00170448         0.0162627         0.0263135        -0.0238049         0.0932259         0.0298592          0.023839         0.0111024        -0.0281722         0.0376114         0.0392273        -0.0578776        0.00144277        -0.0183746         0.0362161         0.0200717        -0.0664272         0.0747362         0.0377015        -0.0239185         0.0190008         0.0578201       -0.00144575         0.0208725         0.0181541        -0.0108723         0.0314675         0.0033427         0.0225769        0.00795933         -0.018618          0.013607         0.0547942        -0.0323336        -0.0625773        0.00481574         0.0325398        0.00311454          0.054554        -0.0386603         0.0593296        0.00156542         0.0115544        0.00288589         0.0247831        -0.0455136        -0.0168654       -0.00766171          0.023003       0.000269024         0.0155855       -0.00750607         0.0404557         0.0137416         0.0105563        -0.0116877          0.089237        0.00703059         0.0659422         0.0112213        0.00387208        0.00636767        -0.0179455         0.0127719         0.0338906         0.0986478         0.0258042         0.0164545          0.036237         0.0285961         0.0715912        -0.0238406         0.0416076         -0.015548       0.000138448          0.031478         0.0234706         0.0716578        -0.0233941         0.0506845         0.0612411        0.00552041         0.0143677         0.0187062         0.0257251        -0.0380708        -0.0309184       -0.00977598         0.0558459         0.0325971         0.0250567         0.0531213         0.0525043        0.00122837        -0.0170208          0.022418        0.00886496        -0.0518435           0.01098        0.00977321        0.00768853        -0.0029335       -0.00988084         -0.011582        -0.0149605         0.0180552         0.0407276         0.0129856        0.00901136          0.032134        0.00519921        -0.0331013         0.0334319       -0.00526225         0.0271186        0.00891341        -0.0362963        -0.0419036         0.0247808         0.0731659         0.0549487       -0.00708002        -0.0180208       -0.00345995         0.0246226        -0.0248929        -0.0192458         0.0185246        -0.0078978         0.0384596         0.0323225        0.00223644        -0.0199024         0.0196873        0.00445119          0.013301       -0.00816828        -0.0137053       -0.00442574         0.0164936         0.0450505        -0.0168595         0.0363826        -0.0144515        0.00914083         0.0465522         0.0132355        -0.0141856         -0.037488          0.079318         0.0442037         0.0223703         0.0185244         0.0244237        -0.0338129        -0.0153872        -0.0720169       -0.00399073           0.01904         0.0264418         0.0101038        0.00456174         0.0329296        -0.0452132         0.0170871          0.021949        0.00141267        -0.0134656         0.0322568        -0.0385631       -0.00797198       -0.00817967         0.0341138        -0.0425224        0.00933987        0.00543359

bias 0:
           1.80502
          -1.67934
          0.910738
         -0.563729
         -0.676879
          -1.07837
         -0.445547
          0.640904
          0.730496

