weight 0:
       -0.00523609          0.100241       -0.00725095         -0.494555         -0.154861         0.0454151         0.0479521         0.0524888         0.0659123          0.147389        -0.0460605         0.0511502          0.067379          0.139454          0.210687          -0.12985        -0.0830607         -0.210272        -0.0993258         0.0875046         0.0204555        -0.0525554         -0.354039         0.0242551           0.40286         -0.398015         -0.314868         -0.233354        -0.0332008         -0.438767           0.14541         0.0230966         -0.246696         -0.121019         -0.390139         0.0449017         -0.177654         0.0553335        -0.0667356          0.064148        -0.0977071         -0.193612          0.120974         -0.253626          0.315689         -0.113819         -0.237399         -0.167771         0.0283341        -0.0417793         -0.456313         -0.139107        -0.0535858         -0.232586          0.096447          0.128605         -0.032313          0.103074         -0.268999         -0.034987          0.208632          0.104799        -0.0919565        -0.0527965          -0.19831         0.0143916         0.0560114        -0.0509151         -0.174561        -0.0697963         -0.182735        0.00988969         -0.275065          0.153315        -0.0153964
         0.0309688          -1.27707         -0.254684         -0.247877         -0.210588        -0.0587329          -0.26031         -0.680699         -0.205727          -0.34985         -0.212974         -0.655331         -0.512633         -0.532613          -0.27477         -0.398129         -0.378778         -0.370823         -0.293641         -0.396892         -0.392355         -0.292138         0.0226107         -0.415513         -0.448899          0.248905          -1.22087         -0.162927           0.44188       -0.00357152          0.718213          0.451093           0.25616          0.255655          0.157646          0.246377       -0.00731005          0.318041          0.162601          0.183367         0.0584037           0.14917           0.46171          0.148559       -0.00352936          0.113266          0.137006          0.118154         0.0353916          0.132361           1.09485         -0.434653         -0.538415         -0.410288         -0.207575         0.0793454         -0.225993         -0.394169         -0.430434         -0.236269         -0.243941         -0.449563         -0.462857        0.00348034         -0.443843         0.0123253         -0.184816         -0.237402         -0.491484         -0.224267         -0.166414         -0.430986         -0.354908         -0.324232          -0.30494
           0.49184          0.680799         -0.046315         0.0653301         0.0598949        -0.0096962        -0.0556875          0.154566          0.184217        -0.0455528          0.184121        -0.0430757          0.101606          0.255458         0.0976524         0.0520982         0.0208875       -0.00490022          0.227979         -0.165585         -0.155664         -0.423746         0.0813853        -0.0463435         0.0731094         0.0872885          0.410752          0.364902          0.546192          0.835051          0.715125          0.676069          0.513155          0.723912          0.761395          0.581692          0.804694          0.501752          0.665515          0.464389          0.604313          0.564121          0.581903          0.613884          0.682401          0.761185          0.663146          0.412747          0.494943          0.691873         -0.157584          0.277727         -0.123918         0.0559596         -0.147099         -0.106538         -0.227264          0.168515         -0.015214          0.192599          0.128665         -0.042935          0.197788         -0.213193         -0.135218        -0.0283913         0.0183623        -0.0588759          0.113635          0.117885        0.00309496          -0.20964         0.0638396          0.040367         -0.174887
        -0.0561122          -1.23775         -0.331637         -0.161675         -0.146055        -0.0268207         -0.269017         -0.198373         -0.332805         -0.393536         -0.271942        -0.0598978         -0.111435         -0.747369        -0.0784921         -0.309322        0.00608065         -0.127199         -0.505953         -0.414823         -0.276345          -0.53411          -0.35602         -0.574489         -0.360447          0.193798          -1.03674          0.557457         0.0194816        0.00028208           0.74947        0.00729709         -0.089098         -0.126382          0.189313        -0.0372668        -0.0116117          0.170888          0.146313        -0.0939263           0.19335          0.129027          0.272384         0.0870031          0.128968         0.0281353          0.101981          0.196425          0.122832        -0.0837279           1.40923         -0.411502         -0.265796         -0.490111        -0.0409931       -0.00177024         -0.684883         -0.203919       -0.00768087          -0.52777         -0.221654         -0.232472         -0.289145         -0.118546         -0.288566         -0.188128         -0.319197          -0.21437         -0.295077         -0.405252         -0.478308         -0.253509         -0.205911         -0.128933         -0.426078
        -0.0110848          -1.29015         -0.538523        -0.0494909         -0.326032        -0.0088604         -0.394009         -0.434326         -0.349163         -0.288344         -0.210878          -0.59855         -0.431399         0.0468473         -0.256815         -0.267342         -0.204192         -0.504684         -0.290589         -0.385022         -0.203206         -0.215749         -0.511505          -0.44309         -0.313629          0.104625           -1.0894         -0.309156          0.133045         0.0816898          0.884642         -0.377059         -0.211668         0.0189388         -0.221007          0.189831          -0.18886        -0.0286339        -0.0683291         0.0374496          0.119894         -0.149035         0.0784015           0.24899         -0.102795         -0.156006         -0.143637         -0.209213          -0.65864        -0.0257758           1.29301       -0.00212047         -0.410349         -0.154573         -0.356382          0.378485         -0.383136         -0.128169         -0.482291         -0.557157         -0.341094           0.12936        -0.0649501         -0.246063         -0.151801        -0.0744935         -0.397894          -0.32319         -0.185781         -0.327865         -0.392185          -0.50748        -0.0834128         -0.424753         -0.160848
          0.244111           1.24793          0.352762          0.594345          0.228478          0.126439         -0.151013          0.203064        0.00974927         0.0176733          0.256862          0.447363          0.380327         0.0854248          0.176192          0.353825         0.0372962           0.14453          0.422902          0.347943          0.287949          0.135473          0.361134          0.210981          0.405814          0.492737            1.5257           0.57055          0.409183          0.725738          0.321056          0.699192          0.693879          0.620389          0.689281          0.675372          0.972154          0.137205          0.723533          0.639397          0.519194          0.566674          0.743756          0.720768          0.741559          0.614384          0.187227           0.31602          0.387393          0.715793         -0.727823          0.391746          0.307981          0.367309          0.186494          0.194631          0.281591         0.0614291         0.0787432          0.345688          0.108321          0.419478          0.114333          0.305651          0.220971           0.49435          0.282576          0.367283          0.161649        -0.0211056          0.146878          0.385239          0.273599          0.322417          0.563206
          0.269348            1.2642         0.0493556          0.154165          0.340982        -0.0705956          0.405592          0.330053          0.462833          0.580155          0.327253          0.146193          0.163159           0.22643          0.334339          0.177298          0.473615          0.396566          0.175799           0.26995          0.120853          0.370708          0.377543          0.266134          0.237184          0.597732           1.49709          0.675527          0.678474           0.48134          0.485862          0.596399          0.435365          0.660725          0.682411          0.713336           0.65577          0.534028          0.567492          0.613273          0.726065          0.602546           0.62371          0.960814          0.811838          0.738977          0.619979          0.671308          0.676562           0.32903         -0.918489         0.0516482         -0.145809          0.243209          0.321415          0.393925        -0.0340197          0.393569           0.29705          0.404406           0.39236          0.262948          0.341774          0.525458          0.553033          0.397798          0.461561       -0.00698238          0.242091          0.331637          0.368219          0.406018          0.513149           0.20563          0.393888

bias 0:
      -0.000102031
        -0.0421458
        0.00136821
        -0.0446398
        -0.0403027
          0.104332
         0.0916957

