weight 0:
         -0.253475          0.206492          0.340159           0.28106          0.170711          0.648032          0.594336          0.153604          0.383522          0.381616          0.441709          0.531562          0.418826          0.386502          0.417188          0.411188          0.762848          0.467158          0.216962          0.213309        0.00751743          0.449112          0.230811          0.313383          0.533153         -0.369681          0.011069         -0.375829         -0.160329          0.240984         -0.133518          0.149442        -0.0275553          0.316245         -0.181719       -0.00128275          -0.11164        -0.0910018         0.0110782         -0.342317         0.0829112          -0.15967         0.0486103         -0.290368         -0.238964         -0.194791          0.125322         -0.159187          0.011004         -0.208503          0.707706          0.708401          0.183348          0.547489          0.370184         0.0245182          0.447411          0.269502          0.206905         0.0702079          0.502433          0.287067          0.370374          0.370538          0.114703          0.212823          0.307631          0.153262          0.041999          0.140315          0.149283          0.272727          0.394273          0.329699          0.203106
           1.03684        -0.0379288          -0.33229         -0.404499         -0.112601          0.576984         -0.534903         -0.423938         -0.269968         -0.442508         -0.493275         -0.425849         -0.466109          -0.44554         -0.289992         -0.525693         -0.463508         -0.097377         -0.151656         -0.722442         -0.703547         -0.341959         -0.282079         -0.355361         -0.455594           1.34872           0.28568          0.239887          0.196114        -0.0300718          0.463366         0.0878782          0.503594          0.273648         0.0580764          0.427388          0.205944          0.391687           0.26204          0.197406         0.0742514          0.249572          0.175992         0.0357826          0.293665         0.0846528          0.218466          0.327085          0.191759           0.15935          0.710025         -0.811863          -0.19814         -0.206843         -0.179165         -0.390316         -0.487679         -0.310165         -0.102366          -0.37571         -0.359434         -0.226745       0.000739343         -0.321195         -0.460064         -0.128276         -0.376735         -0.207065         0.0245945         -0.447313         -0.262052         -0.387481          -0.20144         -0.149724           -0.2785
          0.831415         -0.473918          -0.44192         -0.229875         -0.366426          0.919512         -0.286122         -0.480078        -0.0576884        -0.0480137         -0.255209         -0.395584          -0.29624        -0.0570945         -0.204176         -0.556389         -0.476501         -0.471838        -0.0262117         -0.487099         -0.505225          -0.29531         -0.313086           -0.5694         -0.250619           1.28785          0.194442          0.171058          0.313551           0.16366           0.33094          0.172688          0.281673          0.169756          0.340907          0.496797        -0.0154939           0.40747          -0.15707          0.082978          0.566681          0.433705          0.305622          0.483233          0.258475         -0.148387          0.290491          0.497692          0.134767          0.258103          0.817307         -0.548931         -0.310934         -0.327804         -0.499418         -0.281872          -0.33888         -0.386437         -0.421642         -0.481278          -0.16867         -0.126769         -0.433401         -0.380083         -0.143697         -0.342339         -0.279403         -0.560887         -0.422903         -0.356204        -0.0818589        -0.0144565         -0.350666         -0.349339           -0.4665
          0.141782          0.285755        -0.0485553        -0.0930986         -0.184317        -0.0392697        -0.0486723         0.0814979         0.0786516         -0.130525         -0.173317         0.0228653         0.0412872         -0.193005         0.0329551          0.237899         -0.217285          -0.43138          0.113315          0.169436          0.101501         0.0557215        -0.0426206           0.27111         0.0804245            0.1371        -0.0743005        -0.0701536        -0.0202303           0.25655         -0.169157        -0.0519188        0.00859687        -0.0874075        -0.0951378        -0.0961333         -0.238392         -0.141801         -0.114221         -0.156958        -0.0596958        -0.0636518         -0.227456        -0.0286255        -0.0277996          0.141003        -0.0216863         -0.285973        -0.0312994          0.123393           -0.3183         0.0833679         -0.312106          0.201224         0.0429442           0.26074        -0.0841625         0.0811587          0.014666         0.0749364         0.0608989         -0.120666         0.0591163          0.347634         0.0741153         0.0386443         -0.123012          0.161148        -0.0929587          0.105007         -0.147389       -0.00722005        -0.0895168         -0.108273          -0.27755
          0.761982          0.176056          0.479652          0.145666          0.624565          0.524838          0.569822          0.607285          0.398064          0.514032          0.346437          0.470822          0.161137           0.30618          0.159726          0.354733          0.441423          0.238624         0.0423306          0.430204          0.465836          0.556533          0.186326          0.337646          0.588727           1.12777         0.0684107          0.523428           0.12589          0.517867          0.409612          0.477227          0.268334          0.396807          0.481784          0.541273          0.512361          0.277475          0.271875          0.237647          0.493091          0.234301          0.303028          0.272246          0.440121         -0.064855          0.295579         0.0781464          0.197871           0.18159          0.687207         -0.531017         -0.454643         -0.119614         -0.480383         -0.133545        -0.0448916        0.00011129        -0.0830784         -0.171809         -0.366093          -0.29307         -0.365885         -0.548115         -0.141784         -0.280513         -0.350784         -0.269263         -0.205639         -0.681293         -0.373638        -0.0786287         -0.342785         -0.149746         -0.333333
         -0.322765         -0.252084         -0.355492         -0.423881         -0.127588         -0.370221         -0.162915         -0.362331         -0.134302         -0.247683           -0.4359          -0.13668         -0.216195         -0.130772         -0.182441        -0.0421368          -0.71546         -0.124275         -0.400152         -0.367922         -0.481118         -0.281947         -0.328183          -0.32567         -0.296298        -0.0446626          -0.45755         -0.371607         -0.211469         -0.293262         -0.681624         -0.444848        -0.0741385          -0.45777         -0.462757         -0.222944         -0.789845         -0.313434         -0.288747         -0.332767         -0.309263         -0.215181         -0.482804         -0.309963         -0.278058         -0.173683         -0.726151        -0.0153428         -0.428537         -0.372059          -0.42998          0.480053         0.0212219          0.563459           0.45998          0.363529           0.25227          0.277557          0.412791          0.485027          0.664699          0.248474          0.416673          0.636587          0.228205          0.437633          0.345383          0.447492           0.34529          0.200845          0.453153          0.528339          0.196266          0.282153          0.456671
         -0.370913         -0.118393        -0.0837204        -0.0720783         0.0225363          0.021937         -0.303075        -0.0506917           0.03183        -0.0680947         -0.228071         0.0793344         0.0875886          0.138656         -0.219921       -0.00472908          0.189801          0.217326        -0.0514355         -0.065437           0.05465        -0.0542287         0.0122487        -0.0429654         -0.103914          0.355786         -0.224101        0.00972106          0.245263         0.0769484         0.0792288          0.278364         -0.349492          0.118148         0.0252989        -0.0254865           0.12614         -0.173449         -0.141594         -0.197697         0.0303595         -0.133489         -0.195429         0.0519565          0.124864         0.0593185         -0.110776          0.141908         -0.201951         0.0368607         -0.414226         -0.197895         -0.693423          -0.46224         0.0174527        -0.0668581         -0.346424         -0.206733         -0.348008         -0.364056         -0.541964         -0.174938         -0.412305         -0.147894         -0.443418         -0.400616         -0.160005         -0.295288         -0.142271         -0.135558         -0.276705          -0.23331         -0.287372         -0.373552         -0.162704

bias 0:
          0.497201
        -0.0674545
        -0.0791395
        0.00542049
         -0.061319
       -0.00393761
      -0.000128677

