weight 0:
         0.0107351         0.0329793        -0.0105595        -0.0187015        -0.0268949         -0.029813         0.0596506         0.0468336        -0.0465898         0.0273714         0.0257613        -0.0075524        -0.0474045       0.000419905         0.0151363         0.0732792        -0.0278047         0.0121884       -0.00120683        -0.0481617        0.00329034        -0.0288103         0.0123372        -0.0628803        -0.0156932        -0.0378108         0.0490682         0.0465115         0.0551914        -0.0201296         0.0255504        -0.0138755       -0.00720007         0.0317161         0.0023866      -0.000766014         0.0831879        0.00418822         0.0292193         0.0211244        -0.0221201       -0.00299279        -0.0132976         -0.027116        -0.0283029         0.0263722        -0.0287015         0.0455326         0.0111901         0.0188517        -0.0392344        -0.0807714        -0.0413269        -0.0163816        -0.0248587         0.0136571        -0.0338925        0.00884917         0.0509438       -0.00613756       -0.00930971        -0.0181979        -0.0196525        -0.0194307         0.0474636        0.00412221        -0.0283498         0.0515427         0.0132541         0.0143889        -0.0407878        -0.0381328        -0.0471186        -0.0104751         0.0409537         0.0708111        -0.0153262         0.0249211         -0.030884        -0.0630044         0.0102494        0.00858749        -0.0185537       -0.00420305         0.0255042         0.0628291        -0.0352447        -0.0370077         0.0312514        0.00161599        -0.0486625         0.0310267        -0.0207336       -0.00102095        -0.0197933         0.0289686        -0.0358932       -0.00892255         0.0678286         0.0287168        -0.0349446          0.024138         0.0328869        -0.0497426        0.00836249        -0.0213475          0.047235         0.0329551         0.0127773         0.0276374        -0.0289121         -0.004608         0.0165662        -0.0394342        -0.0397075         0.0284116         0.0441853         0.0446847        0.00556648        0.00889909        0.00319574         0.0314729         0.0242362         0.0134792        0.00315429         0.0354948        -0.0250027        -0.0108392         0.0146304         0.0135959       0.000769253         0.0301312        0.00374352        -0.0119501         0.0289382       -0.00983736         0.0184275        0.00227887        -0.0546522        -0.0230234        0.00122048        -0.0418135         0.0619484         0.0125791         0.0114881         -0.014989        -0.0340125         0.0213431         0.0479813       -0.00194165        -0.0273526        -0.0415903        -0.0114627         0.0388309        0.00535129        -0.0105517         0.0316184        -0.0377135         0.0245013        -0.0215326          0.010749       0.000255258
          0.036685          0.016266        0.00451567        -0.0600392        -0.0049293       -0.00191126        -0.0539749         0.0199074          0.007533        -0.0696704        0.00352796       -0.00677624         0.0360091        -0.0148205          0.042922        -0.0384044        -0.0140285          0.027564        -0.0234539        -0.0160683        -0.0279069        0.00696888         0.0724589        -0.0212962        0.00693799        -0.0444081        -0.0286266         0.0391015        -0.0154182        0.00683073         0.0479514        -0.0299964         -0.058689        -0.0178971        -0.0309603        -0.0210003         0.0146782         0.0255811        -0.0191296        0.00816151        -0.0298874       -0.00070791         0.0527412         0.0133673      -0.000746112         0.0271675        -0.0268963         0.0360723        0.00460206        -0.0593731        0.00670798        -0.0044643        0.00978822         0.0237391         0.0411456         0.0264537          0.029956         0.0734295         0.0109839          0.012952         -0.073823        -0.0171158         0.0185051        -0.0113456         -0.013961        0.00271132         0.0421059          0.032874         0.0156403        -0.0185053         0.0399478        0.00381132         0.0409285         0.0136927       -0.00306748        -0.0284556       0.000902525        -0.0395345       -0.00481998        -0.0433988         0.0098086         0.0640653        -0.0798707         0.0780786         0.0676459         0.0464491           0.06278         0.0946896         0.0446779         0.0823174         0.0639759         0.0649064         0.0772935         0.0844582         0.0865398         0.0978127         0.0455718         0.0653953         0.0862872          0.063261         0.0648227          0.107531         0.0145396       -0.00403686        -0.0239846         0.0373184         0.0481541          0.125024         0.0375593         0.0923348         0.0665282       -0.00686282        -0.0416057        0.00764477        -0.0287285         0.0162356          0.158252         0.0960606          0.136518          0.115291        0.00972519         -0.006933         0.0239582        -0.0503009        -0.0439776          0.202059          0.118913          0.103564         0.0730691        -0.0151527       -0.00231233         0.0482324        0.00588477        0.00105028          0.135876         0.0718968           0.11084         0.0595408        -0.0099841        -0.0609502         0.0422847       -0.00408774          0.020749         0.0744868         0.0280124          0.071376          0.124806         0.0366444        -0.0318752         0.0365367        -0.0059027        -0.0123036        0.00466609         0.0163699         0.0128401         0.0557322       -0.00393367         0.0125038         0.0365419          -0.01182        0.00500065        -0.0366216
         0.0347139         0.0149006       -0.00572411          0.020743         0.0220234         0.0192555        -0.0326445       -0.00958433         0.0455554        -0.0538427        0.00448106        -0.0055347         0.0323273       -0.00821845        0.00430269       -0.00823424         0.0251887       -0.00419426        -0.0010831         0.0166766         0.0406992        0.00459181         0.0164207        -0.0489439        -0.0416411          0.029026        -0.0575489        -0.0331459        -0.0241852        0.00735111         0.0109753         0.0204873         0.0431667         0.0179079        -0.0226703         0.0679111         0.0161444       -0.00297476        -0.0317431        -0.0181534         0.0151954         0.0083605        -0.0582276         0.0462709        -0.0299755        -0.0399854       -0.00380908         -0.016284        -0.0314955         0.0112671         -0.026918        -0.0323297         0.0699724         0.0181879        -0.0245365        -0.0273143        -0.0509046       -0.00591241         0.0245818        -0.0243617       0.000906071        -0.0337671         0.0120389         0.0458391         0.0417528       -0.00838731         0.0221192        -0.0128931        -0.0118083         0.0138476         0.0576497        0.00879432         0.0488293       -0.00485128         0.0342683           0.01209        0.00365449        -0.0125822        -0.0123242        -0.0468427         0.0325238        0.00282418         -0.018654        0.00101605       -0.00592684         0.0683314        -0.0523036         0.0317158         0.0310993         0.0381718        -0.0577608         -0.017038         0.0138798        -0.0509474         0.0462643         0.0345361        0.00199135        -0.0118309        -0.0425689         0.0288158        -0.0119671        -0.0275079          0.057839          0.028832         0.0184478        -0.0232044        -0.0213567         0.0302259        -0.0486618         0.0129321        -0.0238977         0.0114397         0.0668353        -0.0174757        -0.0768979       -0.00862071        -0.0692724         0.0316816         0.0161328       -0.00874404         0.0640988         0.0802506      -0.000127445         0.0286734        -0.0435985        -0.0465313        -0.0174645        -0.0299379         0.0139475         0.0347633         0.0563761         0.0101342        -0.0464147         -0.091813        -0.0564587        -0.0192598        -0.0264562         0.0226887         0.0641759          0.102373         0.0665917        -0.0485332         0.0400444        -0.0590115        0.00751054       -0.00418996        0.00348661      -0.000808697         0.0649316         0.0297536         0.0230879       -0.00161976        -0.0402205         0.0383636        -0.0436867        0.00449634        -0.0591001         0.0334772         0.0316829         0.0073655         0.0118287        -0.0293769
         0.0111186         0.0111715        -0.0810363        -0.0335065        0.00610571        -0.0245286        -0.0253416        -0.0173182         0.0180415         0.0192359        -0.0239205         0.0151439          0.031795        -0.0937465        -0.0219518         0.0135421        0.00766994        -0.0524506        0.00283469        -0.0156296         0.0343527        -0.0413591         0.0241327        -0.0145336        -0.0201706         0.0418687       -0.00189259          0.034584         0.0331131         0.0155415         0.0110409         0.0082989       -0.00592947        -0.0126615         -0.027461        -0.0154518         0.0252291        -0.0439913         0.0102083        -0.0357617        -0.0447021        -0.0707685        -0.0197928        0.00522443         0.0329821        0.00791604         0.0117936       -0.00147977        -0.0384683       -0.00795123        0.00526385         0.0418867        -0.0353186         0.0221908       0.000492483         0.0126721       0.000969237          0.015458       -0.00808115        -0.0139132         0.0187803        -0.0411951        -0.0393372       -0.00087211         0.0166732         0.0443828        -0.0381953         0.0257513         0.0234066        -0.0061471        -0.0206145          0.051304         0.0599788        -0.0132938         0.0173213        -0.0362433        -0.0225787         0.0371075        -0.0130424         0.0085667        -0.0294524        -0.0150742         0.0573022         0.0501773         0.0308458         0.0130422        -0.0264515         0.0269412         0.0151954         0.0255749         0.0522246         0.0421447         0.0194863         0.0378472         0.0283802        0.00492386       -0.00121969        -0.0108713         0.0250905         0.0388096         0.0525406         0.0422134        0.00273101        -0.0288276         0.0124979       0.000909502         0.0326432         0.0619916       -0.00429806         0.0485553         0.0338689        -0.0278817         -0.013769         0.0169389        -0.0375815        -0.0460303         0.0762553       -0.00597992        0.00577628         0.0303895         0.0396536         0.0321502       -0.00708338         0.0254918        -0.0127647         0.0708336         0.0118498         0.0112806         0.0403028        -0.0215838        -0.0117495        -0.0110812          0.022361         0.0259638         0.0191067        -0.0899217        -0.0192191        -0.0373977       -0.00742956         0.0317975       0.000188846       -0.00210447        -0.0118724         0.0785298         0.0301135        -0.0270505         -0.013666        -0.0183405         0.0388697        -0.0415339        0.00647476         0.0501641         0.0119857         0.0188434        -0.0133822         0.0314887          0.029235        -0.0318574         0.0124637        -0.0343358         0.0114249        -0.0546914
        -0.0137807         0.0511857        0.00766202         -0.026561         -0.059867        -0.0248347       -0.00522627        0.00979642         0.0365009       -0.00465006         0.0211209       -0.00514125       -0.00879086         0.0573022         0.0217794         0.0302311       -0.00688231         0.0011358         0.0217868         0.0360221       0.000402614         0.0300159         0.0545545         0.0057247         0.0382113         0.0277735         0.0140594        -0.0477891        -0.0196002        -0.0131278        0.00930148         0.0182796        -0.0160328         0.0079328       -0.00701479         0.0433713        -0.0296267      -0.000264715        -0.0162505         0.0147148         0.0139476         0.0145025        0.00620746         0.0379617          0.032927         0.0106882         0.0516753        -0.0413994        -0.0195579        -0.0335139       -0.00594739        -0.0504131        -0.0082096           0.02401        -0.0553498       -0.00598023         0.0383639         0.0236554       -0.00722954         -0.017075        -0.0128037        -0.0554479         0.0399813        0.00826949         0.0279742        -0.0610712        -0.0643391       0.000339883         0.0253186          0.062422          0.044829        -0.0236678        0.00429713         0.0675561        -0.0254215          0.022907        -0.0647935        0.00247196       -0.00477975        -0.0445527        -0.0527896         0.0538244        -0.0377854        -0.0289286       -0.00783048         0.0233178        -0.0329333        -0.0651629        -0.0373805        -0.0538082          0.016435       -0.00334862        -0.0610141        -0.0388374         0.0431796          0.015121        -0.0509494       -0.00833258         0.0219196        -0.0477747         -0.050829        -0.0501126        0.00747541        0.00335201        0.00180192         0.0400041        -0.0246745        -0.0412788         -0.029639        -0.0297217        -0.0302871       -0.00912657         0.0666776         0.0559314       -0.00314818        -0.0159315        -0.0193085        -0.0418408        -0.0155455        -0.0623277         0.0314964         0.0472613         0.0965505        0.00907663        -0.0128793       -0.00829042         0.0446663        -0.0312075         0.0062952          0.001766         0.0440449         0.0606772         0.0100636         0.0293355        -0.0209293         0.0149002        -0.0318577       -0.00619599         -0.087295         0.0332985        0.00778307         0.0766559         0.0187029        0.00232518        -0.0404886        0.00644985        -0.0492617        -0.0119237        -0.0293802        -0.0218887         0.0119347         0.0204927        -0.0124971        0.00672649         -0.019708        -0.0155432        -0.0413837       -0.00939328        -0.0178551          0.018991       -0.00140163         0.0221833
        -0.0228515        -0.0130823        -0.0513536       0.000402865        -0.0174869       -0.00973781        -0.0142881         0.0129161        -0.0223491         0.0314135        -0.0763178        0.00180131         0.0444463        -0.0256401         0.0266007        -0.0209089        -0.0467683         0.0501485        0.00631217        -0.0131956         0.0323704         0.0368566        -0.0469516        -0.0617989         0.0149619       -0.00534133         0.0835661        -0.0330512        -0.0296216         0.0647687        0.00320019        -0.0259769        -0.0307068          0.015402        -0.0338373         0.0158991        0.00167944        0.00151967        -0.0241617         0.0321466        -0.0320804        -0.0472586       -0.00156435         -0.042599        -0.0265135        0.00673012        -0.0164744         0.0192125        -0.0255478       -0.00240747        -0.0754574        0.00259433        -0.0454682         -0.030854         0.0513684       -0.00336487         0.0039783           0.04813        0.00294795        0.00859162        0.00396894        0.00592385        -0.0214698         0.0344167       -0.00911058         -0.018105       -0.00431828       -0.00683641         0.0159808        -0.0204652         0.0244605         -0.021056         0.0455079        -0.0137594       -0.00280422        -0.0250517        -0.0523018        -0.0162212        -0.0247679         0.0133591        -0.0542106       0.000922377         0.0739925        -0.0120272        -0.0108646         0.0483775        -0.0281937        -0.0174711         0.0469658        -0.0195017       -0.00863501        -0.0493926         0.0277647          0.036047        -0.0774175        -0.0173026         0.0434803         0.0270689         0.0108314        -0.0146778          0.085517       -0.00526319        0.00151901        0.00513709         0.0413153         0.0296945         0.0298903        0.00702421         0.0283783        0.00358996         0.0406497         0.0460447        -0.0343433         0.0384352         0.0134931         0.0149085           0.03258         0.0280015       -0.00693204         0.0168882        -0.0231415         0.0857333        -0.0270295        -0.0428428       -0.00693938         0.0618576       -0.00337062       -0.00259884        -0.0311227        0.00157595       -0.00503946        -0.0215152        0.00521782         0.0033611        -0.0419546        -0.0109538         0.0248517         0.0369852        -0.0255507        -0.0505858         -0.053972        0.00859176        0.00178062          0.056679         0.0193692        -0.0116897        -0.0260124         0.0533981         0.0338066           0.06737         0.0478531        -0.0198113         0.0251495        -0.0533407        0.00937923        -0.0553861         0.0310501        0.00519909        -0.0359501        -0.0136294       5.71606e-05       -0.00817208
        0.00483522         0.0189496        0.00379326         0.0041687        -0.0416313        -0.0345677        0.00153732         0.0506469         0.0310291         0.0373039         0.0281322       -0.00754831         -0.028412        -0.0387954        -0.0537051        -0.0135558         0.0235051       -0.00823732        -0.0287241         0.0173261        -0.0492412        -0.0460508        -0.0254616         0.0601085        -0.0308236         0.0581155        -0.0532976         0.0351055         0.0154915         0.0211762        -0.0384173       -0.00328392         -0.059947        0.00458122        0.00277442        -0.0206829         0.0312818         -0.019103        -0.0010442         -0.003966        -0.0286236        -0.0264937       3.53869e-05         0.0660789         0.0877756        -0.0212331        -0.0208392         0.0113941        -0.0406905         0.0367354         0.0308672        -0.0121146        -0.0180673        0.00988556        0.00402837          0.029758        -0.0365636        -0.0110423         0.0362255         0.0539388        -0.0232633          0.033975        0.00596402        -0.0261414         0.0523525         0.0124228         0.0040537         0.0160438        -0.0147755        0.00906704         0.0458995         0.0114356       -0.00907845        -0.0264266       -0.00997042         0.0341182        -0.0254154         0.0405428         0.0601891        -0.0496186         0.0589493        -0.0441887        -0.0085272        -0.0348859       -0.00848229        0.00724072        -0.0315319        0.00112244          0.021172        -0.0234489         0.0360104         0.0643065        0.00671238        -0.0172008         0.0314502        -0.0317463         -0.046049         0.0260669        -0.0243815         0.0388054       -0.00456397         0.0217241       -0.00865372        -0.0370213         0.0588454      -0.000241422        -0.0431854        -0.0340082        0.00151122        -0.0196477         0.0470486         0.0137928        0.00688002       -0.00659239        -0.0243026        -0.0419841        -0.0258404         0.0163135        -0.0604854        -0.0332442         0.0317378         0.0285352          0.018073         -0.010104        -0.0173497        -0.0364053        -0.0399366         0.0173746        -0.0157856        -0.0309584         0.0950886         0.0585978        -0.0226803         0.0302283        -0.0575802         0.0331966        0.00245936        -0.0320735         0.0062526          0.048248       6.07699e-05         0.0197078         0.0186625        0.00205242        -0.0372077        -0.0390344         0.0027547         0.0313831        -0.0200978         0.0445905          0.046491       -0.00283823       -0.00764815        -0.0202311         0.0234085          0.040547        -0.0561701         0.0251911        -0.0303152        -0.0185611         0.0939492         0.0355245
         -0.036532        -0.0236851        0.00528984        0.00293142         0.0195631       -0.00621811         0.0510629        -0.0165642       2.67749e-05       -0.00993455         0.0211032         -0.027454         0.0655664           0.04832        0.00397811        -0.0202371       0.000953881         0.0206951        0.00351015         0.0173349        0.00682681        -0.0429888       -0.00773735         0.0445442         0.0337462         0.0412226         0.0172866       -0.00342397         0.0518985         0.0773269       -0.00257755         0.0719667        -0.0213295       -0.00786835        0.00328948        0.00230287        0.00274898         0.0568355         0.0174156         0.0542029        -0.0396915         0.0366415        -0.0158103       -0.00872894        -0.0405723        -0.0236595       -0.00519833        -0.0224098         0.0233916         0.0232479         0.0291554         0.0237632         0.0337234        -0.0280804       -0.00730717         0.0086089        -0.0514764         0.0310384         0.0535634        -0.0277143        -0.0325597         0.0164314        -0.0409921           0.02169        -0.0041572        -0.0121195         0.0541954        -0.0285733         0.0290836       -0.00815922         0.0090917        -0.0473968         0.0130053        0.00190601         0.0186483         0.0075117       -0.00756167          0.006595         0.0119146         0.0160299        -0.0467868         0.0217624        -0.0305844        0.00913545         0.0472498       0.000174187         0.0186029        0.00850592         -0.016873        0.00155122       -0.00861829         0.0403244         0.0223206         0.0724436         0.0203541         0.0775025        0.00616596         0.0153511         0.0493957         0.0116166         0.0435818        -0.0189534         0.0384351        -0.0474552        -0.0171599         0.0549383      -3.14762e-05         0.0437798         0.0167967         0.0215921         0.0633691        -0.0903607         0.0752574         0.0106482        0.00982961         0.0306267         0.0525907         0.0566032          0.014127        -0.0134046         0.0256633         0.0519769        -0.0231199       -0.00700494        -0.0145665        -0.0278564         0.0605082         0.0535123         -0.051584         0.0168141        -0.0594581       0.000690352        -0.0284145        -0.0206157          0.040598        0.00693297         0.0784431         0.0181441        -0.0327438       0.000294793      -0.000873429         0.0505251        0.00926625         0.0112266         0.0376475        -0.0159787         0.0072512         0.0465066        -0.0285783          0.045488        -0.0450588         0.0131823       -0.00836678       -0.00219722        -0.0425066       0.000523841         0.0448403         0.0429594        -0.0324985        -0.0127755         -0.058476       -0.00872043
        -0.0085226        -0.0010562        -0.0315315        -0.0184243         0.0172911        -0.0302895         0.0129691        -0.0205239         0.0156712        0.00250208         0.0185344        -0.0109435        0.00420267         -0.030291         0.0330583        -0.0189779        -0.0555535         0.0467712        -0.0141672        -0.0082536        -0.0182442        -0.0424751        -0.0113209         0.0323698         0.0140119        -0.0244203        -0.0148191         0.0415042       -0.00138746        -0.0254893        -0.0269238       -0.00892872        -0.0333578         -0.023376         0.0387947         0.0084934       -0.00248936       -0.00955324        -0.0663515        -0.0352037         0.0255438         0.0010998         0.0643793        -0.0238679        -0.0163097       0.000330338          0.034822        0.00566459        -0.0711645         -0.019316         0.0771735         -0.016755         0.0255766        0.00800747         -0.013624         0.0382766         0.0155469        -0.0391272        0.00048551        -0.0435898        -0.0104607        -0.0285937         0.0303904        -0.0289678        0.00967214         0.0312357        -0.0274605        -0.0141674      -0.000897265         0.0338562        0.00829752         0.0536332        -0.0205089      -0.000694173        -0.0625067        -0.0031421        -0.0508556        0.00120168         0.0126998        -0.0107357       -0.00878316         0.0279871         0.0603527       -0.00315694        -0.0247255         0.0144779         0.0313391       -0.00998089        -0.0221554         0.0113531         0.0602134      -0.000931974        -0.0167157        -0.0676087        -0.0509607         0.0152533         0.0468708        -0.0180558        -0.0276605        0.00427068          0.016358        -0.0431019        -0.0163868        -0.0377505         0.0172215        -0.0171178         0.0426663        -0.0201545        -0.0306356        0.00258306        -0.0407997       0.000982637         0.0188322         0.0652006         0.0557097         0.0790496        -0.0483923         0.0145093        0.00654925        -0.0244162        -0.0741351        -0.0609892         0.0543696         0.0875164         0.0535618         0.0410206           0.04781        -0.0415651       -0.00640656        -0.0656244        -0.0586862        -0.0176479          0.118134         0.0599983       -0.00239385       -0.00159236       -0.00872564        -0.0193054          -0.10955         -0.104051          0.073715         0.0399746         0.0607254         0.0910956         0.0399696         0.0174813        -0.0975435        -0.0403981        -0.0585089         0.0230032       -0.00477492         0.0996778        -0.0331195        0.00166732        -0.0326218        -0.0693131        -0.0186017        -0.0223651         0.0472805        0.00430631        0.00683384         0.0280681
        -0.0170107         0.0065297        0.00915003        -0.0169917         0.0563838       -0.00212175        -0.0130872        -0.0521222        -0.0277826         0.0246283        -0.0631858         0.0508599        -0.0129173        -0.0789519        -0.0664693          0.040175        0.00634534        -0.0114308        -0.0253884         0.0201666        -0.0213309        -0.0160566         0.0609836        0.00678498       0.000398949        0.00648826         0.0376364         0.0388606        -0.0577347         0.0264258         0.0327442        -0.0366594         0.0279457         0.0208544         0.0177923       -0.00810849        0.00290981         -0.055623        -0.0654302        -0.0166101        -0.0095565        0.00483128         0.0106437         0.0849287        -0.0173003       -0.00273734       -0.00948151        -0.0953298        0.00921784         0.0485365        0.00336025        -0.0510405        -0.0244059       -0.00994885       -0.00224682        -0.0368854        0.00542619         0.0191708        -0.0127255        -0.0275011        -0.0277249         0.0283869        0.00919798         0.0188083       -0.00904228        0.00312211        -0.0444241         0.0171044        -0.0252757        0.00376288        0.00824619        -0.0150428       -0.00130152        -0.0374977        -0.0440562         0.0522339        0.00849471        -0.0384977        0.00331765        -0.0151178         0.0259168         0.0389458        0.00689652         -0.046573        -0.0778427        -0.0398018        -0.0398546       -0.00806425        -0.0039969         0.0123794        -0.0265684        -0.0212595        -0.0276952        -0.0909158       -0.00770904        0.00128969        -0.0323594         0.0295497       -0.00628642       -0.00837714         0.0468848         0.0123492         0.0198066        -0.0418708        -0.0154764       -0.00846385        -0.0161746        -0.0332355        -0.0314595        -0.0593087      -0.000244168         0.0057203        -0.0168311        0.00637301         0.0273013        -0.0414189        -0.0613614         0.0154994         0.0430495        -0.0412415        -0.0494463       -0.00591835         0.0875772         0.0373324         0.0466728        -0.0310955        -0.0092558         0.0172189        -0.0826754        -0.0282048          0.109393          0.105441          0.107833         0.0444746        -0.0249072         -0.052515          0.015167        -0.0273505        -0.0206675         0.0273388         0.0870791         0.0427685        -0.0256708        -0.0528283        -0.0803695        -0.0499256        -0.0671958        0.00373034         0.0169384         0.0657811         0.0358168         0.0332766         0.0153434         0.0384439         0.0690784        -0.0396001        -0.0433264        -0.0450347        -0.0270967         0.0269395       0.000340762        -0.0527164

bias 0:
          -2.82182
          0.374812
          -0.70215
          0.429164
         0.0342033
          0.165027
          0.488271
        -0.0551354
          -1.36892
           1.92515

