weight 0:
        -0.0301634        -0.0155011         0.0433881       -0.00680582        0.00600991         0.0284179        -0.0156569       -0.00934001        0.00290308        -0.0277526      -0.000825813         0.0584704       -0.00102989         0.0241275        0.00845514        -0.0366214        -0.0405245         0.0289006        -0.0203042         0.0405498         0.0300323        -0.0248029        -0.0536832        -0.0124146        0.00746494         0.0329583        0.00503077         0.0502768        -0.0322579        -0.0262321        0.00547903         0.0711178         0.0557642         0.0619046         0.0075784        -0.0614925         0.0165822        -0.0115783         0.0041448        -0.0197322         0.0740282          0.099126         0.0540809         0.0451897         0.0113905        -0.0128782        -0.0117927         -0.062826        -0.0058824          0.115247         0.0901242         0.0676226         0.0139177        -0.0134873         0.0307993        -0.0174683        -0.0552833        -0.0316193         0.0469572          0.156077         0.0298638       -0.00020085        -0.0133727         0.0275027         0.0247584       -0.00353809         0.0290119         0.0764072          0.120655         0.0513843        0.00266331         -0.026077        -0.0409445        -0.0229975        -0.0138331      -0.000150981        -0.0175141       -0.00970872         0.0503132        -0.0367572       -0.00579455        -0.0379458        -0.0367274         0.0132013         0.0173865         -0.024396        -0.0163915         0.0189404         0.0271007          0.019612        -0.0130198        -0.0343439        0.00530659        -0.0150622        -0.0113749        0.00881102        -0.0174153        0.00751439        -0.0402251          0.053182        -0.0488548        -0.0138899        0.00583925          0.028706        -0.0116446        -0.0314547         0.0351739       -0.00995517        -0.0601365         0.0628867        -0.0164084         0.0128842       -0.00382523         0.0350913        -0.0129205        0.00536079        -0.0249689         0.0139498        -0.0182572        -0.0242717         0.0211411        -0.0184002       -0.00926111        0.00782181      -3.56297e-05         0.0101148        -0.0087792        0.00973333        -0.0495584         0.0232679        -0.0702756         0.0227417         0.0309999        -0.0343277         0.0210056        0.00106918        -0.0129111        -0.0328309         0.0485936         -0.017896        0.00481827        -0.0554288        -0.0136914        -0.0306481        -0.0423144        0.00246976         0.0480422        -0.0226208        -0.0300947        -0.0430856         0.0392111         0.0401844       -0.00798022         0.0191318       -0.00584788        -0.0128027        -0.0322967         0.0127581        -0.0292521        -0.0411502          0.041874         0.0296199
        -0.0145878        -0.0436836       -0.00493817         0.0495707        -0.0307357        -0.0445426       -0.00543613         0.0141424        -0.0105396         0.0308081          0.021687        0.00087371         0.0252817       0.000865235       3.57982e-05         0.0555592        -0.0078321      -0.000874337         0.0703408        -0.0183124        -0.0076226         0.0671634        -0.0192198        0.00926809         -0.011521         0.0161033         0.0256979        -0.0343771        -0.0184894       -0.00621813       0.000855724         0.0214003        0.00512815        -0.0228584        -0.0176085         0.0536657         0.0223055         0.0292479       -0.00178412       -0.00409039         0.0396794         0.0208732         0.0360876        -0.0132681        -0.0137208        -0.0169817         0.0115523          0.036498         0.0162183        -0.0222926         0.0336808         0.0152577        0.00631652        -0.0109613        0.00503268        0.00914671         0.0220382           0.01038        0.00134706        -0.0379078        -0.0439769        -0.0585834        -0.0345358       -0.00348743       0.000896177         0.0116811         0.0172957        -0.0116908          0.016761        0.00105963        0.00327802       -0.00975454        -0.0599237        -0.0427518         0.0244413        -0.0241895         0.0234936         0.0231038           0.02874        0.00321004        -0.0241672        -0.0160776        -0.0674537        -0.0149636        0.00265074         0.0214814        -0.0178857         0.0221883          0.028969       -0.00629193         0.0126888        -0.0150079         0.0494145         0.0227249        0.00977361         0.0163346         0.0306797        -0.0113885       -0.00618041         0.0282413        0.00113315         0.0170876        -0.0320587        -0.0219392       -0.00617376         0.0145353        0.00374933          -0.03096        -0.0181082        0.00624976        -0.0123179        -0.0139269           0.04718        -0.0618051       -0.00856339        -0.0542917         0.0284885        0.00979772        0.00875518       8.55769e-05         0.0566964        0.00672338        0.00534214         0.0451735         -0.011721        -0.0504109       -0.00696678        -0.0393917        -0.0441629        -0.0190528       -0.00154862        0.00800705        -0.0311989         0.0391618       -0.00987735        -0.0351651        -0.0619485        -0.0105641        0.00403204          0.040697        -0.0250486        -0.0690934        -0.0697757        -0.0328583        -0.0103668        -0.0434513       -0.00915931          0.056912        -0.0240068         0.0158415          0.053202         0.0460213        -0.0300632        -0.0214981        -0.0115008          0.030074        -0.0458461        -0.0130315          0.017926        0.00953947       -0.00676219         0.0117503
          0.055136         0.0336836         0.0486478        0.00528543         0.0206471       -0.00615826         0.0584923         0.0410001         0.0375378         0.0797974         0.0548324         0.0252939         0.0150416           0.03994         0.0706383         0.0701113         0.0600333         0.0539934         0.0429389         0.0292092         0.0893854         0.0728987        -0.0138363         0.0145278         0.0644489         0.0433945         0.0708349         0.0303628          0.140313          0.107406           -0.0265        -0.0173418       -0.00409228         0.0498324         0.0231649         0.0365854         0.0940096         0.0708803         0.0850214        -0.0922514         -0.162476        -0.0509951        -0.0155125        -0.0667532         0.0309241          0.114737         0.0325219          0.103261         -0.179993          -0.39365         -0.236772        -0.0306118        -0.0775376        0.00395267         0.0977044         0.0701563          0.101562         -0.070093         -0.233105         -0.181075        -0.0735891        -0.0225543         0.0995923         0.0129699         0.0442502         0.0758128        -0.0104191        -0.0772433        -0.0306934        -0.0304544       -0.00104889          0.018706        -0.0602134        -0.0180002        -0.0358872         0.0671988        -0.0132833        -0.0289334        -0.0234087        -0.0448492        -0.0535781         0.0883209          0.053599         0.0635489          0.121214          0.147077          0.127889         0.0879693          0.123349          0.167577         0.0751736           0.11107         0.0323154         0.0465632         0.0474155          0.130706         0.0856992         0.0697292          0.105967         0.0809429          0.132948         0.0488586         0.0715825         0.0946606         0.0984945         0.0635631          0.100046          0.133616         0.0850735          0.122816         0.0639245          0.106899         0.0946588         0.0479982         0.0807761         0.0813803          0.102044         0.0827519          0.078177         0.0794882         0.0810383          0.105986          0.131987         0.0306611          0.109138          0.086421         0.0773147          0.055041         0.0524149          0.028471          0.106195         0.0197945         0.0575671          0.109808         0.0886088         0.0798108         0.0837979         0.0465007         0.0532386          0.107093         0.0415025          0.039803          0.101353          0.116419         0.0560157         0.0992254         0.0555024        0.00162851         0.0369988         0.0667854         0.0907241         0.0338637          0.122491          0.128184          0.101786         0.0769573         0.0558847         0.0521115          0.120866         0.0876933          0.124012         0.0937183
         0.0198833         0.0293428       -0.00931891        -0.0447632          0.012122       -0.00580115        -0.0202519       -0.00325092         0.0273161         -0.011688         0.0238962        -0.0221759        -0.0262215        -0.0242838         -0.026919        -0.0349786       -0.00118429        -0.0219764        -0.0839581         0.0275094       -0.00343921       -0.00310417       -0.00218253        -0.0221477          0.057551        -0.0114202        0.00918554        -0.0499771        -0.0144391        -0.0562257         0.0304425         0.0682622         0.0327571         0.0330258        -0.0466652        -0.0479944        0.00682011           0.02357        -0.0651125         0.0143921          0.121515          0.133537         0.0679847         0.0632255         -0.135192        -0.0676892         -0.107295         -0.109806        -0.0307439          0.151034          0.222091          0.059448        -0.0359237        -0.0666104        -0.0450717         0.0351412        -0.0678613        0.00970644         0.0429322          0.221413          0.130841        -0.0383644        -0.0674289        -0.0368833        -0.0428065         0.0141449        -0.0567728         0.0572155          0.115551         0.0977207         0.0455437       -0.00010887      -0.000392264         0.0196842        -0.0601101        -0.0226273         0.0488217         0.0604891         0.0236642         0.0775854        -0.0104031         -0.028163        0.00968826        -0.0320287        -0.0708336        -0.0198551       -0.00558848        -0.0675796        -0.0234155        -0.0074271        -0.0642306        -0.0084703        -0.0469543        -0.0313437        -0.0294258       -0.00494686        0.00616923        -0.0206039        -0.0782976        -0.0164827        -0.0108767         0.0051118        -0.0199325        -0.0529354        -0.0942413        -0.0253888        -0.0517031        -0.0552774        -0.0563425        -0.0321263        -0.0445757        -0.0357109         0.0100739        -0.0570961        -0.0167616      -0.000940037        -0.0583449         0.0667083        -0.0478316         0.0677215        -0.0422227        -0.0133735         -0.050425         0.0194983        -0.0283265       -0.00617653        -0.0303931        -0.0307116         -0.045884          0.031262        -0.0199101        -0.0221022        -0.0654866         -0.028224        -0.0605801        -0.0396567        -0.0406031        -0.0794923         0.0271769       -0.00251375       -0.00576571        -0.0184112        -0.0290675        -0.0245211         -0.111773        -0.0310794        -0.0521828        -0.0599154         -0.032729         0.0130805        -0.0254848        -0.0316857        -0.0494286        -0.0229551        -0.0540706        -0.0463476        -0.0549293        -0.0113376        -0.0351442        -0.0689522         0.0119238        -0.0580665
      -0.000138454        -0.0182191         0.0451722        0.00631584         0.0182513        -0.0122101        -0.0657173        -0.0197239       -0.00255185        -0.0207268        -0.0130651        -0.0532383         0.0351042        -0.0208992         0.0210814        -0.0543249         0.0211991        -0.0446182        -0.0649255        -0.0602254        -0.0488363         -0.035936       -0.00391656         0.0443846        -0.0716898        -0.0245246        -0.0685035        -0.0134923        -0.0718768        -0.0447947        0.00815708         0.0575922         0.0906481         0.0118892          0.013304         -0.105973        -0.0596625        -0.0298326        -0.0784915      -0.000731079          0.142089           0.12946          0.114337         0.0211541        -0.0534911        -0.0635134         -0.124164        -0.0747426         0.0230159          0.166664          0.134136         0.0973766         0.0448506        -0.0282403        -0.0178893        -0.0528813        -0.0858084         0.0186813          0.111905          0.187658         0.0824422       -0.00407029        0.00583414         0.0101744       -0.00660209        -0.0208053        -0.0123575         0.0675059          0.108178          0.114817          0.102279       -0.00473206        -0.0311879        -0.0513189         0.0254817        -0.0608843        -0.0490837          0.068439         0.0313829         0.0958232        0.00610801        -0.0334014        -0.0392161        -0.0672437        -0.0456064        -0.0394519        -0.0400937        -0.0342625        -0.0537893         -0.044656         0.0240031        -0.0494412        -0.0199133        -0.0487088        -0.0246792        -0.0702338        -0.0493427        -0.0247718        -0.0118104        -0.0250753         0.0143703        -0.0558046          0.012412       -0.00523908         0.0283149        -0.0292885        -0.0181227        -0.0407637        -0.0263238         0.0245599        -0.0448555         0.0422633        -0.0257924        0.00208494        -0.0656931         0.0540205        -0.0229309         -0.033593         0.0145657         0.0344061         -0.044902        0.00500349        -0.0235184       -0.00056707        -0.0260583        -0.0177831        0.00542303        -0.0617055         0.0473367        0.00884825        -0.0417116         -0.050436        -0.0412213        0.00785025         0.0142553        -0.0827243         0.0414486        -0.0230705         0.0477991        -0.0175151        -0.0244984          0.025263         -0.028024        -0.0290004        -0.0055042        -0.0218899         0.0412374        0.00432866        -0.0650748        -0.0647392         0.0076003       -0.00930034        -0.0396547          -0.04868        -0.0600859        -0.0374548       -0.00893307         0.0129529       -0.00937098        -0.0357633         0.0097406        -0.0539955
         0.0157821         0.0341129          0.016371         0.0143417        -0.0294749         -0.018397          0.072114         0.0378433        -0.0197898         0.0311136          0.037402         0.0298073         0.0226132         0.0481508         0.0353102          0.112719         0.0207815         0.0461365          0.049581         0.0215432         0.0515614         0.0215349        -0.0521558        0.00980353       -0.00654207        -0.0361199          0.107095        0.00955168         0.0302368         0.0755526       -0.00358408         -0.132473         -0.096274         -0.087126         0.0486186      -0.000565823        -0.0172988          0.029761       0.000699431         -0.183791         -0.395311         -0.310223         -0.060149        -0.0488535        -0.0142627         0.0217856         0.0850192          0.041776         -0.322135         -0.604421         -0.400999        -0.0499407         0.0115642         0.0141409        -0.0156256         0.0912751         0.0228219         -0.311247         -0.482026         -0.405945        -0.0641237        -0.0491055         0.0686388         0.0319186          0.027677         0.0253343        0.00414359         -0.189517         -0.152609         -0.109463        -0.0209969         0.0118824        -0.0200365        -0.0045239        -0.0195035         0.0389345       -0.00399422        -0.0258921        -0.0368384        -0.0832453        0.00984117         0.0676613         0.0425701          0.100833         0.0318999        0.00320036         0.0474666         0.0800834         0.0512024          0.059264         0.0753461         0.0462315         0.0630414         0.0671621         0.0804289         0.0953224         0.0234325         0.0464456         0.0431199         0.0111009        0.00744019        -0.0147766         0.0519362         0.0281903         0.0755734         0.0561037          0.090865         0.0331016         0.0278748         0.0352293         0.0415625        -0.0110428         0.0410146         0.0629613         0.0706395         0.0600459         0.0359833          0.108425         0.0938666         0.0956977       -0.00248573         0.0251168         0.0885423         0.0755816         0.0249689       -0.00351028         0.0619075         0.0353292         0.0375725        -0.0516086        0.00157258         0.0331965         0.0261652         0.0231054          0.147034         0.0283849           0.10072         0.0765262        -0.0900744         0.0253304         0.0504545         0.0508616         0.0732612         0.0425785         0.0502804         0.0993308        0.00598245        -0.0479027         0.0490225         0.0858551         0.0148277          0.074499         0.0996842          0.075739         0.0267532         0.0691411         0.0524287          0.039108         0.0216756         0.0778338         0.0174251         0.0570335
       -0.00411161         0.0618858         0.0241634         0.0722923         0.0111478         0.0163286         0.0839645          0.072905         0.0228384         0.0943006         0.0556915         0.0421536         0.0603095           0.05497         0.0979664         0.0343912          0.048403         -0.011818         0.0104175         0.0758306         0.0968754         0.0759065         0.0347098           0.11612          0.036819         0.0787936          0.058079        0.00897981           0.07681          0.107445         0.0164129        -0.0574327        -0.0298905       -0.00634756         0.0391036         0.0484585         0.0209809         0.0845597         0.0153591         -0.186346         -0.353647         -0.213521        -0.0834966      -0.000735208          0.066848         0.0722549          0.164953           0.10659          -0.25068         -0.563279         -0.403765        -0.0573086        -0.0506913        -0.0133009         0.0535165         0.0953122         0.0631602         -0.183903         -0.433857         -0.341293        -0.0905084         0.0612296         0.0670904         0.0496397         0.0429344         0.0872196         0.0409004         -0.102463         -0.113865        -0.0406277        0.00964318         0.0495834        0.00557311         0.0251683           0.03088         0.0697746       -0.00393017        -0.0126685        -0.0174754        0.00395411        -0.0345418         0.0486634         0.0249723         0.0845103         0.0666081         0.0579507          0.092815         0.0958365         0.0501227          0.113513          0.043523         0.0559262        -0.0473929         0.0487084         0.0655428         0.0379118         0.0621842          0.102455          0.114435          0.138469         0.0231468         0.0381115         0.0200751         0.0976936         0.0457818         0.0437603         0.0206187        0.00469475          0.123054         0.0626038         0.0737342         0.0883531         0.0248177          0.124752         0.0229042         0.0939457         0.0691898         0.0863674         0.0889967          0.032871        0.00461927          0.106927         0.0552498       -0.00431756         0.0448696          0.100225        0.00955964       -0.00665953         0.0660804        -0.0335464         0.0826247         0.0531928          0.063779         0.0732531         0.0510072         0.0635927          0.075499         0.0307051        -0.0908754         0.0585557         0.0532626          0.043767        0.00752026        0.00977376         0.0833419         0.0450403         0.0787706         -0.040714         0.0160014         0.0614675         0.0573794          0.073286         0.0745091         0.0281353         0.0605616         0.0815355         0.0968685         0.0203078          0.106316         0.0656864          0.132882         0.0946046
        -0.0292183           0.03144          0.031523        -0.0122685        0.00327061         0.0245984         0.0374738         0.0133228        -0.0361976         0.0289866        -0.0330015        -0.0295678       -0.00101452        -0.0170146         0.0223456         0.0431065        -0.0236643         0.0368666        0.00481626         0.0504126        0.00907197        -0.0152308       -0.00497217         0.0236914         0.0136496        0.00233117        -0.0198082        -0.0350263        0.00453836        -0.0181358         0.0122407        -0.0162414         0.0660311         0.0430368        -0.0257832         0.0363656        0.00271871         0.0262323        0.00356986        0.00869988          0.026677       -0.00707802        -0.0263739         -0.036065         0.0225936        0.00340866        0.00519452         0.0306712       -0.00355895         0.0411327        -0.0290291        -0.0309017       -0.00538014         -0.016918         0.0021527        0.00256317        -0.0377005         0.0517843        -0.0301441        0.00686746         0.0105197        -0.0163632        -0.0224371       -0.00802211         0.0423043         0.0129723        -0.0464485         0.0166194        -0.0119026      -0.000819968        -0.0482175       0.000195054         0.0075695         0.0207127      -7.54389e-05       -0.00500321         0.0992812        -0.0148851        0.00580502       -0.00322091       -0.00576278        -0.0204592        -0.0286796         0.0885464         0.0354647         0.0263511        -0.0352635        -0.0297426       -0.00406924        -0.0571976         -0.067062         0.0052528         0.0246906        -0.0396719       -0.00750274        -0.0376262        0.00836895       -0.00215549        -0.0659836          0.014743        -0.0149651         0.0549312             0.014         -0.019289       -0.00305373        -0.0370492        0.00211755        -0.0156829        -0.0105682         0.0569896         -0.015028         0.0529139          0.013958        0.00429067        -0.0354868        -0.0512217       0.000375906         0.0189542        -0.0201458        0.00349598       -0.00384942        -0.0466802         0.0751366         0.0696963         0.0230257         0.0114124      -0.000813122       -0.00679216        -0.0346295        -0.0188597        -0.0140428         0.0115451        -0.0200387         0.0345743        0.00328248         0.0160007        -0.0513146         0.0088905        -0.0170364         -0.032021        0.00650229         0.0545681        -0.0173706         0.0105279         0.0198622         0.0205115        -0.0511354         -0.030054          0.017927          0.048676        -0.0530313        -0.0102387         0.0129905        -0.0179692        -0.0295402       0.000694729         0.0604699        -0.0102454         0.0281194         0.0490315         0.0861432        0.00955044
       -0.00412056          0.025864         0.0623593         0.0450529       -0.00198109        0.00545177         0.0223279       -0.00925357         0.0507299         0.0370538         0.0376386       -0.00470256        -0.0139701         0.0601662         0.0521767         0.0204399         0.0133812        -0.0279458          0.089415         0.0945814         0.0848601         0.0815989       0.000972639       -0.00908426         0.0160588         0.0167537         0.0438166         0.0665334         0.0693197         0.0702706         0.0715179        -0.0462163        -0.0434386        0.00182081         0.0920538           0.12285           0.11641         0.0569178         0.0859091         0.0210994        -0.0610246         -0.121354        -0.0436184        -0.0607014         0.0708384         0.0542369         0.0951675          0.129084           0.12599          -0.12806         -0.195428        -0.0614225         0.0623971          0.019155         0.0503851          0.053946          0.111493         0.0722868        -0.0257153         -0.175589         -0.102522        0.00271648         0.0868111         0.0270126         0.0405619         0.0558094           0.13085        -0.0211391        -0.0799693        -0.0695915         0.0211383       -0.00124825         0.0598218        -0.0438934         0.0478796         0.0937205         0.0080164        -0.0842054        -0.0319196       -0.00125118       -0.00129632          0.143232         0.0591593          0.108048         0.0201042         0.0356544         0.0397353         0.0659138        -0.0141311          0.114151          0.117474          0.058639         0.0872325         0.0439084         0.0501054         0.0822007         0.0467057         0.0681579          0.133016         0.0762017         0.0867242         0.0866301         0.0574385          0.105149         0.0952296         0.0822524          0.104868         0.0849699          0.104293          0.105879         0.0717773         0.0228406        0.00503692         0.0901434         0.0325487         0.0720448         0.0412838         0.0956055         0.0800816         0.0422026         0.0538155         0.0499964        -0.0115015        0.00632225         0.0940552         0.0791585         0.0314988         0.0503304         0.0916836         0.0212405          0.032547         0.0249903        0.00153377         0.0375605         0.0700564          0.108822         0.0883235         0.0767556         0.0121892         0.0387948         0.0617335        -0.0103569         0.0492586          0.142761          0.111025         0.0770226        -0.0102352         0.0546353         0.0738358         0.0674051         0.0871307         0.0861234         0.0940071         0.0742733         0.0918357          0.105361         0.0806022          0.101446          0.035721          0.110288         0.0236493          0.030899
       -0.00663669        -0.0463905        -0.0267764         -0.018915         0.0736334        0.00166714         0.0186853        -0.0443076        -0.0608823        -0.0243357         0.0170356       -0.00400884         0.0266012         0.0031561         0.0199328        -0.0324621        -0.0164881        -0.0132863        -0.0299952       -0.00187854         0.0341071        -0.0260918         0.0120996         0.0241642         0.0211555        -0.0281674       -0.00251865        -0.0180716        0.00368256         -0.024988         0.0383839         0.0104619       -0.00734337       0.000697242        -0.0466714        -0.0115591         0.0302817       -0.00646134        -0.0606824       -0.00131199         0.0249089         0.0311793       -0.00139203       -0.00274885        -0.0135953        0.00253447        -0.0324766         0.0322077        -0.0260443       -0.00430862         0.0056007        0.00151788        -0.0167952        -0.0626709        -0.0411205         0.0197518        -0.0101208        -0.0230997        -0.0121453         0.0266897         0.0405762         0.0230241         0.0238081        -0.0130243        -0.0200813        0.00859457          0.021517         0.0116885        -0.0165443        -0.0162515        -0.0642156        -0.0343607        0.00331848        0.00639522         0.0377889         0.0136136         0.0377382        0.00147564        -0.0217515         -0.017275       -0.00985277         0.0194977       -0.00493271        -0.0161067          0.030108        -0.0135886       -0.00389217        -0.0189235        0.00881329         0.0391614        -0.0615647       -0.00245057         0.0196017         0.0325428         0.0630266        -0.0079514         -0.032495         0.0441125       -0.00608469         -0.014871         0.0355603         0.0277563       -0.00477784         0.0368944        -0.0088844        0.00590353         0.0149888        -0.0120237         0.0313439         0.0136342        -0.0313592         0.0263076        -0.0351093        -0.0179001       -0.00997156      -0.000713817        -0.0379082       -0.00338761          0.040852        -0.0213214        0.00749265         0.0309519       -0.00567541        0.00499666        0.00241082         0.0213151          0.018966         0.0348205        0.00358055        0.00669024         0.0254318        -0.0453555         0.0438581         -0.020229        -0.0225891        -0.0385913         0.0479154         0.0144723        -0.0384751       -0.00531383         0.0488729        -0.0486273        -0.0125668       -0.00825001        0.00534442        -0.0354907        0.00266471        0.00396095         0.0164048         0.0126474         0.0214455         0.0242522         0.0149756         0.0262554       -0.00453704         0.0267716          0.016279       0.000344291          0.102605         0.0294493        -0.0272812        -0.0160154

bias 0:
          -1.18832
         -0.178359
        -0.0702469
          0.527463
         -0.642111
         0.0468243
           1.27665
          -1.35923
          0.180246
          -3.98716

